SVM-light Version V6.02
0 # kernel type
3 # kernel parameter -d 
1 # kernel parameter -g 
1 # kernel parameter -s 
1 # kernel parameter -r 
empty# kernel parameter -u 
67771 # highest feature index 
3207 # number of training documents 
2181 # number of support vectors plus 1 
-0.42429396 # threshold b, each following line is a SV (starting with alpha*y)
0.019436660813167208616825121225702 27:1 218:1 242:1 389:1 530:1 2152:1 6767:1 7362:1 7623:1 10142:1 10143:1 10144:1 10145:1 10146:1 10147:1 10148:1 10149:1 10150:1 10151:1 10152:1 10153:1 #unigram###Het bigram###Het#-#avondmaal trigram###Het#-#avondmaal#-#ovv unigram###avondmaal bigram###avondmaal#-#ovv trigram###avondmaal#-#ovv#-#buffet unigram###ovv bigram###ovv#-#buffet trigram###ovv#-#buffet#-#was unigram###buffet bigram###buffet#-#was trigram###buffet#-#was#-#ook unigram###was bigram###was#-#ook trigram###was#-#ook#-#heerlijk unigram###ook bigram###ook#-#heerlijk trigram###ook#-#heerlijk#-#. unigram###heerlijk bigram###heerlijk#-#. unigram###. 
0.0047063921276844326857524691831713 49:2 55:1 140:1 175:1 183:1 195:1 346:1 372:2 389:1 453:1 629:1 669:1 1770:1 4545:1 4804:1 6137:1 6901:1 10630:1 10631:1 17218:1 17219:1 18773:1 18774:1 28730:1 31735:1 35721:1 42010:1 42103:1 42104:1 42105:1 46911:1 46912:1 46913:1 46914:1 46915:1 46916:1 46917:1 46918:1 46919:1 46920:1 46921:1 46922:1 46923:1 46924:1 46925:1 46926:1 46927:1 46928:1 46929:1 46930:1 46931:1 46932:1 46933:1 46934:1 46935:1 46936:1 46937:1 46938:1 46939:1 46940:1 46941:1 46942:1 46943:1 46944:1 46945:1 46946:1 46947:1 #unigram###Schoonmaken bigram###Schoonmaken#-#dient trigram###Schoonmaken#-#dient#-#meer unigram###dient bigram###dient#-#meer trigram###dient#-#meer#-#aandacht unigram###meer bigram###meer#-#aandacht trigram###meer#-#aandacht#-#te unigram###aandacht bigram###aandacht#-#te trigram###aandacht#-#te#-#krijgen unigram###te bigram###te#-#krijgen trigram###te#-#krijgen#-#, unigram###krijgen bigram###krijgen#-#, trigram###krijgen#-#,#-#in unigram###, bigram###,#-#in trigram###,#-#in#-#de unigram###in bigram###in#-#de trigram###in#-#de#-#ruimten unigram###de bigram###de#-#ruimten trigram###de#-#ruimten#-#waar unigram###ruimten bigram###ruimten#-#waar trigram###ruimten#-#waar#-#wij unigram###waar bigram###waar#-#wij trigram###waar#-#wij#-#gebruik unigram###wij bigram###wij#-#gebruik trigram###wij#-#gebruik#-#van unigram###gebruik bigram###gebruik#-#van trigram###gebruik#-#van#-#hebben unigram###van bigram###van#-#hebben trigram###van#-#hebben#-#gemaakt unigram###hebben bigram###hebben#-#gemaakt trigram###hebben#-#gemaakt#-#was unigram###gemaakt bigram###gemaakt#-#was trigram###gemaakt#-#was#-#dit unigram###was bigram###was#-#dit trigram###was#-#dit#-#in unigram###dit bigram###dit#-#in trigram###dit#-#in#-#sommige unigram###in bigram###in#-#sommige trigram###in#-#sommige#-#opzichten unigram###sommige bigram###sommige#-#opzichten trigram###sommige#-#opzichten#-#te unigram###opzichten bigram###opzichten#-#te trigram###opzichten#-#te#-#vuil unigram###te bigram###te#-#vuil trigram###te#-#vuil#-#! unigram###vuil bigram###vuil#-#! unigram###! 
-0.048173795555627493825134877170058 27:1 102:1 134:1 175:1 229:1 523:1 610:1 1286:1 2164:1 4258:1 4594:1 4790:1 9769:1 20338:1 21229:1 22163:1 25803:1 25804:1 25805:1 25806:1 25807:1 25808:1 25809:1 25810:1 25811:1 25812:1 25813:1 25814:1 25815:1 25816:1 25817:1 25818:1 25819:1 #unigram###Maar bigram###Maar#-#bij trigram###Maar#-#bij#-#de unigram###bij bigram###bij#-#de trigram###bij#-#de#-#volle unigram###de bigram###de#-#volle trigram###de#-#volle#-#prijs unigram###volle bigram###volle#-#prijs trigram###volle#-#prijs#-#had unigram###prijs bigram###prijs#-#had trigram###prijs#-#had#-#ik unigram###had bigram###had#-#ik trigram###had#-#ik#-#dat unigram###ik bigram###ik#-#dat trigram###ik#-#dat#-#absoluut unigram###dat bigram###dat#-#absoluut trigram###dat#-#absoluut#-#wel unigram###absoluut bigram###absoluut#-#wel trigram###absoluut#-#wel#-#gedaan unigram###wel bigram###wel#-#gedaan trigram###wel#-#gedaan#-#. unigram###gedaan bigram###gedaan#-#. unigram###. 
0.088966328652312118285827580166369 27:1 324:1 12491:1 12492:1 12493:1 12494:1 12495:1 12496:1 12497:1 #unigram###Metro bigram###Metro#-#op trigram###Metro#-#op#-#100m unigram###op bigram###op#-#100m trigram###op#-#100m#-#. unigram###100m bigram###100m#-#. unigram###. 
0.014791790100842923394441896789431 27:1 61:2 87:1 321:1 425:1 559:1 573:1 574:1 2351:1 5279:1 5287:1 5932:1 6746:1 7246:1 7863:1 9325:1 10340:1 10341:1 10342:1 10343:1 10344:1 10345:1 10346:1 10347:1 10348:1 10349:1 10350:1 10351:1 10352:1 10353:1 10354:1 10355:1 10356:1 10357:1 10358:1 #unigram###De bigram###De#-#broodjes trigram###De#-#broodjes#-#waren unigram###broodjes bigram###broodjes#-#waren trigram###broodjes#-#waren#-#mals unigram###waren bigram###waren#-#mals trigram###waren#-#mals#-#en unigram###mals bigram###mals#-#en trigram###mals#-#en#-#lekker unigram###en bigram###en#-#lekker trigram###en#-#lekker#-#( unigram###lekker bigram###lekker#-#( trigram###lekker#-#(#-#en unigram###( bigram###(#-#en trigram###(#-#en#-#veel unigram###en bigram###en#-#veel trigram###en#-#veel#-#verschillende unigram###veel bigram###veel#-#verschillende trigram###veel#-#verschillende#-#soorten unigram###verschillende bigram###verschillende#-#soorten trigram###verschillende#-#soorten#-#) unigram###soorten bigram###soorten#-#) trigram###soorten#-#)#-#. unigram###) bigram###)#-#. unigram###. 
0.011618630468353366089195866095451 87:1 372:1 380:1 389:1 699:1 1158:1 1578:1 1669:1 1865:1 4555:1 4942:1 6158:1 7024:1 9262:1 9263:1 9264:1 9265:1 9266:1 9267:1 9268:1 9269:1 9270:1 9271:1 9272:1 9273:1 9274:2 9275:2 9276:1 9277:2 9278:1 9279:1 9280:1 9281:1 9282:1 9283:1 9284:1 9285:1 9286:1 9287:1 9288:1 9289:1 9290:1 9291:1 9292:1 9293:1 9294:1 9295:1 9296:1 #unigram###Kamerthemperatuur bigram###Kamerthemperatuur#-#stond trigram###Kamerthemperatuur#-#stond#-#veel unigram###stond bigram###stond#-#veel trigram###stond#-#veel#-#te unigram###veel bigram###veel#-#te trigram###veel#-#te#-#hoog unigram###te bigram###te#-#hoog trigram###te#-#hoog#-#23 unigram###hoog bigram###hoog#-#23 trigram###hoog#-#23#-#° unigram###23 bigram###23#-#° trigram###23#-#°#-#C unigram###° bigram###°#-#C trigram###°#-#C#-#terwijl unigram###C bigram###C#-#terwijl trigram###C#-#terwijl#-#het unigram###terwijl bigram###terwijl#-#het trigram###terwijl#-#het#-#buiten unigram###het bigram###het#-#buiten trigram###het#-#buiten#-#9 unigram###buiten bigram###buiten#-#9 trigram###buiten#-#9#-#/ unigram###9 bigram###9#-#/ trigram###9#-#/#-#10 unigram###/ bigram###/#-#10 trigram###/#-#10#-#° unigram###10 bigram###10#-#° trigram###10#-#°#-#C unigram###° bigram###°#-#C trigram###°#-#C#-#was unigram###C bigram###C#-#was trigram###C#-#was#-#? unigram###was bigram###was#-#? unigram###? 
-0.060396877508908167198065086722636 27:1 55:1 102:1 175:2 1168:1 1286:1 4782:1 15182:1 22060:1 53102:1 53244:1 53305:1 53306:1 57861:1 57862:1 61980:1 61981:1 61982:1 61983:1 61984:1 61985:1 61986:1 61987:1 61988:1 61989:1 61990:1 61991:1 61992:1 61993:1 #unigram###Premier bigram###Premier#-#Mark trigram###Premier#-#Mark#-#Rutte unigram###Mark bigram###Mark#-#Rutte trigram###Mark#-#Rutte#-#woonde unigram###Rutte bigram###Rutte#-#woonde trigram###Rutte#-#woonde#-#de unigram###woonde bigram###woonde#-#de trigram###woonde#-#de#-#uitreiking unigram###de bigram###de#-#uitreiking trigram###de#-#uitreiking#-#van unigram###uitreiking bigram###uitreiking#-#van trigram###uitreiking#-#van#-#de unigram###van bigram###van#-#de trigram###van#-#de#-#prijs unigram###de bigram###de#-#prijs trigram###de#-#prijs#-#bij unigram###prijs bigram###prijs#-#bij trigram###prijs#-#bij#-#. unigram###bij bigram###bij#-#. unigram###. 
0.05954203365389128949081154473788 27:1 61:1 450:1 451:1 453:1 456:1 831:1 834:1 992:1 3824:1 11988:1 13435:1 17646:1 22465:1 26258:1 26259:1 28878:1 28879:1 28880:1 28881:1 28882:1 28883:1 28884:1 28885:1 28886:1 28887:1 28888:1 28889:1 28890:1 28891:1 #unigram###Wij bigram###Wij#-#hebben trigram###Wij#-#hebben#-#pizza unigram###hebben bigram###hebben#-#pizza trigram###hebben#-#pizza#-#' unigram###pizza bigram###pizza#-#' trigram###pizza#-#'#-#s unigram###' bigram###'#-#s trigram###'#-#s#-#besteld unigram###s bigram###s#-#besteld trigram###s#-#besteld#-#en unigram###besteld bigram###besteld#-#en trigram###besteld#-#en#-#deze unigram###en bigram###en#-#deze trigram###en#-#deze#-#smaakten unigram###deze bigram###deze#-#smaakten trigram###deze#-#smaakten#-#redelijk unigram###smaakten bigram###smaakten#-#redelijk trigram###smaakten#-#redelijk#-#. unigram###redelijk bigram###redelijk#-#. unigram###. 
-0.11902454362831259293553642919505 27:1 31:1 73:1 456:1 5985:1 6236:1 8283:1 8841:1 12278:1 28235:1 41519:1 41520:1 41521:1 41522:1 41523:1 41524:1 41525:1 41526:1 #unigram###En bigram###En#-#deze trigram###En#-#deze#-#is unigram###deze bigram###deze#-#is trigram###deze#-#is#-#voor unigram###is bigram###is#-#voor trigram###is#-#voor#-#grotere unigram###voor bigram###voor#-#grotere trigram###voor#-#grotere#-#kinderen unigram###grotere bigram###grotere#-#kinderen trigram###grotere#-#kinderen#-#. unigram###kinderen bigram###kinderen#-#. unigram###. 
-0.024664764081878374352152505366575 7:1 22:1 27:1 37:3 61:1 175:1 349:1 355:1 523:1 618:1 773:1 886:1 971:1 1397:1 1481:1 1730:1 2086:1 2164:1 5157:1 6388:1 7442:1 7443:1 12203:2 17230:1 17598:1 32163:1 33639:1 49196:1 49197:1 49198:1 49199:1 49200:1 49201:1 49202:1 49203:1 49204:1 49205:1 49206:1 49207:1 49208:1 49209:1 49210:1 49211:1 49212:1 49213:1 49214:1 49215:1 49216:1 49217:1 49218:1 49219:1 49220:1 49221:1 49222:1 49223:1 49224:1 49225:1 49226:1 49227:1 49228:1 49229:1 49230:1 49231:1 49232:1 49233:1 49234:1 49235:1 49236:1 49237:1 49238:1 49239:1 49240:1 #unigram###We bigram###We#-#boekten trigram###We#-#boekten#-#via unigram###boekten bigram###boekten#-#via trigram###boekten#-#via#-#een unigram###via bigram###via#-#een trigram###via#-#een#-#touroperator unigram###een bigram###een#-#touroperator trigram###een#-#touroperator#-#maar unigram###touroperator bigram###touroperator#-#maar trigram###touroperator#-#maar#-#ik unigram###maar bigram###maar#-#ik trigram###maar#-#ik#-#had unigram###ik bigram###ik#-#had trigram###ik#-#had#-#via unigram###had bigram###had#-#via trigram###had#-#via#-#e unigram###via bigram###via#-#e trigram###via#-#e#-#· unigram###e bigram###e#-#· trigram###e#-#·#-#mail unigram###· bigram###·#-#mail trigram###·#-#mail#-#een unigram###mail bigram###mail#-#een trigram###mail#-#een#-#kamer unigram###een bigram###een#-#kamer trigram###een#-#kamer#-#met unigram###kamer bigram###kamer#-#met trigram###kamer#-#met#-#2 unigram###met bigram###met#-#2 trigram###met#-#2#-#afzonderlijke unigram###2 bigram###2#-#afzonderlijke trigram###2#-#afzonderlijke#-#bedden unigram###afzonderlijke bigram###afzonderlijke#-#bedden trigram###afzonderlijke#-#bedden#-#en unigram###bedden bigram###bedden#-#en trigram###bedden#-#en#-#een unigram###en bigram###en#-#een trigram###en#-#een#-#raam unigram###een bigram###een#-#raam trigram###een#-#raam#-#aan unigram###raam bigram###raam#-#aan trigram###raam#-#aan#-#de unigram###aan bigram###aan#-#de trigram###aan#-#de#-#straatzijde unigram###de bigram###de#-#straatzijde trigram###de#-#straatzijde#-#gevraagd unigram###straatzijde bigram###straatzijde#-#gevraagd trigram###straatzijde#-#gevraagd#-#. unigram###gevraagd bigram###gevraagd#-#. unigram###. 
0.015227147340840661154937052401692 588:1 2560:2 5789:1 22509:1 46858:1 49450:1 49451:1 49452:1 49453:1 49454:1 49455:1 49456:1 49457:1 49458:1 49459:1 49460:1 49461:1 #unigram###Fraai bigram###Fraai#-#hotel trigram###Fraai#-#hotel#-#ondanks unigram###hotel bigram###hotel#-#ondanks trigram###hotel#-#ondanks#-#" unigram###ondanks bigram###ondanks#-#" trigram###ondanks#-#"#-#dubbele unigram###" bigram###"#-#dubbele trigram###"#-#dubbele#-#boeking unigram###dubbele bigram###dubbele#-#boeking trigram###dubbele#-#boeking#-#" unigram###boeking bigram###boeking#-#" unigram###" 
0.020533855576001826259702198740342 27:1 31:1 49:1 73:1 74:1 175:3 629:2 669:1 2457:1 9912:1 12278:1 14724:1 52809:1 59211:1 61068:1 61854:1 61855:1 61856:1 61857:1 61858:1 61859:1 61860:1 61861:1 61862:1 61863:1 61864:1 61865:1 61866:1 61867:1 61868:1 61869:1 61870:1 61871:1 61872:1 61873:1 61874:1 #unigram###Alleen bigram###Alleen#-#de trigram###Alleen#-#de#-#CSU unigram###de bigram###de#-#CSU trigram###de#-#CSU#-#, unigram###CSU bigram###CSU#-#, trigram###CSU#-#,#-#de unigram###, bigram###,#-#de trigram###,#-#de#-#christendemocraten unigram###de bigram###de#-#christendemocraten trigram###de#-#christendemocraten#-#in unigram###christendemocraten bigram###christendemocraten#-#in trigram###christendemocraten#-#in#-#de unigram###in bigram###in#-#de trigram###in#-#de#-#deelstaat unigram###de bigram###de#-#deelstaat trigram###de#-#deelstaat#-#Beieren unigram###deelstaat bigram###deelstaat#-#Beieren trigram###deelstaat#-#Beieren#-#, unigram###Beieren bigram###Beieren#-#, trigram###Beieren#-#,#-#is unigram###, bigram###,#-#is trigram###,#-#is#-#voor unigram###is bigram###is#-#voor trigram###is#-#voor#-#. unigram###voor bigram###voor#-#. unigram###. 
0.0139388375876404475156578044448 27:1 61:1 1079:1 1155:1 4670:1 4671:1 12905:1 24765:1 24766:1 24767:1 24768:1 24769:1 24770:1 24771:1 24772:1 #unigram###Mooie bigram###Mooie#-#douche trigram###Mooie#-#douche#-#en unigram###douche bigram###douche#-#en trigram###douche#-#en#-#föhn unigram###en bigram###en#-#föhn trigram###en#-#föhn#-#aanwezig unigram###föhn bigram###föhn#-#aanwezig trigram###föhn#-#aanwezig#-#. unigram###aanwezig bigram###aanwezig#-#. unigram###. 
-0.013974871322406946447247655385127 27:1 55:2 61:1 175:1 349:1 629:1 1168:1 16762:1 24967:1 29069:1 55507:1 55509:1 55560:1 57694:1 57695:1 57696:1 57697:1 57698:1 57699:1 57700:1 57701:1 57702:1 57703:1 57704:1 57705:1 57706:1 57707:1 57708:1 57709:1 57710:1 57711:1 57712:1 57713:1 57714:1 57715:1 57716:1 57717:1 57718:1 57719:1 57720:1 57721:1 57722:1 57723:1 57724:1 #unigram###Samaras bigram###Samaras#-#spreekt trigram###Samaras#-#spreekt#-#woensdag unigram###spreekt bigram###spreekt#-#woensdag trigram###spreekt#-#woensdag#-#met unigram###woensdag bigram###woensdag#-#met trigram###woensdag#-#met#-#Jean-Claude unigram###met bigram###met#-#Jean-Claude trigram###met#-#Jean-Claude#-#Juncker unigram###Jean-Claude bigram###Jean-Claude#-#Juncker trigram###Jean-Claude#-#Juncker#-#, unigram###Juncker bigram###Juncker#-#, trigram###Juncker#-#,#-#premier unigram###, bigram###,#-#premier trigram###,#-#premier#-#van unigram###premier bigram###premier#-#van trigram###premier#-#van#-#Luxemburg unigram###van bigram###van#-#Luxemburg trigram###van#-#Luxemburg#-#en unigram###Luxemburg bigram###Luxemburg#-#en trigram###Luxemburg#-#en#-#voorzitter unigram###en bigram###en#-#voorzitter trigram###en#-#voorzitter#-#van unigram###voorzitter bigram###voorzitter#-#van trigram###voorzitter#-#van#-#de unigram###van bigram###van#-#de trigram###van#-#de#-#eurozone unigram###de bigram###de#-#eurozone trigram###de#-#eurozone#-#. unigram###eurozone bigram###eurozone#-#. unigram###. 
0.1558581526112741699741093270859 588:1 21406:1 21407:1 #unigram###Redelijk bigram###Redelijk#-#hotel unigram###hotel 
0.050840805963469549999533825257458 804:1 2555:1 12016:1 12017:1 12018:1 12019:1 12020:1 28640:1 48458:1 48459:1 48460:1 48461:1 #unigram###Geen bigram###Geen#-#Van trigram###Geen#-#Van#-#der unigram###Van bigram###Van#-#der trigram###Van#-#der#-#Valk unigram###der bigram###der#-#Valk trigram###der#-#Valk#-#waardig unigram###Valk bigram###Valk#-#waardig unigram###waardig 
0.020294172831782090332675139165985 27:1 61:1 73:1 951:1 1066:1 1738:1 4077:1 5983:1 5985:1 6406:1 8034:1 11719:1 16750:1 17541:1 17542:1 17543:1 17544:1 17545:1 17546:1 17547:1 17548:1 17549:1 17550:1 17551:1 17552:1 17553:1 17554:1 #unigram###Niet bigram###Niet#-#echt trigram###Niet#-#echt#-#geschikt unigram###echt bigram###echt#-#geschikt trigram###echt#-#geschikt#-#voor unigram###geschikt bigram###geschikt#-#voor trigram###geschikt#-#voor#-#kinderen unigram###voor bigram###voor#-#kinderen trigram###voor#-#kinderen#-#tussen unigram###kinderen bigram###kinderen#-#tussen trigram###kinderen#-#tussen#-#3 unigram###tussen bigram###tussen#-#3 trigram###tussen#-#3#-#en unigram###3 bigram###3#-#en trigram###3#-#en#-#12 unigram###en bigram###en#-#12 trigram###en#-#12#-#. unigram###12 bigram###12#-#. unigram###. 
-0.12318139804065211806438639996486 27:1 73:1 380:1 588:1 1010:1 1726:1 1727:1 1964:1 4216:1 11851:1 11852:1 11853:1 11854:1 11855:1 11856:1 11857:1 11858:1 11859:1 11860:1 11861:1 11862:1 #unigram###Staan bigram###Staan#-#duidelijk trigram###Staan#-#duidelijk#-#aangegeven unigram###duidelijk bigram###duidelijk#-#aangegeven trigram###duidelijk#-#aangegeven#-#beginnen unigram###aangegeven bigram###aangegeven#-#beginnen trigram###aangegeven#-#beginnen#-#voor unigram###beginnen bigram###beginnen#-#voor trigram###beginnen#-#voor#-#het unigram###voor bigram###voor#-#het trigram###voor#-#het#-#hotel unigram###het bigram###het#-#hotel trigram###het#-#hotel#-#. unigram###hotel bigram###hotel#-#. unigram###. 
0.023108396665317765955593998228323 143:1 245:1 629:1 2614:1 4148:1 7579:1 13653:1 13654:1 13655:1 13656:1 13657:1 13658:1 13659:1 13660:1 13661:1 13662:1 13663:1 13664:1 13665:1 13666:1 13667:1 13668:1 13669:1 13670:1 #unigram###Twee bigram###Twee#-#jaar trigram###Twee#-#jaar#-#later unigram###jaar bigram###jaar#-#later trigram###jaar#-#later#-#, unigram###later bigram###later#-#, trigram###later#-#,#-#nog unigram###, bigram###,#-#nog trigram###,#-#nog#-#altijd unigram###nog bigram###nog#-#altijd trigram###nog#-#altijd#-#niet unigram###altijd bigram###altijd#-#niet trigram###altijd#-#niet#-#afgewerkt unigram###niet bigram###niet#-#afgewerkt trigram###niet#-#afgewerkt#-#.. unigram###afgewerkt bigram###afgewerkt#-#.. unigram###.. 
-0.019085139077837095372691678107913 27:1 49:1 61:2 425:1 629:1 6406:1 12878:1 34003:1 53457:1 53728:1 53729:1 53730:1 53731:1 53732:1 53733:1 53734:1 53735:1 53736:1 53740:1 53746:1 53752:1 58632:1 58633:1 66936:1 66937:1 66938:1 66939:1 66940:1 66941:1 66942:1 66943:1 66944:1 66945:1 66946:1 66947:1 66948:1 66949:1 66950:1 66951:1 66952:1 66953:1 #unigram###De bigram###De#-#beurzen trigram###De#-#beurzen#-#in unigram###beurzen bigram###beurzen#-#in trigram###beurzen#-#in#-#Londen unigram###in bigram###in#-#Londen trigram###in#-#Londen#-#, unigram###Londen bigram###Londen#-#, trigram###Londen#-#,#-#Parijs unigram###, bigram###,#-#Parijs trigram###,#-#Parijs#-#en unigram###Parijs bigram###Parijs#-#en trigram###Parijs#-#en#-#Frankfurt unigram###en bigram###en#-#Frankfurt trigram###en#-#Frankfurt#-#stegen unigram###Frankfurt bigram###Frankfurt#-#stegen trigram###Frankfurt#-#stegen#-#tussen unigram###stegen bigram###stegen#-#tussen trigram###stegen#-#tussen#-#0,5 unigram###tussen bigram###tussen#-#0,5 trigram###tussen#-#0,5#-#en unigram###0,5 bigram###0,5#-#en trigram###0,5#-#en#-#0,7 unigram###en bigram###en#-#0,7 trigram###en#-#0,7#-#procent unigram###0,7 bigram###0,7#-#procent trigram###0,7#-#procent#-#. unigram###procent bigram###procent#-#. unigram###. 
0.017453696961806746540402102141343 27:1 37:1 172:1 173:1 175:1 485:1 1231:1 1232:1 2059:1 7847:1 11027:1 17670:1 27393:1 27394:1 27395:1 27396:1 27397:1 27398:1 27399:1 27400:1 27401:1 27402:1 27403:1 27404:1 27405:1 27406:1 27407:1 27408:1 27409:1 27410:1 #unigram###Wel bigram###Wel#-#wilde trigram###Wel#-#wilde#-#we unigram###wilde bigram###wilde#-#we trigram###wilde#-#we#-#een unigram###we bigram###we#-#een trigram###we#-#een#-#opmerking unigram###een bigram###een#-#opmerking trigram###een#-#opmerking#-#maken unigram###opmerking bigram###opmerking#-#maken trigram###opmerking#-#maken#-#over unigram###maken bigram###maken#-#over trigram###maken#-#over#-#de unigram###over bigram###over#-#de trigram###over#-#de#-#kapotte unigram###de bigram###de#-#kapotte trigram###de#-#kapotte#-#stoomkabine unigram###kapotte bigram###kapotte#-#stoomkabine trigram###kapotte#-#stoomkabine#-#. unigram###stoomkabine bigram###stoomkabine#-#. unigram###. 
0.0090175709514780811454359721324181 27:1 49:2 380:1 588:1 1161:1 1165:1 1770:1 2167:1 2963:1 3642:1 3643:1 16601:1 29408:1 33813:1 49565:1 49566:1 49567:1 49568:1 49569:1 49570:1 49571:1 49572:1 49573:1 49574:1 49575:1 49576:1 49577:1 49578:1 49579:1 49580:1 49581:1 49582:1 #unigram###Ik bigram###Ik#-#ben trigram###Ik#-#ben#-#stamgast unigram###ben bigram###ben#-#stamgast trigram###ben#-#stamgast#-#in unigram###stamgast bigram###stamgast#-#in trigram###stamgast#-#in#-#dit unigram###in bigram###in#-#dit trigram###in#-#dit#-#fantastische unigram###dit bigram###dit#-#fantastische trigram###dit#-#fantastische#-#hotel unigram###fantastische bigram###fantastische#-#hotel trigram###fantastische#-#hotel#-#midden unigram###hotel bigram###hotel#-#midden trigram###hotel#-#midden#-#in unigram###midden bigram###midden#-#in trigram###midden#-#in#-#het unigram###in bigram###in#-#het trigram###in#-#het#-#Antwerpse unigram###het bigram###het#-#Antwerpse trigram###het#-#Antwerpse#-#. unigram###Antwerpse bigram###Antwerpse#-#. unigram###. 
0.012294839908714062445826975533691 22:1 27:1 31:2 37:1 55:1 143:1 318:1 380:1 445:1 634:1 1301:1 1679:1 2482:1 3182:1 3764:1 13775:1 13788:1 14159:1 22415:1 22842:1 27108:1 27155:1 27156:1 27666:1 27667:1 27668:1 28073:1 28074:1 28075:1 28076:1 28077:1 28078:1 28079:1 28080:1 28081:1 28082:1 28083:1 28084:1 28085:1 28086:1 28087:1 28088:1 28089:1 28090:1 28091:1 28092:1 28093:1 #unigram###Overigens bigram###Overigens#-#is trigram###Overigens#-#is#-#het unigram###is bigram###is#-#het trigram###is#-#het#-#ontbreken unigram###het bigram###het#-#ontbreken trigram###het#-#ontbreken#-#van unigram###ontbreken bigram###ontbreken#-#van trigram###ontbreken#-#van#-#een unigram###van bigram###van#-#een trigram###van#-#een#-#lift unigram###een bigram###een#-#lift trigram###een#-#lift#-#niet unigram###lift bigram###lift#-#niet trigram###lift#-#niet#-#zo unigram###niet bigram###niet#-#zo trigram###niet#-#zo#-#erg unigram###zo bigram###zo#-#erg trigram###zo#-#erg#-#want unigram###erg bigram###erg#-#want trigram###erg#-#want#-#er unigram###want bigram###want#-#er trigram###want#-#er#-#is unigram###er bigram###er#-#is trigram###er#-#is#-#maar unigram###is bigram###is#-#maar trigram###is#-#maar#-#1 unigram###maar bigram###maar#-#1 trigram###maar#-#1#-#verdieping unigram###1 bigram###1#-#verdieping trigram###1#-#verdieping#-#. unigram###verdieping bigram###verdieping#-#. unigram###. 
0.0082944118250208153514391185012755 27:1 37:1 269:1 380:2 2560:2 3094:1 10684:1 10685:1 16563:1 17697:1 33371:1 40447:1 53389:1 61378:1 61379:1 61380:1 61381:1 61383:1 65142:1 65143:1 65144:1 65145:1 65146:1 65147:1 65148:1 65149:1 65150:1 65151:1 65152:1 65153:1 65154:1 65155:1 65156:1 65157:1 #unigram###Volgens bigram###Volgens#-#het trigram###Volgens#-#het#-#Witte unigram###het bigram###het#-#Witte trigram###het#-#Witte#-#Huis unigram###Witte bigram###Witte#-#Huis trigram###Witte#-#Huis#-#ging unigram###Huis bigram###Huis#-#ging trigram###Huis#-#ging#-#het unigram###ging bigram###ging#-#het trigram###ging#-#het#-#om unigram###het bigram###het#-#om trigram###het#-#om#-#een unigram###om bigram###om#-#een trigram###om#-#een#-#" unigram###een bigram###een#-#" trigram###een#-#"#-#bemoedigend unigram###" bigram###"#-#bemoedigend trigram###"#-#bemoedigend#-#gesprek unigram###bemoedigend bigram###bemoedigend#-#gesprek trigram###bemoedigend#-#gesprek#-#" unigram###gesprek bigram###gesprek#-#" trigram###gesprek#-#"#-#. unigram###" bigram###"#-#. unigram###. 
-0.057539771933052021035681633520653 27:1 37:1 55:1 175:1 245:1 349:1 523:1 1168:1 2913:1 7180:1 7701:1 10248:1 14911:1 18753:1 53059:1 53083:1 53886:1 54511:1 54512:1 54955:1 54956:1 54957:1 55875:1 57351:1 58802:1 63517:1 63518:1 63519:1 63520:1 63521:1 63522:1 63523:1 63524:1 63525:1 63526:1 63527:1 63528:1 63529:1 63530:1 63531:1 63532:1 63533:1 #unigram###Na bigram###Na#-#afloop trigram###Na#-#afloop#-#van unigram###afloop bigram###afloop#-#van trigram###afloop#-#van#-#de unigram###van bigram###van#-#de trigram###van#-#de#-#top unigram###de bigram###de#-#top trigram###de#-#top#-#had unigram###top bigram###top#-#had trigram###top#-#had#-#president unigram###had bigram###had#-#president trigram###had#-#president#-#Obama unigram###president bigram###president#-#Obama trigram###president#-#Obama#-#nog unigram###Obama bigram###Obama#-#nog trigram###Obama#-#nog#-#een unigram###nog bigram###nog#-#een trigram###nog#-#een#-#apart unigram###een bigram###een#-#apart trigram###een#-#apart#-#onderhoud unigram###apart bigram###apart#-#onderhoud trigram###apart#-#onderhoud#-#met unigram###onderhoud bigram###onderhoud#-#met trigram###onderhoud#-#met#-#Merkel unigram###met bigram###met#-#Merkel trigram###met#-#Merkel#-#. unigram###Merkel bigram###Merkel#-#. unigram###. 
0.024232850002109777853842587092004 27:1 31:1 218:1 269:1 372:1 588:1 811:1 817:1 818:1 819:1 820:1 923:1 1770:1 2110:1 2540:1 2541:1 2542:1 7579:1 9148:1 10255:1 15876:1 15877:1 21468:1 21469:1 21470:1 21471:1 21472:1 21473:1 21474:1 21475:1 21476:1 21477:1 21478:1 21479:1 21480:1 21481:1 21482:1 21483:1 21484:1 #unigram###Het bigram###Het#-#is trigram###Het#-#is#-#mijn unigram###is bigram###is#-#mijn trigram###is#-#mijn#-#wens unigram###mijn bigram###mijn#-#wens trigram###mijn#-#wens#-#om unigram###wens bigram###wens#-#om trigram###wens#-#om#-#volgend unigram###om bigram###om#-#volgend trigram###om#-#volgend#-#jaar unigram###volgend bigram###volgend#-#jaar trigram###volgend#-#jaar#-#weer unigram###jaar bigram###jaar#-#weer trigram###jaar#-#weer#-#naar unigram###weer bigram###weer#-#naar trigram###weer#-#naar#-#dit unigram###naar bigram###naar#-#dit trigram###naar#-#dit#-#hotel unigram###dit bigram###dit#-#hotel trigram###dit#-#hotel#-#te unigram###hotel bigram###hotel#-#te trigram###hotel#-#te#-#gaan unigram###te bigram###te#-#gaan trigram###te#-#gaan#-#. unigram###gaan bigram###gaan#-#. unigram###. 
0.038480207808363510457727585389875 27:1 269:1 324:1 372:1 537:1 6243:1 6244:1 6245:1 6246:1 6247:1 6248:1 6249:1 6250:1 6251:1 6252:1 6253:1 6254:1 6255:1 6256:1 6257:1 6258:1 #unigram###ENZ bigram###ENZ#-#.... trigram###ENZ#-#....#-#Teveel unigram###.... bigram###....#-#Teveel trigram###....#-#Teveel#-#om unigram###Teveel bigram###Teveel#-#om trigram###Teveel#-#om#-#op unigram###om bigram###om#-#op trigram###om#-#op#-#te unigram###op bigram###op#-#te trigram###op#-#te#-#noemen unigram###te bigram###te#-#noemen trigram###te#-#noemen#-#. unigram###noemen bigram###noemen#-#. unigram###. 
0.029523826590977512995817022556366 27:1 175:1 324:1 349:1 380:2 420:1 588:1 971:1 1010:1 2067:1 2916:1 3798:1 4924:1 7046:1 15819:1 23028:1 23029:1 28709:1 30311:1 40961:1 40962:1 40963:1 40964:1 40965:1 40966:1 40967:1 40968:1 40969:1 40970:1 40971:1 40972:1 40973:1 40974:1 40975:1 40976:1 40977:1 40978:1 40979:1 #unigram###We bigram###We#-#werden trigram###We#-#werden#-#netjes unigram###werden bigram###werden#-#netjes trigram###werden#-#netjes#-#door unigram###netjes bigram###netjes#-#door trigram###netjes#-#door#-#het unigram###door bigram###door#-#het trigram###door#-#het#-#hotel unigram###het bigram###het#-#hotel trigram###het#-#hotel#-#met unigram###hotel bigram###hotel#-#met trigram###hotel#-#met#-#de unigram###met bigram###met#-#de trigram###met#-#de#-#taxishuttle unigram###de bigram###de#-#taxishuttle trigram###de#-#taxishuttle#-#op unigram###taxishuttle bigram###taxishuttle#-#op trigram###taxishuttle#-#op#-#het unigram###op bigram###op#-#het trigram###op#-#het#-#vliegveld unigram###het bigram###het#-#vliegveld trigram###het#-#vliegveld#-#opgehaald unigram###vliegveld bigram###vliegveld#-#opgehaald trigram###vliegveld#-#opgehaald#-#. unigram###opgehaald bigram###opgehaald#-#. unigram###. 
-0.092478649464190987306011493274127 22:1 49:1 61:1 175:3 183:1 485:1 601:1 629:1 630:1 669:1 1286:1 2227:1 3556:1 4782:1 5504:1 5505:1 5506:1 5507:1 5508:1 5509:1 5510:1 5511:1 5512:1 5513:1 5514:1 5515:1 5516:1 5517:1 5518:1 5519:1 5520:1 5521:1 5522:1 5523:1 5524:1 5525:1 5526:1 #unigram###Wel bigram###Wel#-#in trigram###Wel#-#in#-#de unigram###in bigram###in#-#de trigram###in#-#de#-#rij unigram###de bigram###de#-#rij trigram###de#-#rij#-#staan unigram###rij bigram###rij#-#staan trigram###rij#-#staan#-#, unigram###staan bigram###staan#-#, trigram###staan#-#,#-#maar unigram###, bigram###,#-#maar trigram###,#-#maar#-#de unigram###maar bigram###maar#-#de trigram###maar#-#de#-#moeite unigram###de bigram###de#-#moeite trigram###de#-#moeite#-#en unigram###moeite bigram###moeite#-#en trigram###moeite#-#en#-#de unigram###en bigram###en#-#de trigram###en#-#de#-#prijs unigram###de bigram###de#-#prijs trigram###de#-#prijs#-#waard unigram###prijs bigram###prijs#-#waard trigram###prijs#-#waard#-#! unigram###waard bigram###waard#-#! unigram###! 
0.019056542186312093456468375052282 43:1 49:1 318:1 406:1 453:1 584:1 595:1 629:1 845:1 901:1 928:1 1228:1 2360:1 2361:1 2363:1 3169:1 4148:1 4939:1 7701:1 8225:1 8377:1 9632:1 13196:1 24229:1 27785:1 30725:1 30726:1 30727:1 30728:1 30729:1 30730:1 30731:1 30732:1 30733:1 30734:1 30735:1 30736:1 30737:1 30738:1 30739:1 30740:1 30741:1 30742:1 30743:1 30744:1 30745:1 30746:1 30747:1 30748:1 30749:1 30750:1 30751:1 30752:1 30753:1 30754:1 30755:1 30756:1 30757:1 30758:1 30759:1 30760:1 30761:1 30762:1 30763:1 30764:1 30765:1 30766:1 30767:1 30768:1 #unigram###Na bigram###Na#-#drie trigram###Na#-#drie#-#keer unigram###drie bigram###drie#-#keer trigram###drie#-#keer#-#klagen unigram###keer bigram###keer#-#klagen trigram###keer#-#klagen#-#, unigram###klagen bigram###klagen#-#, trigram###klagen#-#,#-#hebben unigram###, bigram###,#-#hebben trigram###,#-#hebben#-#ze unigram###hebben bigram###hebben#-#ze trigram###hebben#-#ze#-#iets unigram###ze bigram###ze#-#iets trigram###ze#-#iets#-#geactiveerd unigram###iets bigram###iets#-#geactiveerd trigram###iets#-#geactiveerd#-#waardoor unigram###geactiveerd bigram###geactiveerd#-#waardoor trigram###geactiveerd#-#waardoor#-#er unigram###waardoor bigram###waardoor#-#er trigram###waardoor#-#er#-#20 unigram###er bigram###er#-#20 trigram###er#-#20#-#minuten unigram###20 bigram###20#-#minuten trigram###20#-#minuten#-#koude unigram###minuten bigram###minuten#-#koude trigram###minuten#-#koude#-#lucht unigram###koude bigram###koude#-#lucht trigram###koude#-#lucht#-#in unigram###lucht bigram###lucht#-#in trigram###lucht#-#in#-#onze unigram###in bigram###in#-#onze trigram###in#-#onze#-#gezichten unigram###onze bigram###onze#-#gezichten trigram###onze#-#gezichten#-#werd unigram###gezichten bigram###gezichten#-#werd trigram###gezichten#-#werd#-#geblazen unigram###werd bigram###werd#-#geblazen trigram###werd#-#geblazen#-#per unigram###geblazen bigram###geblazen#-#per trigram###geblazen#-#per#-#half unigram###per bigram###per#-#half trigram###per#-#half#-#uur unigram###half bigram###half#-#uur trigram###half#-#uur#-#.. unigram###uur bigram###uur#-#.. unigram###.. 
-0.0021034099036950693918657240288894 27:1 31:1 49:1 55:2 303:1 324:1 380:1 629:2 1161:1 5873:1 13658:1 53059:1 53178:2 53179:1 53189:1 53368:1 53394:1 53427:1 53935:1 53936:1 53937:1 53938:1 56467:1 56468:1 57357:1 60871:1 63651:1 63998:1 63999:1 64000:1 64001:1 64002:1 64003:1 64004:1 64005:1 64006:1 64007:1 64008:1 64009:1 64010:1 64011:1 64012:1 64013:1 64014:1 64015:1 64016:1 64017:1 64018:1 64019:1 64020:1 64021:1 64022:1 64023:1 64024:1 64025:1 64026:1 64027:1 64028:1 64029:1 64030:1 64031:1 64032:1 64033:1 64034:1 64035:1 64036:1 #unigram###Schäuble bigram###Schäuble#-#is trigram###Schäuble#-#is#-#sinds unigram###is bigram###is#-#sinds trigram###is#-#sinds#-#2005 unigram###sinds bigram###sinds#-#2005 trigram###sinds#-#2005#-#minister unigram###2005 bigram###2005#-#minister trigram###2005#-#minister#-#in unigram###minister bigram###minister#-#in trigram###minister#-#in#-#het unigram###in bigram###in#-#het trigram###in#-#het#-#kabinet unigram###het bigram###het#-#kabinet trigram###het#-#kabinet#-#van unigram###kabinet bigram###kabinet#-#van trigram###kabinet#-#van#-#bondskanselier unigram###van bigram###van#-#bondskanselier trigram###van#-#bondskanselier#-#Angela unigram###bondskanselier bigram###bondskanselier#-#Angela trigram###bondskanselier#-#Angela#-#Merkel unigram###Angela bigram###Angela#-#Merkel trigram###Angela#-#Merkel#-#, unigram###Merkel bigram###Merkel#-#, trigram###Merkel#-#,#-#eerst unigram###, bigram###,#-#eerst trigram###,#-#eerst#-#als unigram###eerst bigram###eerst#-#als trigram###eerst#-#als#-#minister unigram###als bigram###als#-#minister trigram###als#-#minister#-#van unigram###minister bigram###minister#-#van trigram###minister#-#van#-#Binnenlandse unigram###van bigram###van#-#Binnenlandse trigram###van#-#Binnenlandse#-#Zaken unigram###Binnenlandse bigram###Binnenlandse#-#Zaken trigram###Binnenlandse#-#Zaken#-#, unigram###Zaken bigram###Zaken#-#, trigram###Zaken#-#,#-#later unigram###, bigram###,#-#later trigram###,#-#later#-#op unigram###later bigram###later#-#op trigram###later#-#op#-#Financiën unigram###op bigram###op#-#Financiën trigram###op#-#Financiën#-#. unigram###Financiën bigram###Financiën#-#. unigram###. 
0.5 27:1 31:1 37:1 55:1 61:1 131:2 175:1 239:1 318:1 324:1 327:1 425:1 629:1 634:1 2059:1 2152:1 2395:1 3503:1 3886:1 4553:1 6607:1 8279:1 8767:1 10630:1 12863:1 15435:1 15436:1 15437:1 16886:1 16887:1 16888:1 16889:1 16890:1 16891:1 16892:1 16893:1 16894:1 16895:1 16896:1 16897:1 16898:1 16899:1 16900:1 16901:1 16902:1 16903:1 16904:1 16905:1 16906:1 16907:1 16908:1 16909:1 16910:1 16911:1 16912:1 16913:1 16914:1 16915:1 16916:1 16917:1 16918:1 16919:1 #unigram###De bigram###De#-#rust trigram###De#-#rust#-#is unigram###rust bigram###rust#-#is trigram###rust#-#is#-#er unigram###is bigram###is#-#er trigram###is#-#er#-#heerlijk unigram###er bigram###er#-#heerlijk trigram###er#-#heerlijk#-#, unigram###heerlijk bigram###heerlijk#-#, trigram###heerlijk#-#,#-#je unigram###, bigram###,#-#je trigram###,#-#je#-#kijkt unigram###je bigram###je#-#kijkt trigram###je#-#kijkt#-#uit unigram###kijkt bigram###kijkt#-#uit trigram###kijkt#-#uit#-#op unigram###uit bigram###uit#-#op trigram###uit#-#op#-#de unigram###op bigram###op#-#de trigram###op#-#de#-#bergen unigram###de bigram###de#-#bergen trigram###de#-#bergen#-#en unigram###bergen bigram###bergen#-#en trigram###bergen#-#en#-#je unigram###en bigram###en#-#je trigram###en#-#je#-#kan unigram###je bigram###je#-#kan trigram###je#-#kan#-#gebruik unigram###kan bigram###kan#-#gebruik trigram###kan#-#gebruik#-#maken unigram###gebruik bigram###gebruik#-#maken trigram###gebruik#-#maken#-#van unigram###maken bigram###maken#-#van trigram###maken#-#van#-#een unigram###van bigram###van#-#een trigram###van#-#een#-#gezamenlijke unigram###een bigram###een#-#gezamenlijke trigram###een#-#gezamenlijke#-#koelkast unigram###gezamenlijke bigram###gezamenlijke#-#koelkast trigram###gezamenlijke#-#koelkast#-#. unigram###koelkast bigram###koelkast#-#. unigram###. 
0.059049301322651660817175667261836 27:1 55:1 380:1 53268:1 53886:1 53932:1 54353:1 59733:1 61734:1 66692:1 66693:1 66694:1 66695:1 66696:1 66697:1 66698:1 66699:1 66700:1 #unigram###Hij bigram###Hij#-#prees trigram###Hij#-#prees#-#het unigram###prees bigram###prees#-#het trigram###prees#-#het#-#leiderschap unigram###het bigram###het#-#leiderschap trigram###het#-#leiderschap#-#van unigram###leiderschap bigram###leiderschap#-#van trigram###leiderschap#-#van#-#Obama unigram###van bigram###van#-#Obama trigram###van#-#Obama#-#. unigram###Obama bigram###Obama#-#. unigram###. 
0.0010954565640635049658668798144845 37:1 73:1 459:1 1409:1 5900:1 5901:1 5902:1 5903:1 5904:1 5905:1 5906:1 5907:1 5908:1 5909:1 5910:1 #unigram###Rixos bigram###Rixos#-#Belek trigram###Rixos#-#Belek#-#voor unigram###Belek bigram###Belek#-#voor trigram###Belek#-#voor#-#een unigram###voor bigram###voor#-#een trigram###voor#-#een#-#onvergetelijke unigram###een bigram###een#-#onvergetelijke trigram###een#-#onvergetelijke#-#vakantie unigram###onvergetelijke bigram###onvergetelijke#-#vakantie unigram###vakantie 
0.00020402651361696661283517961749112 27:1 31:1 37:1 110:1 218:1 629:1 766:1 2363:1 2465:1 2974:1 3854:1 3856:1 8349:1 10255:1 10256:1 11313:1 11314:1 11315:1 11316:1 35261:1 46321:1 46322:1 46323:1 46324:1 46325:1 46326:1 46327:1 #unigram###Het bigram###Het#-#is trigram###Het#-#is#-#een unigram###is bigram###is#-#een trigram###is#-#een#-#paar unigram###een bigram###een#-#paar trigram###een#-#paar#-#minuten unigram###paar bigram###paar#-#minuten trigram###paar#-#minuten#-#lopen unigram###minuten bigram###minuten#-#lopen trigram###minuten#-#lopen#-#, unigram###lopen bigram###lopen#-#, trigram###lopen#-#,#-#super unigram###, bigram###,#-#super trigram###,#-#super#-#dus unigram###super bigram###super#-#dus trigram###super#-#dus#-#. unigram###dus bigram###dus#-#. unigram###. 
0.0084592273471261400508147687560268 16:1 27:1 134:1 175:2 303:1 349:1 355:1 1949:1 3420:1 3798:1 6431:1 6432:1 7015:1 7753:1 8590:1 11473:1 33295:1 33296:1 53236:1 53238:1 53340:1 53540:1 53694:1 53695:1 53696:1 53697:1 53698:1 53699:1 53700:1 53701:1 53702:1 53703:1 53704:1 53705:1 53706:1 53707:1 53708:1 53709:1 53710:1 53711:1 53712:1 53713:1 53714:1 53715:1 53716:1 53717:1 53718:1 53719:1 53720:1 53721:1 53722:1 53723:1 53724:1 53725:1 53726:1 53727:1 #unigram###Cameron bigram###Cameron#-#gaf trigram###Cameron#-#gaf#-#aan unigram###gaf bigram###gaf#-#aan trigram###gaf#-#aan#-#dat unigram###aan bigram###aan#-#dat trigram###aan#-#dat#-#zijn unigram###dat bigram###dat#-#zijn trigram###dat#-#zijn#-#Conservatieve unigram###zijn bigram###zijn#-#Conservatieve trigram###zijn#-#Conservatieve#-#Partij unigram###Conservatieve bigram###Conservatieve#-#Partij trigram###Conservatieve#-#Partij#-#nieuwe unigram###Partij bigram###Partij#-#nieuwe trigram###Partij#-#nieuwe#-#onderhandelingen unigram###nieuwe bigram###nieuwe#-#onderhandelingen trigram###nieuwe#-#onderhandelingen#-#met unigram###onderhandelingen bigram###onderhandelingen#-#met trigram###onderhandelingen#-#met#-#de unigram###met bigram###met#-#de trigram###met#-#de#-#EU unigram###de bigram###de#-#EU trigram###de#-#EU#-#wil unigram###EU bigram###EU#-#wil trigram###EU#-#wil#-#als unigram###wil bigram###wil#-#als trigram###wil#-#als#-#zij unigram###als bigram###als#-#zij trigram###als#-#zij#-#de unigram###zij bigram###zij#-#de trigram###zij#-#de#-#volgende unigram###de bigram###de#-#volgende trigram###de#-#volgende#-#verkiezingen unigram###volgende bigram###volgende#-#verkiezingen trigram###volgende#-#verkiezingen#-#wint unigram###verkiezingen bigram###verkiezingen#-#wint trigram###verkiezingen#-#wint#-#. unigram###wint bigram###wint#-#. unigram###. 
-0.079703784939077884641456250847114 27:1 73:1 131:2 239:1 823:1 874:1 4452:1 4878:1 7428:1 9506:1 10799:1 18192:1 18722:1 18723:1 31270:1 31271:1 31272:1 31273:1 31274:1 31275:1 31276:1 31277:1 31278:1 31279:1 31280:1 31281:1 31282:1 31283:1 31284:1 #unigram###Die bigram###Die#-#kan trigram###Die#-#kan#-#je unigram###kan bigram###kan#-#je trigram###kan#-#je#-#wanneer unigram###je bigram###je#-#wanneer trigram###je#-#wanneer#-#je unigram###wanneer bigram###wanneer#-#je trigram###wanneer#-#je#-#wilt unigram###je bigram###je#-#wilt trigram###je#-#wilt#-#omuilen unigram###wilt bigram###wilt#-#omuilen trigram###wilt#-#omuilen#-#voor unigram###omuilen bigram###omuilen#-#voor trigram###omuilen#-#voor#-#schone unigram###voor bigram###voor#-#schone trigram###voor#-#schone#-#handdoeken unigram###schone bigram###schone#-#handdoeken trigram###schone#-#handdoeken#-#. unigram###handdoeken bigram###handdoeken#-#. unigram###. 
0.02099956617844737569167357094102 27:1 55:2 175:2 456:1 629:1 693:1 1743:1 2422:1 2614:1 4463:1 4556:1 8092:1 8265:1 8305:1 19969:1 26358:1 49021:1 55589:1 55590:1 55591:1 55592:1 55593:1 55594:1 55595:1 55597:1 59589:1 59590:1 59591:1 59592:1 59593:1 59594:1 59595:1 59596:1 59597:1 59598:1 59599:1 59600:1 59601:1 59602:1 59603:1 59604:1 59605:1 59606:1 59607:1 59608:1 59609:1 59610:1 59611:1 59612:1 59613:1 59614:1 59615:1 59616:1 59617:1 59618:1 59619:1 59620:1 59621:1 #unigram###Duitsland bigram###Duitsland#-#heeft trigram###Duitsland#-#heeft#-#zich unigram###heeft bigram###heeft#-#zich trigram###heeft#-#zich#-#altijd unigram###zich bigram###zich#-#altijd trigram###zich#-#altijd#-#verzet unigram###altijd bigram###altijd#-#verzet trigram###altijd#-#verzet#-#tegen unigram###verzet bigram###verzet#-#tegen trigram###verzet#-#tegen#-#de unigram###tegen bigram###tegen#-#de trigram###tegen#-#de#-#invoering unigram###de bigram###de#-#invoering trigram###de#-#invoering#-#van unigram###invoering bigram###invoering#-#van trigram###invoering#-#van#-#euro-obligaties unigram###van bigram###van#-#euro-obligaties trigram###van#-#euro-obligaties#-#, unigram###euro-obligaties bigram###euro-obligaties#-#, trigram###euro-obligaties#-#,#-#omdat unigram###, bigram###,#-#omdat trigram###,#-#omdat#-#alleen unigram###omdat bigram###omdat#-#alleen trigram###omdat#-#alleen#-#de unigram###alleen bigram###alleen#-#de trigram###alleen#-#de#-#noodlijdende unigram###de bigram###de#-#noodlijdende trigram###de#-#noodlijdende#-#landen unigram###noodlijdende bigram###noodlijdende#-#landen trigram###noodlijdende#-#landen#-#van unigram###landen bigram###landen#-#van trigram###landen#-#van#-#deze unigram###van bigram###van#-#deze trigram###van#-#deze#-#maatregel unigram###deze bigram###deze#-#maatregel trigram###deze#-#maatregel#-#profiteren unigram###maatregel bigram###maatregel#-#profiteren trigram###maatregel#-#profiteren#-#. unigram###profiteren bigram###profiteren#-#. unigram###. 
0.12146057777830318591405500683322 27:1 13701:1 21452:1 21453:1 21454:1 21455:1 #unigram###Pure bigram###Pure#-#ontspanning trigram###Pure#-#ontspanning#-#. unigram###ontspanning bigram###ontspanning#-#. unigram###. 
0.019647097828129192476076525508688 27:1 37:1 349:1 459:1 971:1 1212:1 3169:1 6017:1 7799:1 7801:1 16523:1 42462:1 50644:1 50645:1 50646:1 50647:1 50648:1 50649:1 50650:1 50651:1 50652:1 50653:1 50654:1 50655:1 #unigram###We bigram###We#-#beleefden trigram###We#-#beleefden#-#met unigram###beleefden bigram###beleefden#-#met trigram###beleefden#-#met#-#onze unigram###met bigram###met#-#onze trigram###met#-#onze#-#vrienden unigram###onze bigram###onze#-#vrienden trigram###onze#-#vrienden#-#een unigram###vrienden bigram###vrienden#-#een trigram###vrienden#-#een#-#aangename unigram###een bigram###een#-#aangename trigram###een#-#aangename#-#vakantie unigram###aangename bigram###aangename#-#vakantie trigram###aangename#-#vakantie#-#. unigram###vakantie bigram###vakantie#-#. unigram###. 
0.006164382506017608391590822947137 27:1 31:1 73:2 303:1 380:1 629:1 856:1 861:1 862:1 1964:1 2062:1 2063:1 5219:1 5634:1 5635:1 6557:1 11345:1 18617:1 18618:1 18620:1 18621:1 18622:1 18623:1 18624:1 18625:1 18626:1 18627:1 18628:1 18629:1 18630:1 18631:1 18632:1 18633:1 18634:1 18635:1 #unigram###Hotel bigram###Hotel#-#is trigram###Hotel#-#is#-#gunstig unigram###is bigram###is#-#gunstig trigram###is#-#gunstig#-#gelegen unigram###gunstig bigram###gunstig#-#gelegen trigram###gunstig#-#gelegen#-#, unigram###gelegen bigram###gelegen#-#, trigram###gelegen#-#,#-#zowel unigram###, bigram###,#-#zowel trigram###,#-#zowel#-#voor unigram###zowel bigram###zowel#-#voor trigram###zowel#-#voor#-#het unigram###voor bigram###voor#-#het trigram###voor#-#het#-#strand unigram###het bigram###het#-#strand trigram###het#-#strand#-#als unigram###strand bigram###strand#-#als trigram###strand#-#als#-#voor unigram###als bigram###als#-#voor trigram###als#-#voor#-#shoppen unigram###voor bigram###voor#-#shoppen trigram###voor#-#shoppen#-#. unigram###shoppen bigram###shoppen#-#. unigram###. 
0.030378977527476039993681311557339 27:1 1231:1 4277:1 8672:1 8673:1 8674:1 8675:1 8676:1 8677:1 8678:1 8679:1 8680:1 8681:1 8682:1 8683:1 8684:1 8685:1 8686:1 #unigram###Nu bigram###Nu#-#moeten trigram###Nu#-#moeten#-#we unigram###moeten bigram###moeten#-#we trigram###moeten#-#we#-#ongevraagd unigram###we bigram###we#-#ongevraagd trigram###we#-#ongevraagd#-#toch unigram###ongevraagd bigram###ongevraagd#-#toch trigram###ongevraagd#-#toch#-#meeroken unigram###toch bigram###toch#-#meeroken trigram###toch#-#meeroken#-#. unigram###meeroken bigram###meeroken#-#. unigram###. 
0.072448506632106182689945228503348 27:1 615:1 1345:1 1346:1 5969:1 10945:1 17626:1 17627:1 17628:1 17629:1 17630:1 17631:1 #unigram###Verder bigram###Verder#-#mooie trigram###Verder#-#mooie#-#rustige unigram###mooie bigram###mooie#-#rustige trigram###mooie#-#rustige#-#omgeving unigram###rustige bigram###rustige#-#omgeving trigram###rustige#-#omgeving#-#. unigram###omgeving bigram###omgeving#-#. unigram###. 
-0.025565023339673940971916721309753 27:1 55:1 75:1 175:3 629:1 1168:1 10273:1 11067:1 56400:1 56484:1 56485:1 56486:1 56487:1 56488:1 56489:1 56490:1 56491:1 56492:1 56493:1 56494:1 56495:1 56496:1 56497:1 56498:1 56499:1 56500:1 56501:2 56502:1 56503:1 56504:1 56505:1 56506:1 56507:1 56508:1 56509:1 56510:1 56511:1 56512:1 56513:1 56514:1 56515:1 56516:1 #unigram###In bigram###In#-#totaal trigram###In#-#totaal#-#overhandigde unigram###totaal bigram###totaal#-#overhandigde trigram###totaal#-#overhandigde#-#de unigram###overhandigde bigram###overhandigde#-#de trigram###overhandigde#-#de#-#betreffende unigram###de bigram###de#-#betreffende trigram###de#-#betreffende#-#medewerker unigram###betreffende bigram###betreffende#-#medewerker trigram###betreffende#-#medewerker#-#200 unigram###medewerker bigram###medewerker#-#200 trigram###medewerker#-#200#-#nummers unigram###200 bigram###200#-#nummers trigram###200#-#nummers#-#, unigram###nummers bigram###nummers#-#, trigram###nummers#-#,#-#waaronder unigram###, bigram###,#-#waaronder trigram###,#-#waaronder#-#de unigram###waaronder bigram###waaronder#-#de trigram###waaronder#-#de#-#nummers unigram###de bigram###de#-#nummers trigram###de#-#nummers#-#van unigram###nummers bigram###nummers#-#van trigram###nummers#-#van#-#de unigram###van bigram###van#-#de trigram###van#-#de#-#regeringsleiders unigram###de bigram###de#-#regeringsleiders trigram###de#-#regeringsleiders#-#. unigram###regeringsleiders bigram###regeringsleiders#-#. unigram###. 
0.0010642797621054490668501824046643 27:1 31:1 49:1 93:1 175:2 239:1 303:1 355:1 380:1 624:1 626:1 629:2 773:1 826:1 856:1 1161:1 1686:1 1687:1 1689:1 2164:1 2229:1 2436:1 2993:1 3425:1 6557:1 7769:1 8580:1 9940:1 9941:1 9942:1 9943:1 9944:1 9945:1 9946:1 9947:1 9948:1 9949:1 9950:1 9951:1 9952:1 9953:1 9954:1 9955:1 9956:1 9957:1 9958:1 9959:1 9960:1 9961:1 9962:1 9963:1 9964:1 9965:1 9966:1 9967:1 9968:1 9969:1 9970:1 #unigram###Op bigram###Op#-#de trigram###Op#-#de#-#service unigram###de bigram###de#-#service trigram###de#-#service#-#kan unigram###service bigram###service#-#kan trigram###service#-#kan#-#ik unigram###kan bigram###kan#-#ik trigram###kan#-#ik#-#niets unigram###ik bigram###ik#-#niets trigram###ik#-#niets#-#opmerken unigram###niets bigram###niets#-#opmerken trigram###niets#-#opmerken#-#, unigram###opmerken bigram###opmerken#-#, trigram###opmerken#-#,#-#die unigram###, bigram###,#-#die trigram###,#-#die#-#is unigram###die bigram###die#-#is trigram###die#-#is#-#perfect unigram###is bigram###is#-#perfect trigram###is#-#perfect#-#, unigram###perfect bigram###perfect#-#, trigram###perfect#-#,#-#zowel unigram###, bigram###,#-#zowel trigram###,#-#zowel#-#in unigram###zowel bigram###zowel#-#in trigram###zowel#-#in#-#het unigram###in bigram###in#-#het trigram###in#-#het#-#restaurant unigram###het bigram###het#-#restaurant trigram###het#-#restaurant#-#als unigram###restaurant bigram###restaurant#-#als trigram###restaurant#-#als#-#aan unigram###als bigram###als#-#aan trigram###als#-#aan#-#de unigram###aan bigram###aan#-#de trigram###aan#-#de#-#receptie unigram###de bigram###de#-#receptie trigram###de#-#receptie#-#. unigram###receptie bigram###receptie#-#. unigram###. 
0.19201558320493816722773772198707 20758:1 20759:1 20760:1 #unigram###Fantasieloze bigram###Fantasieloze#-#keuekn unigram###keuekn 
-0.077391576714410229009821762247157 27:1 31:1 49:1 175:2 669:1 4780:1 11924:1 55311:1 55312:1 55313:1 55314:1 55315:1 55316:1 55317:1 55318:1 55319:1 55320:1 55321:1 55322:1 55323:1 55324:1 55325:1 55326:1 #unigram###Lady bigram###Lady#-#Gaga trigram###Lady#-#Gaga#-#is unigram###Gaga bigram###Gaga#-#is trigram###Gaga#-#is#-#de unigram###is bigram###is#-#de trigram###is#-#de#-#jongste unigram###de bigram###de#-#jongste trigram###de#-#jongste#-#in unigram###jongste bigram###jongste#-#in trigram###jongste#-#in#-#de unigram###in bigram###in#-#de trigram###in#-#de#-#ranglijst unigram###de bigram###de#-#ranglijst trigram###de#-#ranglijst#-#. unigram###ranglijst bigram###ranglijst#-#. unigram###. 
-0.08163370943792122580440207002539 27:1 49:1 131:1 346:1 610:1 1770:1 4463:1 4790:1 5653:1 5654:1 7877:1 8231:1 8335:1 13768:1 16475:1 18716:1 24435:1 30409:1 30410:1 30411:1 30412:1 30413:1 30414:1 30415:1 30416:1 30417:1 30418:1 30419:1 30420:1 30421:1 30422:1 30423:1 30424:1 #unigram###Maar bigram###Maar#-#dit trigram###Maar#-#dit#-#soort unigram###dit bigram###dit#-#soort trigram###dit#-#soort#-#buurten unigram###soort bigram###soort#-#buurten trigram###soort#-#buurten#-#kom unigram###buurten bigram###buurten#-#kom trigram###buurten#-#kom#-#je unigram###kom bigram###kom#-#je trigram###kom#-#je#-#wel unigram###je bigram###je#-#wel trigram###je#-#wel#-#meer unigram###wel bigram###wel#-#meer trigram###wel#-#meer#-#tegen unigram###meer bigram###meer#-#tegen trigram###meer#-#tegen#-#in unigram###tegen bigram###tegen#-#in trigram###tegen#-#in#-#Barcelona unigram###in bigram###in#-#Barcelona trigram###in#-#Barcelona#-#. unigram###Barcelona bigram###Barcelona#-#. unigram###. 
0.0089723718946540589880278560031002 27:1 175:1 349:1 355:1 618:1 773:1 999:1 1481:1 4878:1 22999:1 23001:1 33578:1 34611:1 34612:1 34613:1 34614:1 34615:1 34616:1 34617:1 34618:1 34619:1 34620:1 34621:1 34622:1 34623:1 34624:1 34625:1 #unigram###Zeer bigram###Zeer#-#schone trigram###Zeer#-#schone#-#kamer unigram###schone bigram###schone#-#kamer trigram###schone#-#kamer#-#met unigram###kamer bigram###kamer#-#met trigram###kamer#-#met#-#smal unigram###met bigram###met#-#smal trigram###met#-#smal#-#balkonnetje unigram###smal bigram###smal#-#balkonnetje trigram###smal#-#balkonnetje#-#aan unigram###balkonnetje bigram###balkonnetje#-#aan trigram###balkonnetje#-#aan#-#de unigram###aan bigram###aan#-#de trigram###aan#-#de#-#straatkant unigram###de bigram###de#-#straatkant trigram###de#-#straatkant#-#. unigram###straatkant bigram###straatkant#-#. unigram###. 
0.18341302223547917282786556825158 2205:1 23331:1 23332:1 #unigram###Wederom bigram###Wederom#-#geweldig unigram###geweldig 
0.0071138354349341891350033684204845 7:1 16:1 22:1 27:1 31:1 37:1 49:1 61:2 143:1 149:1 175:2 242:1 372:1 380:1 512:1 573:1 574:1 629:1 630:1 1214:1 2059:1 2227:1 2340:1 3556:1 3671:1 4001:1 4493:1 5515:1 11673:1 11811:1 12657:1 12743:1 15216:1 23678:1 23680:1 34966:1 38105:1 38106:1 40504:1 40505:1 40506:1 40507:1 40508:1 40509:1 40510:1 40511:1 40512:1 40513:1 40514:1 40515:1 40516:1 40517:1 40518:1 40519:1 40520:1 40521:1 40522:1 40523:1 40524:1 40525:1 40526:1 40527:1 40528:1 40529:1 40530:1 40531:1 40532:1 40533:1 40534:1 40535:1 40536:1 40537:1 40538:1 40539:1 40540:1 40541:1 40542:1 40543:1 40544:1 40545:1 40546:1 40547:1 40548:1 40549:1 40550:1 #unigram###Er bigram###Er#-#is trigram###Er#-#is#-#ook unigram###is bigram###is#-#ook trigram###is#-#ook#-#een unigram###ook bigram###ook#-#een trigram###ook#-#een#-#Summer unigram###een bigram###een#-#Summer trigram###een#-#Summer#-#Flavours unigram###Summer bigram###Summer#-#Flavours trigram###Summer#-#Flavours#-#aanbieding unigram###Flavours bigram###Flavours#-#aanbieding trigram###Flavours#-#aanbieding#-#, unigram###aanbieding bigram###aanbieding#-#, trigram###aanbieding#-#,#-#maar unigram###, bigram###,#-#maar trigram###,#-#maar#-#de unigram###maar bigram###maar#-#de trigram###maar#-#de#-#temperaturen unigram###de bigram###de#-#temperaturen trigram###de#-#temperaturen#-#en unigram###temperaturen bigram###temperaturen#-#en trigram###temperaturen#-#en#-#de unigram###en bigram###en#-#de trigram###en#-#de#-#luchtvochtigheid unigram###de bigram###de#-#luchtvochtigheid trigram###de#-#luchtvochtigheid#-#in unigram###luchtvochtigheid bigram###luchtvochtigheid#-#in trigram###luchtvochtigheid#-#in#-#juli unigram###in bigram###in#-#juli trigram###in#-#juli#-#en unigram###juli bigram###juli#-#en trigram###juli#-#en#-#augustus unigram###en bigram###en#-#augustus trigram###en#-#augustus#-#maken unigram###augustus bigram###augustus#-#maken trigram###augustus#-#maken#-#het unigram###maken bigram###maken#-#het trigram###maken#-#het#-#dan unigram###het bigram###het#-#dan trigram###het#-#dan#-#niet unigram###dan bigram###dan#-#niet trigram###dan#-#niet#-#fijn unigram###niet bigram###niet#-#fijn trigram###niet#-#fijn#-#daar unigram###fijn bigram###fijn#-#daar trigram###fijn#-#daar#-#te unigram###daar bigram###daar#-#te trigram###daar#-#te#-#zijn unigram###te bigram###te#-#zijn trigram###te#-#zijn#-#; unigram###zijn bigram###zijn#-#; trigram###zijn#-#;#-#· unigram###; bigram###;#-#· trigram###;#-#·#-#) unigram###· bigram###·#-#) trigram###·#-#)#-#. unigram###) bigram###)#-#. unigram###. 
-0.093552161602255240469006025705312 27:1 37:1 49:1 245:1 343:1 588:1 598:1 875:1 1584:1 1727:1 2164:1 2299:1 5685:1 5737:1 6179:1 7308:1 8037:1 15585:1 17583:1 17584:1 37803:1 37804:1 37805:1 37806:1 37807:1 37808:1 37809:1 37810:1 37811:1 37812:1 #unigram###heb bigram###heb#-#ik trigram###heb#-#ik#-#nog unigram###ik bigram###ik#-#nog trigram###ik#-#nog#-#nooit unigram###nog bigram###nog#-#nooit trigram###nog#-#nooit#-#meegemaakt unigram###nooit bigram###nooit#-#meegemaakt trigram###nooit#-#meegemaakt#-#in unigram###meegemaakt bigram###meegemaakt#-#in trigram###meegemaakt#-#in#-#een unigram###in bigram###in#-#een trigram###in#-#een#-#4 unigram###een bigram###een#-#4 trigram###een#-#4#-#sterren unigram###4 bigram###4#-#sterren trigram###4#-#sterren#-#hotel unigram###sterren bigram###sterren#-#hotel trigram###sterren#-#hotel#-#. unigram###hotel bigram###hotel#-#. unigram###. 
0.035310067966843668163523517478097 27:1 61:1 1143:1 1689:1 1990:1 1992:1 1993:1 1994:1 1995:1 1996:1 1997:1 1998:1 1999:1 2000:1 2001:1 #unigram###Leuk bigram###Leuk#-#en trigram###Leuk#-#en#-#sfeervol unigram###en bigram###en#-#sfeervol trigram###en#-#sfeervol#-#klein unigram###sfeervol bigram###sfeervol#-#klein trigram###sfeervol#-#klein#-#restaurant unigram###klein bigram###klein#-#restaurant trigram###klein#-#restaurant#-#. unigram###restaurant bigram###restaurant#-#. unigram###. 
0.025648075066807374949862108337584 16:1 27:1 31:1 143:1 598:1 601:1 875:1 2062:1 2063:1 6179:1 9769:1 13642:1 26138:1 26139:1 26140:1 40668:1 40669:1 40670:1 40671:1 40672:1 40673:1 40674:1 40675:1 40676:1 #unigram###Hotel bigram###Hotel#-#is trigram###Hotel#-#is#-#zijn unigram###is bigram###is#-#zijn trigram###is#-#zijn#-#4 unigram###zijn bigram###zijn#-#4 trigram###zijn#-#4#-#sterren unigram###4 bigram###4#-#sterren trigram###4#-#sterren#-#absoluut unigram###sterren bigram###sterren#-#absoluut trigram###sterren#-#absoluut#-#niet unigram###absoluut bigram###absoluut#-#niet trigram###absoluut#-#niet#-#waard unigram###niet bigram###niet#-#waard trigram###niet#-#waard#-#. unigram###waard bigram###waard#-#. unigram###. 
0.006793612041760203022755515434028 27:1 31:1 55:1 61:1 75:1 175:1 629:1 834:1 2110:1 4701:1 8381:1 20689:1 53251:1 53654:1 53656:1 57437:1 59699:1 59703:1 59704:1 59705:1 59706:1 59707:1 59708:1 59709:1 59710:1 59711:1 59712:1 59713:1 59714:1 59715:1 59716:1 59717:1 59718:1 59719:1 59720:1 59721:1 59722:1 59723:1 59724:1 59725:1 59726:1 59727:1 59728:1 59729:1 59730:1 #unigram###In bigram###In#-#mijn trigram###In#-#mijn#-#ogen unigram###mijn bigram###mijn#-#ogen trigram###mijn#-#ogen#-#is unigram###ogen bigram###ogen#-#is trigram###ogen#-#is#-#onzekerheid unigram###is bigram###is#-#onzekerheid trigram###is#-#onzekerheid#-#de unigram###onzekerheid bigram###onzekerheid#-#de trigram###onzekerheid#-#de#-#vijand unigram###de bigram###de#-#vijand trigram###de#-#vijand#-#van unigram###vijand bigram###vijand#-#van trigram###vijand#-#van#-#groei unigram###van bigram###van#-#groei trigram###van#-#groei#-#en unigram###groei bigram###groei#-#en trigram###groei#-#en#-#banen unigram###en bigram###en#-#banen trigram###en#-#banen#-#' unigram###banen bigram###banen#-#' trigram###banen#-#'#-#, unigram###' bigram###'#-#, trigram###'#-#,#-#aldus unigram###, bigram###,#-#aldus trigram###,#-#aldus#-#Clegg unigram###aldus bigram###aldus#-#Clegg trigram###aldus#-#Clegg#-#. unigram###Clegg bigram###Clegg#-#. unigram###. 
-0.062776352366322646370022653172782 27:1 453:1 941:1 1231:1 2295:1 3954:1 4358:1 28445:1 31146:1 35567:1 35568:1 35569:1 35570:1 35571:1 35572:1 35573:1 35574:1 35575:1 #unigram###Dit bigram###Dit#-#hebben trigram###Dit#-#hebben#-#we unigram###hebben bigram###hebben#-#we trigram###hebben#-#we#-#zelf unigram###we bigram###we#-#zelf trigram###we#-#zelf#-#kunnen unigram###zelf bigram###zelf#-#kunnen trigram###zelf#-#kunnen#-#ondervinden unigram###kunnen bigram###kunnen#-#ondervinden trigram###kunnen#-#ondervinden#-#. unigram###ondervinden bigram###ondervinden#-#. unigram###. 
0.021514332655253643605819391382283 31:1 75:1 175:1 183:1 383:1 741:1 1933:1 7831:1 15383:1 28843:1 43703:1 43704:1 43705:1 43706:1 43707:1 43708:1 43709:1 43710:1 43711:1 43712:1 43713:1 43714:1 43715:1 43716:1 #unigram###In bigram###In#-#de trigram###In#-#de#-#meeste unigram###de bigram###de#-#meeste trigram###de#-#meeste#-#hotels unigram###meeste bigram###meeste#-#hotels trigram###meeste#-#hotels#-#is unigram###hotels bigram###hotels#-#is trigram###hotels#-#is#-#WIFI unigram###is bigram###is#-#WIFI trigram###is#-#WIFI#-#tegenwoordig unigram###WIFI bigram###WIFI#-#tegenwoordig trigram###WIFI#-#tegenwoordig#-#gratis unigram###tegenwoordig bigram###tegenwoordig#-#gratis trigram###tegenwoordig#-#gratis#-#! unigram###gratis bigram###gratis#-#! unigram###! 
-0.016806613203829617875229018864047 27:1 61:1 355:1 380:2 425:1 453:1 641:1 1928:1 5533:1 16839:1 19774:1 53427:1 53428:1 67661:1 67662:1 67663:1 67664:1 67665:1 67666:1 67667:1 67668:1 67669:1 67670:1 67671:1 67672:1 67673:1 67674:1 67675:1 67676:1 67677:1 67678:1 67679:1 67680:1 67681:1 67682:1 67683:1 67684:1 67685:1 67686:1 67687:1 67688:1 67689:1 67690:1 67691:1 67692:1 67693:1 67694:1 67695:1 67696:1 67697:1 67698:1 67699:1 67700:1 67701:1 67702:1 67703:1 #unigram###De bigram###De#-#overstromingen trigram###De#-#overstromingen#-#hebben unigram###overstromingen bigram###overstromingen#-#hebben trigram###overstromingen#-#hebben#-#sinds unigram###hebben bigram###hebben#-#sinds trigram###hebben#-#sinds#-#het unigram###sinds bigram###sinds#-#het trigram###sinds#-#het#-#voorbije unigram###het bigram###het#-#voorbije trigram###het#-#voorbije#-#weekend unigram###voorbije bigram###voorbije#-#weekend trigram###voorbije#-#weekend#-#het unigram###weekend bigram###weekend#-#het trigram###weekend#-#het#-#leven unigram###het bigram###het#-#leven trigram###het#-#leven#-#gekost unigram###leven bigram###leven#-#gekost trigram###leven#-#gekost#-#aan unigram###gekost bigram###gekost#-#aan trigram###gekost#-#aan#-#minstens unigram###aan bigram###aan#-#minstens trigram###aan#-#minstens#-#negen unigram###minstens bigram###minstens#-#negen trigram###minstens#-#negen#-#mensen unigram###negen bigram###negen#-#mensen trigram###negen#-#mensen#-#en unigram###mensen bigram###mensen#-#en trigram###mensen#-#en#-#leidden unigram###en bigram###en#-#leidden trigram###en#-#leidden#-#tot unigram###leidden bigram###leidden#-#tot trigram###leidden#-#tot#-#massale unigram###tot bigram###tot#-#massale trigram###tot#-#massale#-#evacuaties unigram###massale bigram###massale#-#evacuaties trigram###massale#-#evacuaties#-#. unigram###evacuaties bigram###evacuaties#-#. unigram###. 
-0.068918912120050287994921234258072 22:1 183:1 16928:1 16929:1 16930:1 16931:1 16932:1 16933:1 16934:1 #unigram###Kritisch bigram###Kritisch#-#maar trigram###Kritisch#-#maar#-#eerlijk unigram###maar bigram###maar#-#eerlijk trigram###maar#-#eerlijk#-#! unigram###eerlijk bigram###eerlijk#-#! unigram###! 
-0.020595888225241283653321744395726 27:1 37:1 134:1 175:1 349:1 380:1 3302:1 3798:1 6980:1 6981:1 22547:1 31496:1 47436:1 53059:1 53083:1 53192:1 53400:1 53402:1 55554:1 56599:1 56985:1 60044:1 60182:1 60183:1 60184:1 60185:1 60186:1 60187:1 60188:1 60189:1 60190:1 60191:1 60192:1 60193:1 60194:1 60195:1 60196:1 60197:1 60198:1 60199:1 60200:1 60201:1 60202:1 60203:1 60204:1 60205:1 60206:1 60207:1 60208:1 60209:1 60210:1 60211:1 60212:1 60213:1 60214:1 60215:1 60216:1 60217:1 60218:1 60219:1 60220:1 60221:1 60222:1 60223:1 60224:1 60225:1 60226:1 60227:1 60228:1 #unigram###Woordvoerder bigram###Woordvoerder#-#Dimitris trigram###Woordvoerder#-#Dimitris#-#Tsiodras unigram###Dimitris bigram###Dimitris#-#Tsiodras trigram###Dimitris#-#Tsiodras#-#zei unigram###Tsiodras bigram###Tsiodras#-#zei trigram###Tsiodras#-#zei#-#volgens unigram###zei bigram###zei#-#volgens trigram###zei#-#volgens#-#persbureau unigram###volgens bigram###volgens#-#persbureau trigram###volgens#-#persbureau#-#AP unigram###persbureau bigram###persbureau#-#AP trigram###persbureau#-#AP#-#dat unigram###AP bigram###AP#-#dat trigram###AP#-#dat#-#Merkel unigram###dat bigram###dat#-#Merkel trigram###dat#-#Merkel#-#het unigram###Merkel bigram###Merkel#-#het trigram###Merkel#-#het#-#idee unigram###het bigram###het#-#idee trigram###het#-#idee#-#eerder unigram###idee bigram###idee#-#eerder trigram###idee#-#eerder#-#vandaag unigram###eerder bigram###eerder#-#vandaag trigram###eerder#-#vandaag#-#opperde unigram###vandaag bigram###vandaag#-#opperde trigram###vandaag#-#opperde#-#tijdens unigram###opperde bigram###opperde#-#tijdens trigram###opperde#-#tijdens#-#een unigram###tijdens bigram###tijdens#-#een trigram###tijdens#-#een#-#telefoongesprek unigram###een bigram###een#-#telefoongesprek trigram###een#-#telefoongesprek#-#met unigram###telefoongesprek bigram###telefoongesprek#-#met trigram###telefoongesprek#-#met#-#de unigram###met bigram###met#-#de trigram###met#-#de#-#Griekse unigram###de bigram###de#-#Griekse trigram###de#-#Griekse#-#president unigram###Griekse bigram###Griekse#-#president trigram###Griekse#-#president#-#Karolos unigram###president bigram###president#-#Karolos trigram###president#-#Karolos#-#Papoulias unigram###Karolos bigram###Karolos#-#Papoulias trigram###Karolos#-#Papoulias#-#. unigram###Papoulias bigram###Papoulias#-#. unigram###. 
0.013823509251410908901802621073784 120:1 327:1 811:1 16899:1 16900:1 38099:1 53096:1 53102:1 53244:1 58265:1 64100:1 64101:1 64102:1 64103:1 64104:1 64105:1 64106:1 64107:1 64108:1 64109:1 64110:1 #unigram###Premier bigram###Premier#-#Rutte trigram###Premier#-#Rutte#-#kijkt unigram###Rutte bigram###Rutte#-#kijkt trigram###Rutte#-#kijkt#-#uit unigram###kijkt bigram###kijkt#-#uit trigram###kijkt#-#uit#-#naar unigram###uit bigram###uit#-#naar trigram###uit#-#naar#-#goede unigram###naar bigram###naar#-#goede trigram###naar#-#goede#-#samenwerking unigram###goede bigram###goede#-#samenwerking trigram###goede#-#samenwerking#-#Hollande unigram###samenwerking bigram###samenwerking#-#Hollande unigram###Hollande 
0.015145637985711576586900228846844 27:1 49:1 55:1 61:1 175:4 242:1 349:1 380:2 492:1 526:1 629:2 669:1 1168:1 2457:1 4319:1 4556:1 7751:1 7753:1 7934:1 19332:1 26834:1 35549:1 38945:1 53131:1 53174:1 56103:1 60589:1 61117:1 62473:1 62474:1 62475:1 62476:1 62477:1 62478:1 62479:1 62480:1 62481:1 62482:1 62483:1 62484:1 62485:1 62486:1 62487:1 62488:1 62489:1 62490:1 62491:1 62492:1 62493:1 62494:1 62495:1 62496:1 62497:1 62498:1 62499:1 62500:1 62501:1 62502:1 62503:1 62504:1 62505:1 62506:1 62507:1 62508:1 62509:1 62510:1 62511:1 62512:1 62513:1 62514:1 62515:1 62516:1 62517:1 62518:1 62519:1 62520:1 #unigram###Later bigram###Later#-#in trigram###Later#-#in#-#de unigram###in bigram###in#-#de trigram###in#-#de#-#nacht unigram###de bigram###de#-#nacht trigram###de#-#nacht#-#heeft unigram###nacht bigram###nacht#-#heeft trigram###nacht#-#heeft#-#ook unigram###heeft bigram###heeft#-#ook trigram###heeft#-#ook#-#de unigram###ook bigram###ook#-#de trigram###ook#-#de#-#Duitse unigram###de bigram###de#-#Duitse trigram###de#-#Duitse#-#Bondsraad unigram###Duitse bigram###Duitse#-#Bondsraad trigram###Duitse#-#Bondsraad#-#, unigram###Bondsraad bigram###Bondsraad#-#, trigram###Bondsraad#-#,#-#de unigram###, bigram###,#-#de trigram###,#-#de#-#vertegenwoordiger unigram###de bigram###de#-#vertegenwoordiger trigram###de#-#vertegenwoordiger#-#van unigram###vertegenwoordiger bigram###vertegenwoordiger#-#van trigram###vertegenwoordiger#-#van#-#de unigram###van bigram###van#-#de trigram###van#-#de#-#zestien unigram###de bigram###de#-#zestien trigram###de#-#zestien#-#deelstaatregeringen unigram###zestien bigram###zestien#-#deelstaatregeringen trigram###zestien#-#deelstaatregeringen#-#, unigram###deelstaatregeringen bigram###deelstaatregeringen#-#, trigram###deelstaatregeringen#-#,#-#ingestemd unigram###, bigram###,#-#ingestemd trigram###,#-#ingestemd#-#met unigram###ingestemd bigram###ingestemd#-#met trigram###ingestemd#-#met#-#het unigram###met bigram###met#-#het trigram###met#-#het#-#nieuwe unigram###het bigram###het#-#nieuwe trigram###het#-#nieuwe#-#begrotingspact unigram###nieuwe bigram###nieuwe#-#begrotingspact trigram###nieuwe#-#begrotingspact#-#en unigram###begrotingspact bigram###begrotingspact#-#en trigram###begrotingspact#-#en#-#het unigram###en bigram###en#-#het trigram###en#-#het#-#Europese unigram###het bigram###het#-#Europese trigram###het#-#Europese#-#noodfonds unigram###Europese bigram###Europese#-#noodfonds trigram###Europese#-#noodfonds#-#ESM unigram###noodfonds bigram###noodfonds#-#ESM trigram###noodfonds#-#ESM#-#. unigram###ESM bigram###ESM#-#. unigram###. 
0.038356194541052206214981623588756 27:1 629:1 2408:1 4790:1 7222:1 22206:1 38835:1 38836:1 38837:1 38838:1 38839:1 38840:1 38841:1 38842:1 38843:1 #unigram###Maar bigram###Maar#-#zeer trigram###Maar#-#zeer#-#massaal unigram###zeer bigram###zeer#-#massaal trigram###zeer#-#massaal#-#, unigram###massaal bigram###massaal#-#, trigram###massaal#-#,#-#lawaaierig unigram###, bigram###,#-#lawaaierig trigram###,#-#lawaaierig#-#. unigram###lawaaierig bigram###lawaaierig#-#. unigram###. 
0.031412232939033307710374742782733 37:1 183:1 753:1 977:1 979:1 45182:1 45183:1 45184:1 45185:1 #unigram###een bigram###een#-#ruime trigram###een#-#ruime#-#8 unigram###ruime bigram###ruime#-#8 trigram###ruime#-#8#-#! unigram###8 bigram###8#-#! unigram###! 
-0.066471160165109469120103824479884 27:1 31:1 61:1 73:1 559:1 573:1 574:1 2205:1 9325:1 13104:1 13329:1 19120:1 20210:1 23783:1 23784:1 23785:1 23786:1 23787:1 23788:1 23789:1 23790:1 23791:1 23792:1 23793:1 23794:1 23795:1 23796:1 23797:1 23798:1 23799:1 23800:1 23801:1 23802:1 #unigram###Wild bigram###Wild#-#Wadi trigram###Wild#-#Wadi#-#waterpark unigram###Wadi bigram###Wadi#-#waterpark trigram###Wadi#-#waterpark#-#is unigram###waterpark bigram###waterpark#-#is trigram###waterpark#-#is#-#geweldig unigram###is bigram###is#-#geweldig trigram###is#-#geweldig#-#voor unigram###geweldig bigram###geweldig#-#voor trigram###geweldig#-#voor#-#kids unigram###voor bigram###voor#-#kids trigram###voor#-#kids#-#( unigram###kids bigram###kids#-#( trigram###kids#-#(#-#en unigram###( bigram###(#-#en trigram###(#-#en#-#ouders unigram###en bigram###en#-#ouders trigram###en#-#ouders#-#) unigram###ouders bigram###ouders#-#) trigram###ouders#-#)#-#. unigram###) bigram###)#-#. unigram###. 
0.026539071145128663442580574383101 27:1 515:1 601:1 11446:1 13635:1 13636:1 13637:1 13638:1 13639:1 13640:1 13641:1 13642:1 #unigram###Is bigram###Is#-#geen trigram###Is#-#geen#-#29,95 unigram###geen bigram###geen#-#29,95 trigram###geen#-#29,95#-#waard unigram###29,95 bigram###29,95#-#waard trigram###29,95#-#waard#-#. unigram###waard bigram###waard#-#. unigram###. 
-0.18753714322583095452934287550306 27:1 49:1 588:1 1679:1 1727:1 1770:1 2518:1 2542:1 2961:1 2962:1 2963:1 2964:1 3049:1 21089:1 40917:1 40918:1 40919:1 40920:1 #unigram###1 bigram###1#-#overnachting trigram###1#-#overnachting#-#gehad unigram###overnachting bigram###overnachting#-#gehad trigram###overnachting#-#gehad#-#in unigram###gehad bigram###gehad#-#in trigram###gehad#-#in#-#dit unigram###in bigram###in#-#dit trigram###in#-#dit#-#hotel unigram###dit bigram###dit#-#hotel trigram###dit#-#hotel#-#. unigram###hotel bigram###hotel#-#. unigram###. 
-0.076497326556818012743832468913752 27:1 31:1 49:1 61:1 149:1 743:1 1974:1 3455:1 4090:1 6847:1 6848:1 19651:1 20943:1 23803:1 23804:1 23805:1 23806:1 23807:1 23808:1 23809:1 23810:1 23811:1 23812:1 23813:1 23814:1 23815:1 23816:1 23817:1 23818:1 23819:1 #unigram###Eten bigram###Eten#-#en trigram###Eten#-#en#-#drinken unigram###en bigram###en#-#drinken trigram###en#-#drinken#-#hier unigram###drinken bigram###drinken#-#hier trigram###drinken#-#hier#-#is unigram###hier bigram###hier#-#is trigram###hier#-#is#-#goedkoper unigram###is bigram###is#-#goedkoper trigram###is#-#goedkoper#-#dan unigram###goedkoper bigram###goedkoper#-#dan trigram###goedkoper#-#dan#-#in unigram###dan bigram###dan#-#in trigram###dan#-#in#-#NL unigram###in bigram###in#-#NL trigram###in#-#NL#-#pretparken unigram###NL bigram###NL#-#pretparken trigram###NL#-#pretparken#-#. unigram###pretparken bigram###pretparken#-#. unigram###. 
-0.067659915383687568857240535180608 27:1 55:1 61:1 218:1 269:1 15915:1 20992:1 46514:1 49021:1 54044:1 54045:1 54046:1 54961:1 56257:1 56258:1 56259:1 57086:1 57087:1 57088:1 57089:1 57090:1 57091:1 57092:1 57093:1 57094:1 57095:1 57096:1 #unigram###Het bigram###Het#-#gaat trigram###Het#-#gaat#-#om unigram###gaat bigram###gaat#-#om trigram###gaat#-#om#-#bilaterale unigram###om bigram###om#-#bilaterale trigram###om#-#bilaterale#-#gesprekken unigram###bilaterale bigram###bilaterale#-#gesprekken trigram###bilaterale#-#gesprekken#-#van unigram###gesprekken bigram###gesprekken#-#van trigram###gesprekken#-#van#-#Duitsland unigram###van bigram###van#-#Duitsland trigram###van#-#Duitsland#-#en unigram###Duitsland bigram###Duitsland#-#en trigram###Duitsland#-#en#-#Frankrijk unigram###en bigram###en#-#Frankrijk trigram###en#-#Frankrijk#-#. unigram###Frankrijk bigram###Frankrijk#-#. unigram###. 
0.0017016715681016036064432395136237 27:1 93:1 134:1 143:1 175:1 327:1 389:1 425:1 629:2 2434:1 2436:1 3394:1 3420:1 3954:1 7480:1 9884:1 15582:1 54003:1 57102:1 67607:1 67608:1 67609:1 67610:1 67611:1 67612:1 67613:1 67614:1 67615:1 67616:1 67617:1 67618:1 67619:1 67620:1 67621:1 67622:1 67623:1 67624:1 67625:1 67626:1 67627:1 67628:1 67629:1 67630:1 67631:1 67632:1 67633:1 67634:1 #unigram###De bigram###De#-#komiek trigram###De#-#komiek#-#, unigram###komiek bigram###komiek#-#, trigram###komiek#-#,#-#die unigram###, bigram###,#-#die trigram###,#-#die#-#zelf unigram###die bigram###die#-#zelf trigram###die#-#zelf#-#niet unigram###zelf bigram###zelf#-#niet trigram###zelf#-#niet#-#verkiesbaar unigram###niet bigram###niet#-#verkiesbaar trigram###niet#-#verkiesbaar#-#was unigram###verkiesbaar bigram###verkiesbaar#-#was trigram###verkiesbaar#-#was#-#, unigram###was bigram###was#-#, trigram###was#-#,#-#wil unigram###, bigram###,#-#wil trigram###,#-#wil#-#dat unigram###wil bigram###wil#-#dat trigram###wil#-#dat#-#Italië unigram###dat bigram###dat#-#Italië trigram###dat#-#Italië#-#uit unigram###Italië bigram###Italië#-#uit trigram###Italië#-#uit#-#de unigram###uit bigram###uit#-#de trigram###uit#-#de#-#euro unigram###de bigram###de#-#euro trigram###de#-#euro#-#stapt unigram###euro bigram###euro#-#stapt trigram###euro#-#stapt#-#. unigram###stapt bigram###stapt#-#. unigram###. 
0.0015537253255891207096711648105725 27:1 37:1 143:1 303:1 324:1 355:1 372:1 420:1 2242:1 2303:1 3770:1 5207:1 9130:1 12160:1 12162:1 25288:1 31496:1 32707:1 53059:1 55486:1 55487:1 55488:1 62420:1 63007:1 63645:1 63776:1 63777:1 63778:1 63779:1 63780:1 63781:1 63782:1 63783:1 63784:1 63785:1 63786:1 63787:1 63788:1 63789:1 63790:1 63791:1 63792:1 63793:1 63794:1 63795:1 63796:1 63797:1 63798:1 63799:1 63800:1 63801:1 63802:1 63803:1 63804:1 63805:1 63806:1 63807:1 63808:1 63809:1 63810:1 #unigram###Zowel bigram###Zowel#-#Merkel trigram###Zowel#-#Merkel#-#als unigram###Merkel bigram###Merkel#-#als trigram###Merkel#-#als#-#Steinbrück unigram###als bigram###als#-#Steinbrück trigram###als#-#Steinbrück#-#zei unigram###Steinbrück bigram###Steinbrück#-#zei trigram###Steinbrück#-#zei#-#vanavond unigram###zei bigram###zei#-#vanavond trigram###zei#-#vanavond#-#niet unigram###vanavond bigram###vanavond#-#niet trigram###vanavond#-#niet#-#mee unigram###niet bigram###niet#-#mee trigram###niet#-#mee#-#te unigram###mee bigram###mee#-#te trigram###mee#-#te#-#willen unigram###te bigram###te#-#willen trigram###te#-#willen#-#doen unigram###willen bigram###willen#-#doen trigram###willen#-#doen#-#aan unigram###doen bigram###doen#-#aan trigram###doen#-#aan#-#een unigram###aan bigram###aan#-#een trigram###aan#-#een#-#eventuele unigram###een bigram###een#-#eventuele trigram###een#-#eventuele#-#door unigram###eventuele bigram###eventuele#-#door trigram###eventuele#-#door#-#Amerika unigram###door bigram###door#-#Amerika trigram###door#-#Amerika#-#geïnitieerde unigram###Amerika bigram###Amerika#-#geïnitieerde trigram###Amerika#-#geïnitieerde#-#aanval unigram###geïnitieerde bigram###geïnitieerde#-#aanval trigram###geïnitieerde#-#aanval#-#op unigram###aanval bigram###aanval#-#op trigram###aanval#-#op#-#Syrië unigram###op bigram###op#-#Syrië trigram###op#-#Syrië#-#. unigram###Syrië bigram###Syrië#-#. unigram###. 
0.03057428465638965114914427090298 27:1 175:1 324:1 470:1 618:1 1170:1 2006:1 3886:1 9180:1 12552:1 34228:1 34229:1 34230:1 34231:1 34232:1 34233:1 34234:1 34235:1 #unigram###Airco bigram###Airco#-#op trigram###Airco#-#op#-#de unigram###op bigram###op#-#de trigram###op#-#de#-#kamer unigram###de bigram###de#-#kamer trigram###de#-#kamer#-#werkt unigram###kamer bigram###kamer#-#werkt trigram###kamer#-#werkt#-#goed unigram###werkt bigram###werkt#-#goed trigram###werkt#-#goed#-#. unigram###goed bigram###goed#-#. unigram###. 
0.055644517191248014931215237766082 27:1 175:2 355:1 475:1 629:1 21101:1 53392:1 53394:1 53654:1 53656:1 58958:1 58986:1 58987:1 64817:1 64818:1 64819:1 64820:1 64821:1 64822:1 64823:1 64824:1 64825:1 64826:1 64827:1 64828:1 64829:1 #unigram###Dat bigram###Dat#-#tast trigram###Dat#-#tast#-#de unigram###tast bigram###tast#-#de trigram###tast#-#de#-#geloofwaardigheid unigram###de bigram###de#-#geloofwaardigheid trigram###de#-#geloofwaardigheid#-#aan unigram###geloofwaardigheid bigram###geloofwaardigheid#-#aan trigram###geloofwaardigheid#-#aan#-#, unigram###aan bigram###aan#-#, trigram###aan#-#,#-#aldus unigram###, bigram###,#-#aldus trigram###,#-#aldus#-#de unigram###aldus bigram###aldus#-#de trigram###aldus#-#de#-#bondskanselier unigram###de bigram###de#-#bondskanselier trigram###de#-#bondskanselier#-#. unigram###bondskanselier bigram###bondskanselier#-#. unigram###. 
0.087851785289835837566840837098425 37:1 375:1 8415:1 32384:1 32385:1 32386:1 #unigram###Wat bigram###Wat#-#een trigram###Wat#-#een#-#afknapper unigram###een bigram###een#-#afknapper unigram###afknapper 
-0.014992981477441543608497553918824 27:1 37:1 49:1 380:1 575:1 4556:1 5871:1 5872:1 5873:1 5874:1 7579:1 11681:1 12593:1 20992:1 53083:1 53114:1 55689:1 62301:1 62302:1 62303:1 62341:1 62342:1 62343:1 62344:1 62345:1 62346:1 62347:1 62348:1 62349:1 62350:1 62351:1 62352:1 62353:1 62354:1 62355:1 62356:1 #unigram###Voor bigram###Voor#-#het trigram###Voor#-#het#-#eerst unigram###het bigram###het#-#eerst trigram###het#-#eerst#-#in unigram###eerst bigram###eerst#-#in trigram###eerst#-#in#-#17 unigram###in bigram###in#-#17 trigram###in#-#17#-#jaar unigram###17 bigram###17#-#jaar trigram###17#-#jaar#-#heeft unigram###jaar bigram###jaar#-#heeft trigram###jaar#-#heeft#-#Frankrijk unigram###heeft bigram###heeft#-#Frankrijk trigram###heeft#-#Frankrijk#-#opnieuw unigram###Frankrijk bigram###Frankrijk#-#opnieuw trigram###Frankrijk#-#opnieuw#-#een unigram###opnieuw bigram###opnieuw#-#een trigram###opnieuw#-#een#-#linkse unigram###een bigram###een#-#linkse trigram###een#-#linkse#-#president unigram###linkse bigram###linkse#-#president trigram###linkse#-#president#-#. unigram###president bigram###president#-#. unigram###. 
0.004413829933964730396767084386056 27:1 37:2 55:1 61:1 73:3 134:1 269:2 380:1 389:1 629:2 886:1 974:1 975:1 1425:1 1763:1 1928:1 3094:1 3701:1 3715:1 4077:1 4711:1 5983:1 5985:2 7579:1 9290:1 12731:1 19697:1 20900:1 24263:1 24599:1 30174:1 31052:1 43775:1 46177:1 46178:1 46179:1 46180:1 46181:1 46182:1 46183:2 46184:1 46185:1 46186:1 46187:1 46188:1 46189:1 46190:1 46191:1 46192:1 46193:1 46194:1 46195:1 46196:1 46197:1 46198:1 46199:1 46200:1 46201:1 46202:1 46203:1 46204:1 46205:1 46206:1 46207:1 46208:1 46209:1 46210:1 46211:1 46212:1 46213:1 46214:1 46215:1 46216:1 46217:1 46218:1 46219:1 46220:1 46221:1 46222:1 46223:1 46224:1 46225:1 46226:1 46227:1 46228:1 46229:1 46230:1 46231:1 46232:1 #unigram###Vroegen bigram###Vroegen#-#om trigram###Vroegen#-#om#-#een unigram###om bigram###om#-#een trigram###om#-#een#-#kindermenu unigram###een bigram###een#-#kindermenu trigram###een#-#kindermenu#-#spaghettie unigram###kindermenu bigram###kindermenu#-#spaghettie trigram###kindermenu#-#spaghettie#-#voor unigram###spaghettie bigram###spaghettie#-#voor trigram###spaghettie#-#voor#-#2 unigram###voor bigram###voor#-#2 trigram###voor#-#2#-#kinderen unigram###2 bigram###2#-#kinderen trigram###2#-#kinderen#-#van unigram###kinderen bigram###kinderen#-#van trigram###kinderen#-#van#-#12 unigram###van bigram###van#-#12 trigram###van#-#12#-#, unigram###12 bigram###12#-#, trigram###12#-#,#-#kregen unigram###, bigram###,#-#kregen trigram###,#-#kregen#-#een unigram###kregen bigram###kregen#-#een trigram###kregen#-#een#-#bord unigram###een bigram###een#-#bord trigram###een#-#bord#-#voor unigram###bord bigram###bord#-#voor trigram###bord#-#voor#-#volwassenen unigram###voor bigram###voor#-#volwassenen trigram###voor#-#volwassenen#-#, unigram###volwassenen bigram###volwassenen#-#, trigram###volwassenen#-#,#-#vroegen unigram###, bigram###,#-#vroegen trigram###,#-#vroegen#-#om unigram###vroegen bigram###vroegen#-#om trigram###vroegen#-#om#-#uitleg unigram###om bigram###om#-#uitleg trigram###om#-#uitleg#-#en unigram###uitleg bigram###uitleg#-#en trigram###uitleg#-#en#-#antwoord unigram###en bigram###en#-#antwoord trigram###en#-#antwoord#-#was unigram###antwoord bigram###antwoord#-#was trigram###antwoord#-#was#-#dat unigram###was bigram###was#-#dat trigram###was#-#dat#-#het unigram###dat bigram###dat#-#het trigram###dat#-#het#-#kindermenu unigram###het bigram###het#-#kindermenu trigram###het#-#kindermenu#-#geld unigram###kindermenu bigram###kindermenu#-#geld trigram###kindermenu#-#geld#-#voor unigram###geld bigram###geld#-#voor trigram###geld#-#voor#-#kinderen unigram###voor bigram###voor#-#kinderen trigram###voor#-#kinderen#-#tot unigram###kinderen bigram###kinderen#-#tot trigram###kinderen#-#tot#-#10 unigram###tot bigram###tot#-#10 trigram###tot#-#10#-#jaar unigram###10 bigram###10#-#jaar trigram###10#-#jaar#-#. unigram###jaar bigram###jaar#-#. unigram###. 
-0.049061599563497731990580064120877 27:1 61:1 425:1 629:1 1786:1 6957:1 60454:1 60455:1 60456:1 60457:1 60458:1 60459:1 60460:1 60461:1 60462:1 60463:1 60464:1 60465:1 60466:1 60467:1 60468:1 60469:1 60470:1 60471:1 60472:1 60473:1 60474:1 60475:1 60476:1 60477:1 60478:1 60479:1 60480:1 60481:1 60482:1 60483:1 #unigram###De bigram###De#-#sterindex trigram###De#-#sterindex#-#telde unigram###sterindex bigram###sterindex#-#telde trigram###sterindex#-#telde#-#veertien unigram###telde bigram###telde#-#veertien trigram###telde#-#veertien#-#stijgers unigram###veertien bigram###veertien#-#stijgers trigram###veertien#-#stijgers#-#en unigram###stijgers bigram###stijgers#-#en trigram###stijgers#-#en#-#vier unigram###en bigram###en#-#vier trigram###en#-#vier#-#dalers unigram###vier bigram###vier#-#dalers trigram###vier#-#dalers#-#, unigram###dalers bigram###dalers#-#, trigram###dalers#-#,#-#Ageas unigram###, bigram###,#-#Ageas trigram###,#-#Ageas#-#bleef unigram###Ageas bigram###Ageas#-#bleef trigram###Ageas#-#bleef#-#onveranderd unigram###bleef bigram###bleef#-#onveranderd trigram###bleef#-#onveranderd#-#. unigram###onveranderd bigram###onveranderd#-#. unigram###. 
-0.07289717031788692236382587452681 183:1 2591:1 15393:2 16861:1 21644:1 36086:1 36087:1 36088:1 36089:1 36090:1 36091:1 36092:1 36093:1 36094:1 36095:1 36096:1 36097:1 36098:1 36099:1 36100:1 #unigram###Prijs bigram###Prijs#-#€ trigram###Prijs#-#€#-#95,00 unigram###€ bigram###€#-#95,00 trigram###€#-#95,00#-#+ unigram###95,00 bigram###95,00#-#+ trigram###95,00#-#+#-#€ unigram###+ bigram###+#-#€ trigram###+#-#€#-#11,50 unigram###€ bigram###€#-#11,50 trigram###€#-#11,50#-#parkeren unigram###11,50 bigram###11,50#-#parkeren trigram###11,50#-#parkeren#-#! unigram###parkeren bigram###parkeren#-#! unigram###! 
0.016833679597421959822645121107598 22:1 27:1 37:2 49:1 102:1 134:1 236:1 380:1 425:1 588:1 811:1 1010:1 1017:1 1473:1 1475:1 1833:1 1959:1 2560:2 3827:1 5216:1 5699:1 5700:1 5701:1 5702:1 5703:1 5704:1 5705:1 5706:1 5707:1 5708:1 5709:1 5710:1 5711:1 5712:1 5713:1 5714:1 5715:1 5716:1 5717:1 5718:1 5719:1 5720:1 5721:1 5722:1 5723:1 5724:1 5725:1 5726:1 5727:1 5728:1 5729:1 5730:1 5731:1 5732:1 5733:1 5734:1 5735:1 5736:1 5737:1 5738:1 5739:1 5740:1 5741:1 5742:1 #unigram###De bigram###De#-#straat trigram###De#-#straat#-#naar unigram###straat bigram###straat#-#naar trigram###straat#-#naar#-#het unigram###naar bigram###naar#-#het trigram###naar#-#het#-#hotel unigram###het bigram###het#-#hotel trigram###het#-#hotel#-#oogt unigram###hotel bigram###hotel#-#oogt trigram###hotel#-#oogt#-#misschien unigram###oogt bigram###oogt#-#misschien trigram###oogt#-#misschien#-#wat unigram###misschien bigram###misschien#-#wat trigram###misschien#-#wat#-#" unigram###wat bigram###wat#-#" trigram###wat#-#"#-#onguur unigram###" bigram###"#-#onguur trigram###"#-#onguur#-#" unigram###onguur bigram###onguur#-#" trigram###onguur#-#"#-#maar unigram###" bigram###"#-#maar trigram###"#-#maar#-#dat unigram###maar bigram###maar#-#dat trigram###maar#-#dat#-#hoort unigram###dat bigram###dat#-#hoort trigram###dat#-#hoort#-#bij unigram###hoort bigram###hoort#-#bij trigram###hoort#-#bij#-#een unigram###bij bigram###bij#-#een trigram###bij#-#een#-#oude unigram###een bigram###een#-#oude trigram###een#-#oude#-#wijk unigram###oude bigram###oude#-#wijk trigram###oude#-#wijk#-#in unigram###wijk bigram###wijk#-#in trigram###wijk#-#in#-#een unigram###in bigram###in#-#een trigram###in#-#een#-#grote unigram###een bigram###een#-#grote trigram###een#-#grote#-#stad unigram###grote bigram###grote#-#stad trigram###grote#-#stad#-#. unigram###stad bigram###stad#-#. unigram###. 
0.033431361511986418255659714304784 27:1 61:1 294:1 355:1 380:1 588:1 1010:1 1116:1 1584:1 2164:1 4790:1 6877:1 7881:1 22736:1 30147:1 44511:1 44610:1 44611:1 44612:1 44613:1 44614:1 44615:1 44616:1 44617:1 44618:1 44619:1 44620:1 44621:1 44622:1 44623:1 #unigram###Maar bigram###Maar#-#ik trigram###Maar#-#ik#-#heb unigram###ik bigram###ik#-#heb trigram###ik#-#heb#-#genoten unigram###heb bigram###heb#-#genoten trigram###heb#-#genoten#-#en unigram###genoten bigram###genoten#-#en trigram###genoten#-#en#-#beveel unigram###en bigram###en#-#beveel trigram###en#-#beveel#-#het unigram###beveel bigram###beveel#-#het trigram###beveel#-#het#-#hotel unigram###het bigram###het#-#hotel trigram###het#-#hotel#-#zeker unigram###hotel bigram###hotel#-#zeker trigram###hotel#-#zeker#-#aan unigram###zeker bigram###zeker#-#aan trigram###zeker#-#aan#-#. unigram###aan bigram###aan#-#. unigram###. 
0.11829184050342464451510693379532 27:1 485:1 3008:1 7196:1 7197:1 7198:1 #unigram###Wel bigram###Wel#-#jammer trigram###Wel#-#jammer#-#. unigram###jammer bigram###jammer#-#. unigram###. 
0.033779137131370401414542925522255 61:1 102:1 2062:1 5576:1 6543:1 7394:1 7395:1 12878:1 41534:1 41535:1 41536:1 47357:1 47358:1 47359:1 47360:1 47361:1 47362:1 47363:1 #unigram###Mooi bigram###Mooi#-#Hotel trigram###Mooi#-#Hotel#-#dicht unigram###Hotel bigram###Hotel#-#dicht trigram###Hotel#-#dicht#-#bij unigram###dicht bigram###dicht#-#bij trigram###dicht#-#bij#-#Disney unigram###bij bigram###bij#-#Disney trigram###bij#-#Disney#-#en unigram###Disney bigram###Disney#-#en trigram###Disney#-#en#-#Parijs unigram###en bigram###en#-#Parijs unigram###Parijs 
-0.067776480827167959186674295324337 27:1 340:1 629:1 2678:1 2680:1 3540:1 19931:1 30583:1 32092:1 32093:1 32094:1 32096:1 40462:1 40463:1 40464:1 40465:1 40466:1 40467:1 40468:1 40469:1 40470:1 #unigram###Tijdens bigram###Tijdens#-#ons trigram###Tijdens#-#ons#-#verblijf unigram###ons bigram###ons#-#verblijf trigram###ons#-#verblijf#-#voornamelijk unigram###verblijf bigram###verblijf#-#voornamelijk trigram###verblijf#-#voornamelijk#-#Russen unigram###voornamelijk bigram###voornamelijk#-#Russen trigram###voornamelijk#-#Russen#-#, unigram###Russen bigram###Russen#-#, trigram###Russen#-#,#-#Polen unigram###, bigram###,#-#Polen trigram###,#-#Polen#-#. unigram###Polen bigram###Polen#-#. unigram###. 
-0.11005888931212690073913051946874 27:1 31:1 22069:1 61904:1 61905:1 61906:1 61907:1 61908:1 61909:1 61910:1 61911:1 61912:1 61913:1 61914:1 61915:1 #unigram###Zijn bigram###Zijn#-#opvolger trigram###Zijn#-#opvolger#-#is unigram###opvolger bigram###opvolger#-#is trigram###opvolger#-#is#-#Emma unigram###is bigram###is#-#Emma trigram###is#-#Emma#-#Lewell-Buck unigram###Emma bigram###Emma#-#Lewell-Buck trigram###Emma#-#Lewell-Buck#-#. unigram###Lewell-Buck bigram###Lewell-Buck#-#. unigram###. 
0.091137257763515805430998284464295 27:1 49:1 175:1 669:1 48515:1 48516:1 48517:1 48518:1 48519:1 48520:1 48521:1 48522:1 #unigram###Scheur bigram###Scheur#-#in trigram###Scheur#-#in#-#de unigram###in bigram###in#-#de trigram###in#-#de#-#vitrage unigram###de bigram###de#-#vitrage trigram###de#-#vitrage#-#. unigram###vitrage bigram###vitrage#-#. unigram###. 
0.0095693156084682082229697641651001 27:1 31:1 61:1 102:1 175:2 370:1 372:1 380:1 559:2 573:2 629:1 2713:1 3556:1 5019:1 5512:1 5743:1 16785:1 17019:1 25601:1 25972:1 32329:1 44173:1 53131:2 53469:2 53470:1 53471:1 53473:1 54745:1 54746:1 54747:1 54748:1 54749:1 54750:1 54751:1 54752:1 54753:1 54754:1 54755:1 54756:1 54757:1 54758:1 54759:1 54760:1 54761:1 54762:1 54763:1 54764:1 54765:1 54766:1 54767:1 54768:1 54769:1 54770:1 54771:1 54772:1 54773:1 54774:1 54775:1 54776:1 54777:1 54778:1 54779:1 54780:1 54781:1 54782:1 54783:1 54784:1 54785:1 54786:1 54787:1 54788:1 54789:1 54790:1 #unigram###Ook bigram###Ook#-#is trigram###Ook#-#is#-#China unigram###is bigram###is#-#China trigram###is#-#China#-#bereid unigram###China bigram###China#-#bereid trigram###China#-#bereid#-#de unigram###bereid bigram###bereid#-#de trigram###bereid#-#de#-#Europese unigram###de bigram###de#-#Europese trigram###de#-#Europese#-#Unie unigram###Europese bigram###Europese#-#Unie trigram###Europese#-#Unie#-#, unigram###Unie bigram###Unie#-#, trigram###Unie#-#,#-#het unigram###, bigram###,#-#het trigram###,#-#het#-#Internationaal unigram###het bigram###het#-#Internationaal trigram###het#-#Internationaal#-#Monetair unigram###Internationaal bigram###Internationaal#-#Monetair trigram###Internationaal#-#Monetair#-#Fonds unigram###Monetair bigram###Monetair#-#Fonds trigram###Monetair#-#Fonds#-#( unigram###Fonds bigram###Fonds#-#( trigram###Fonds#-#(#-#IMF unigram###( bigram###(#-#IMF trigram###(#-#IMF#-#) unigram###IMF bigram###IMF#-#) trigram###IMF#-#)#-#en unigram###) bigram###)#-#en trigram###)#-#en#-#de unigram###en bigram###en#-#de trigram###en#-#de#-#Europese unigram###de bigram###de#-#Europese trigram###de#-#Europese#-#Centrale unigram###Europese bigram###Europese#-#Centrale trigram###Europese#-#Centrale#-#Bank unigram###Centrale bigram###Centrale#-#Bank trigram###Centrale#-#Bank#-#( unigram###Bank bigram###Bank#-#( trigram###Bank#-#(#-#ECB unigram###( bigram###(#-#ECB trigram###(#-#ECB#-#) unigram###ECB bigram###ECB#-#) trigram###ECB#-#)#-#bij unigram###) bigram###)#-#bij trigram###)#-#bij#-#te unigram###bij bigram###bij#-#te trigram###bij#-#te#-#staan unigram###te bigram###te#-#staan trigram###te#-#staan#-#. unigram###staan bigram###staan#-#. unigram###. 
0.014242072966661420765910328611881 61:1 175:1 340:1 380:1 420:1 607:1 823:1 861:1 934:1 1231:1 5153:1 7613:1 7614:1 11345:1 17756:1 22996:1 23028:1 29154:1 31366:1 31539:1 31540:1 31541:1 31542:1 31543:1 31544:1 31545:1 31546:1 31547:1 31548:1 31549:1 31550:1 31551:1 31552:1 31553:1 31554:1 31555:1 31556:1 31557:1 31558:1 31559:1 31560:1 31561:1 31562:1 31563:1 31564:1 31565:1 31566:1 31567:1 31568:1 31569:1 31570:1 31571:1 31572:1 31573:1 #unigram###Aan bigram###Aan#-#het trigram###Aan#-#het#-#strand unigram###het bigram###het#-#strand trigram###het#-#strand#-#wers unigram###strand bigram###strand#-#wers trigram###strand#-#wers#-#elke unigram###wers bigram###wers#-#elke trigram###wers#-#elke#-#dag unigram###elke bigram###elke#-#dag trigram###elke#-#dag#-#ons unigram###dag bigram###dag#-#ons trigram###dag#-#ons#-#bedje unigram###ons bigram###ons#-#bedje trigram###ons#-#bedje#-#opgemaakt unigram###bedje bigram###bedje#-#opgemaakt trigram###bedje#-#opgemaakt#-#nadat unigram###opgemaakt bigram###opgemaakt#-#nadat trigram###opgemaakt#-#nadat#-#we unigram###nadat bigram###nadat#-#we trigram###nadat#-#we#-#de unigram###we bigram###we#-#de trigram###we#-#de#-#handdoeken unigram###de bigram###de#-#handdoeken trigram###de#-#handdoeken#-#hadden unigram###handdoeken bigram###handdoeken#-#hadden trigram###handdoeken#-#hadden#-#opgehaald unigram###hadden bigram###hadden#-#opgehaald trigram###hadden#-#opgehaald#-#door unigram###opgehaald bigram###opgehaald#-#door trigram###opgehaald#-#door#-#achmed unigram###door bigram###door#-#achmed trigram###door#-#achmed#-#en unigram###achmed bigram###achmed#-#en trigram###achmed#-#en#-#mohamed unigram###en bigram###en#-#mohamed unigram###mohamed 
0.0033100238119345573931107118426098 27:1 73:1 154:1 6496:1 55240:1 55241:1 55242:1 55243:1 55244:1 55245:1 55246:1 55247:1 55248:1 55249:1 55250:1 55251:1 55252:1 55253:1 #unigram###Zelf bigram###Zelf#-#pleit trigram###Zelf#-#pleit#-#hij unigram###pleit bigram###pleit#-#hij trigram###pleit#-#hij#-#voor unigram###hij bigram###hij#-#voor trigram###hij#-#voor#-#genoeg unigram###voor bigram###voor#-#genoeg trigram###voor#-#genoeg#-#landbouwgeld unigram###genoeg bigram###genoeg#-#landbouwgeld trigram###genoeg#-#landbouwgeld#-#. unigram###landbouwgeld bigram###landbouwgeld#-#. unigram###. 
0.042603898454410336904540912428274 27:1 175:1 389:1 390:1 7844:1 11075:1 16274:1 16275:1 33865:1 33866:1 43038:1 48979:1 48980:1 48981:1 48982:1 48983:1 48984:1 48985:1 #unigram###Enige bigram###Enige#-#positief trigram###Enige#-#positief#-#punt unigram###positief bigram###positief#-#punt trigram###positief#-#punt#-#was unigram###punt bigram###punt#-#was trigram###punt#-#was#-#de unigram###was bigram###was#-#de trigram###was#-#de#-#keuken unigram###de bigram###de#-#keuken trigram###de#-#keuken#-#. unigram###keuken bigram###keuken#-#. unigram###. 
0.013060950944272332191475882723353 27:1 31:1 37:1 49:2 134:1 380:1 523:1 604:1 1161:1 5323:1 6584:1 9752:1 26834:1 53059:1 53254:1 53255:1 53979:1 54743:1 55038:1 55039:1 56156:1 56157:1 56159:1 56913:1 56914:1 56915:1 56916:1 56917:1 56918:1 56919:1 56920:1 56921:1 56922:1 56923:1 56924:1 56925:1 56926:1 56927:1 56928:1 56929:1 56930:1 56931:1 56932:1 56933:1 56934:1 56935:1 56936:1 #unigram###Merkel bigram###Merkel#-#had trigram###Merkel#-#had#-#onlangs unigram###had bigram###had#-#onlangs trigram###had#-#onlangs#-#in unigram###onlangs bigram###onlangs#-#in trigram###onlangs#-#in#-#het unigram###in bigram###in#-#het trigram###in#-#het#-#Duitse unigram###het bigram###het#-#Duitse trigram###het#-#Duitse#-#parlement unigram###Duitse bigram###Duitse#-#parlement trigram###Duitse#-#parlement#-#gezegd unigram###parlement bigram###parlement#-#gezegd trigram###parlement#-#gezegd#-#dat unigram###gezegd bigram###gezegd#-#dat trigram###gezegd#-#dat#-#een unigram###dat bigram###dat#-#een trigram###dat#-#een#-#politieke unigram###een bigram###een#-#politieke trigram###een#-#politieke#-#unie unigram###politieke bigram###politieke#-#unie trigram###politieke#-#unie#-#in unigram###unie bigram###unie#-#in trigram###unie#-#in#-#Europa unigram###in bigram###in#-#Europa trigram###in#-#Europa#-#onvermijdelijk unigram###Europa bigram###Europa#-#onvermijdelijk trigram###Europa#-#onvermijdelijk#-#is unigram###onvermijdelijk bigram###onvermijdelijk#-#is trigram###onvermijdelijk#-#is#-#. unigram###is bigram###is#-#. unigram###. 
0.014670877318620415344363472343048 27:1 31:1 61:1 149:1 175:3 392:1 394:1 826:1 1974:1 2229:1 3556:1 4780:1 5743:1 10065:1 20941:1 20942:1 20943:1 20944:1 20945:1 20946:1 20947:1 20948:1 20949:1 20950:1 20951:1 20952:1 20953:1 20954:1 20955:1 20956:1 20957:1 20958:1 20959:1 20960:1 #unigram###Ook bigram###Ook#-#hier trigram###Ook#-#hier#-#is unigram###hier bigram###hier#-#is trigram###hier#-#is#-#de unigram###is bigram###is#-#de trigram###is#-#de#-#kassa unigram###de bigram###de#-#kassa trigram###de#-#kassa#-#belangrijker unigram###kassa bigram###kassa#-#belangrijker trigram###kassa#-#belangrijker#-#dan unigram###belangrijker bigram###belangrijker#-#dan trigram###belangrijker#-#dan#-#de unigram###dan bigram###dan#-#de trigram###dan#-#de#-#vriendelijkheid unigram###de bigram###de#-#vriendelijkheid trigram###de#-#vriendelijkheid#-#en unigram###vriendelijkheid bigram###vriendelijkheid#-#en trigram###vriendelijkheid#-#en#-#de unigram###en bigram###en#-#de trigram###en#-#de#-#service unigram###de bigram###de#-#service trigram###de#-#service#-#. unigram###service bigram###service#-#. unigram###. 
0.0087426801236627493807418431970291 37:1 61:1 73:1 183:1 629:1 4790:1 9344:1 31726:1 31727:1 31850:1 31851:1 31852:1 31853:1 31854:1 31855:1 31856:1 31857:1 31858:1 31859:1 31860:1 31861:1 31862:1 31863:1 31864:1 31865:1 31866:1 31867:1 #unigram###Maar bigram###Maar#-#nogmaals trigram###Maar#-#nogmaals#-#, unigram###nogmaals bigram###nogmaals#-#, trigram###nogmaals#-#,#-#een unigram###, bigram###,#-#een trigram###,#-#een#-#pluım unigram###een bigram###een#-#pluım trigram###een#-#pluım#-#voor unigram###pluım bigram###pluım#-#voor trigram###pluım#-#voor#-#vrıendelıjkheıd unigram###voor bigram###voor#-#vrıendelıjkheıd trigram###voor#-#vrıendelıjkheıd#-#en unigram###vrıendelıjkheıd bigram###vrıendelıjkheıd#-#en trigram###vrıendelıjkheıd#-#en#-#professıonalıteıt unigram###en bigram###en#-#professıonalıteıt trigram###en#-#professıonalıteıt#-#! unigram###professıonalıteıt bigram###professıonalıteıt#-#! unigram###! 
0.001472184013226067456070467187601 27:1 37:1 55:1 143:1 372:1 425:1 634:1 712:1 1291:1 3089:1 3229:1 5110:1 5976:1 5978:1 12138:1 25017:1 25018:1 25019:1 25020:1 25021:1 25022:1 25023:1 25024:1 25025:1 25026:1 25027:1 25028:1 25029:1 25030:1 25031:1 #unigram###De bigram###De#-#wijn trigram###De#-#wijn#-#niet unigram###wijn bigram###wijn#-#niet trigram###wijn#-#niet#-#te unigram###niet bigram###niet#-#te trigram###niet#-#te#-#vergeten unigram###te bigram###te#-#vergeten trigram###te#-#vergeten#-#trouwens unigram###vergeten bigram###vergeten#-#trouwens trigram###vergeten#-#trouwens#-#van unigram###trouwens bigram###trouwens#-#van trigram###trouwens#-#van#-#een unigram###van bigram###van#-#een trigram###van#-#een#-#uitstekende unigram###een bigram###een#-#uitstekende trigram###een#-#uitstekende#-#kwaliteit unigram###uitstekende bigram###uitstekende#-#kwaliteit trigram###uitstekende#-#kwaliteit#-#. unigram###kwaliteit bigram###kwaliteit#-#. unigram###. 
0.023683539660112287728033209077694 55:1 52542:1 53238:1 53256:1 53257:1 53258:1 53259:1 53260:1 54130:1 54131:1 54132:1 54133:1 54134:1 54135:1 54136:1 #unigram###Duizenden bigram###Duizenden#-#Kroaten trigram###Duizenden#-#Kroaten#-#vieren unigram###Kroaten bigram###Kroaten#-#vieren trigram###Kroaten#-#vieren#-#lidmaatschap unigram###vieren bigram###vieren#-#lidmaatschap trigram###vieren#-#lidmaatschap#-#van unigram###lidmaatschap bigram###lidmaatschap#-#van trigram###lidmaatschap#-#van#-#EU unigram###van bigram###van#-#EU unigram###EU 
-0.021796962716560449452307679507612 16:1 27:1 46:1 93:1 102:1 175:2 190:1 229:1 355:1 380:1 425:1 773:1 1209:1 1949:1 6834:1 6980:1 15572:1 30304:1 35280:1 53131:1 55097:1 56515:1 56516:1 57894:1 58379:1 58380:1 58381:1 58382:1 58383:1 58384:1 58385:1 58386:1 58387:1 58388:1 58389:1 58390:1 58391:1 58392:1 58393:1 58394:1 58395:1 58396:1 58397:1 58398:1 58399:1 58400:1 58401:1 58402:1 58403:1 58404:1 58405:1 58406:1 58407:1 58408:1 58409:1 58410:1 58411:1 58412:1 58413:1 #unigram###De bigram###De#-#plannen trigram###De#-#plannen#-#die unigram###plannen bigram###plannen#-#die trigram###plannen#-#die#-#besproken unigram###die bigram###die#-#besproken trigram###die#-#besproken#-#zijn unigram###besproken bigram###besproken#-#zijn trigram###besproken#-#zijn#-#tijdens unigram###zijn bigram###zijn#-#tijdens trigram###zijn#-#tijdens#-#het unigram###tijdens bigram###tijdens#-#het trigram###tijdens#-#het#-#overleg unigram###het bigram###het#-#overleg trigram###het#-#overleg#-#worden unigram###overleg bigram###overleg#-#worden trigram###overleg#-#worden#-#volgende unigram###worden bigram###worden#-#volgende trigram###worden#-#volgende#-#week unigram###volgende bigram###volgende#-#week trigram###volgende#-#week#-#bij unigram###week bigram###week#-#bij trigram###week#-#bij#-#de unigram###bij bigram###bij#-#de trigram###bij#-#de#-#eurotop unigram###de bigram###de#-#eurotop trigram###de#-#eurotop#-#gepresenteerd unigram###eurotop bigram###eurotop#-#gepresenteerd trigram###eurotop#-#gepresenteerd#-#aan unigram###gepresenteerd bigram###gepresenteerd#-#aan trigram###gepresenteerd#-#aan#-#de unigram###aan bigram###aan#-#de trigram###aan#-#de#-#andere unigram###de bigram###de#-#andere trigram###de#-#andere#-#Europese unigram###andere bigram###andere#-#Europese trigram###andere#-#Europese#-#regeringsleiders unigram###Europese bigram###Europese#-#regeringsleiders trigram###Europese#-#regeringsleiders#-#. unigram###regeringsleiders bigram###regeringsleiders#-#. unigram###. 
0.022883033795231447204976404918852 27:1 131:1 303:1 304:1 811:1 1855:2 2949:1 2950:1 7350:1 10653:1 17340:1 25180:1 48207:1 48369:1 48370:1 48371:1 48372:1 48373:1 48374:1 48375:1 48376:1 48377:1 48378:1 48379:1 48380:1 48381:1 48382:1 48383:1 48384:1 48385:1 48386:1 48387:1 #unigram###Shuttle bigram###Shuttle#-#dienst trigram###Shuttle#-#dienst#-#naar unigram###dienst bigram###dienst#-#naar trigram###dienst#-#naar#-#Eurodisney unigram###naar bigram###naar#-#Eurodisney trigram###naar#-#Eurodisney#-#... unigram###Eurodisney bigram###Eurodisney#-#... trigram###Eurodisney#-#...#-#... unigram###... bigram###...#-#... trigram###...#-#...#-#als unigram###... bigram###...#-#als trigram###...#-#als#-#je unigram###als bigram###als#-#je trigram###als#-#je#-#veeeeeeeeeeeeeeeel unigram###je bigram###je#-#veeeeeeeeeeeeeeeel trigram###je#-#veeeeeeeeeeeeeeeel#-#geduld unigram###veeeeeeeeeeeeeeeel bigram###veeeeeeeeeeeeeeeel#-#geduld trigram###veeeeeeeeeeeeeeeel#-#geduld#-#hebt unigram###geduld bigram###geduld#-#hebt trigram###geduld#-#hebt#-#. unigram###hebt bigram###hebt#-#. unigram###. 
0.066623858588123849311379842674796 27:1 70:1 75:1 175:1 1614:1 1616:1 1933:1 1934:1 1935:1 1936:1 1937:1 1938:1 1939:1 1940:1 1941:1 #unigram###In bigram###In#-#de trigram###In#-#de#-#buurt unigram###de bigram###de#-#buurt trigram###de#-#buurt#-#weinig unigram###buurt bigram###buurt#-#weinig trigram###buurt#-#weinig#-#frivools unigram###weinig bigram###weinig#-#frivools trigram###weinig#-#frivools#-#. unigram###frivools bigram###frivools#-#. unigram###. 
