SVM-light Version V6.02
0 # kernel type
3 # kernel parameter -d 
1 # kernel parameter -g 
1 # kernel parameter -s 
1 # kernel parameter -r 
empty# kernel parameter -u 
75403 # highest feature index 
2717 # number of training documents 
2012 # number of support vectors plus 1 
-0.39570541 # threshold b, each following line is a SV (starting with alpha*y)
0.0069146061136449001385817503262388 7:2 16:1 47:1 70:1 76:1 85:4 254:1 255:1 412:1 414:1 526:1 527:1 529:1 680:1 968:1 980:1 1394:1 1529:1 1797:1 1835:1 2582:1 2913:1 2915:1 2931:1 8286:1 8440:1 8783:1 9119:1 12531:1 13966:1 13967:1 19322:1 25697:1 25698:1 25699:1 25700:1 25701:1 25702:1 25703:1 25704:1 25705:1 25706:1 25707:1 25708:1 25709:1 25710:1 25711:1 25712:1 25713:1 25714:1 25715:1 25716:1 25717:1 25718:1 25719:1 25720:1 25721:1 25722:1 25723:1 #unigram###Le bigram###Le#-#service trigram###Le#-#service#-#de unigram###service bigram###service#-#de trigram###service#-#de#-#chambre unigram###de bigram###de#-#chambre trigram###de#-#chambre#-#, unigram###chambre bigram###chambre#-#, trigram###chambre#-#,#-#ne unigram###, bigram###,#-#ne trigram###,#-#ne#-#met unigram###ne bigram###ne#-#met trigram###ne#-#met#-#pas unigram###met bigram###met#-#pas trigram###met#-#pas#-#assez unigram###pas bigram###pas#-#assez trigram###pas#-#assez#-#de unigram###assez bigram###assez#-#de trigram###assez#-#de#-#serviette unigram###de bigram###de#-#serviette trigram###de#-#serviette#-#et unigram###serviette bigram###serviette#-#et trigram###serviette#-#et#-#de unigram###et bigram###et#-#de trigram###et#-#de#-#set unigram###de bigram###de#-#set trigram###de#-#set#-#de unigram###set bigram###set#-#de trigram###set#-#de#-#bain unigram###de bigram###de#-#bain trigram###de#-#bain#-#, unigram###bain bigram###bain#-#, trigram###bain#-#,#-#il unigram###, bigram###,#-#il trigram###,#-#il#-#faut unigram###il bigram###il#-#faut trigram###il#-#faut#-#toujours unigram###faut bigram###faut#-#toujours trigram###faut#-#toujours#-#demander unigram###toujours bigram###toujours#-#demander trigram###toujours#-#demander#-#... unigram###demander bigram###demander#-#... unigram###... 
-0.41258768730673278657405944613856 5023:1 5024:1 5025:1 #unigram###Vacance bigram###Vacance#-#2012 unigram###2012 
0.023962106844175847658595657208025 7:1 21:1 70:1 85:1 124:1 250:1 2424:1 2425:1 2426:1 2427:1 2428:1 2429:1 2430:1 2431:1 2432:1 2433:1 2434:1 2435:1 2436:1 2437:1 2438:1 2439:1 2440:1 2441:1 2442:1 2443:1 2444:1 2445:1 2446:1 2447:1 2448:1 2449:1 2450:1 2451:1 2452:1 2453:1 #unigram###Petit bigram###Petit#-#bémol trigram###Petit#-#bémol#-#, unigram###bémol bigram###bémol#-#, trigram###bémol#-#,#-#quasi unigram###, bigram###,#-#quasi trigram###,#-#quasi#-#aucun unigram###quasi bigram###quasi#-#aucun trigram###quasi#-#aucun#-#membre unigram###aucun bigram###aucun#-#membre trigram###aucun#-#membre#-#de unigram###membre bigram###membre#-#de trigram###membre#-#de#-#la unigram###de bigram###de#-#la trigram###de#-#la#-#réception unigram###la bigram###la#-#réception trigram###la#-#réception#-#ne unigram###réception bigram###réception#-#ne trigram###réception#-#ne#-#parle unigram###ne bigram###ne#-#parle trigram###ne#-#parle#-#français unigram###parle bigram###parle#-#français trigram###parle#-#français#-#. unigram###français bigram###français#-#. unigram###. 
0.013790545653432233208501855870054 7:1 16:1 44:1 76:2 79:1 85:3 124:2 132:1 163:2 190:1 233:1 259:1 264:4 307:1 362:1 372:1 425:1 427:1 435:1 489:1 523:1 562:1 622:1 623:1 624:1 625:2 626:1 668:2 696:1 751:1 861:1 866:1 920:1 961:1 962:1 974:1 975:1 976:1 977:1 978:1 980:5 1181:1 1182:1 1371:1 1415:1 1507:1 1514:1 1537:2 1624:1 1686:1 1763:2 1958:1 3144:1 3200:1 3865:1 3897:1 4007:1 4165:1 4336:1 5088:1 5753:1 6282:1 6377:1 6632:1 8653:1 9133:1 9975:1 10981:2 11605:1 11825:1 11826:1 12087:1 12304:1 12664:1 12665:1 12666:1 12668:1 13082:1 13157:1 14060:1 14524:1 15056:1 15096:1 15609:1 15649:1 17304:1 17644:1 17712:1 18490:1 18491:1 18492:1 18493:1 18494:1 18495:1 18496:1 18497:1 18498:1 18499:1 18500:1 18501:1 18502:1 18503:1 18504:1 18505:1 18506:1 18507:1 18508:1 18509:1 18510:1 18511:1 18512:1 18513:1 18514:1 18515:1 18516:1 18517:1 18518:1 18519:1 18520:1 18521:1 18522:1 18523:1 18524:1 18525:1 18526:1 18527:1 18528:1 18529:1 18530:1 18531:1 18532:1 18533:1 18534:1 18535:1 18536:1 18537:1 18538:1 18539:1 18540:1 18541:1 18542:1 18543:1 18544:1 18545:1 18546:1 18547:1 18548:1 18549:1 18550:1 18551:1 18552:1 18553:1 18554:1 18555:1 18556:1 18557:1 18558:1 18559:1 18560:1 18561:1 18562:1 18563:1 18564:1 18565:1 18566:1 18567:1 18568:1 18569:2 18570:1 18571:1 18572:1 18573:1 18574:1 18575:1 18576:1 18577:1 18578:1 18579:1 18580:1 18581:1 18582:1 18583:1 18584:1 18585:1 18586:1 18587:1 18588:1 18589:1 18590:1 18591:1 18592:1 18593:1 18594:1 18595:1 18596:1 18597:1 18598:1 18599:1 18600:1 18601:1 18602:1 18603:1 18604:1 18605:1 18606:1 18607:1 18608:1 18609:1 18610:1 18611:1 18612:1 18613:1 18614:1 18615:1 18616:1 18617:1 18618:1 18619:1 18620:1 18621:1 18622:1 18623:1 #unigram###Après bigram###Après#-#avoir trigram###Après#-#avoir#-#fait unigram###avoir bigram###avoir#-#fait trigram###avoir#-#fait#-#le unigram###fait bigram###fait#-#le trigram###fait#-#le#-#camping unigram###le bigram###le#-#camping trigram###le#-#camping#-#La unigram###camping bigram###camping#-#La trigram###camping#-#La#-#pinède unigram###La bigram###La#-#pinède trigram###La#-#pinède#-#en unigram###pinède bigram###pinède#-#en trigram###pinède#-#en#-#2009 unigram###en bigram###en#-#2009 trigram###en#-#2009#-#j' unigram###2009 bigram###2009#-#j' trigram###2009#-#j'#-#ai unigram###j' bigram###j'#-#ai trigram###j'#-#ai#-#tenté unigram###ai bigram###ai#-#tenté trigram###ai#-#tenté#-#L' unigram###tenté bigram###tenté#-#L' trigram###tenté#-#L'#-#estanquet unigram###L' bigram###L'#-#estanquet trigram###L'#-#estanquet#-#en unigram###estanquet bigram###estanquet#-#en trigram###estanquet#-#en#-#2010 unigram###en bigram###en#-#2010 trigram###en#-#2010#-#faute unigram###2010 bigram###2010#-#faute trigram###2010#-#faute#-#de unigram###faute bigram###faute#-#de trigram###faute#-#de#-#place unigram###de bigram###de#-#place trigram###de#-#place#-#( unigram###place bigram###place#-#( trigram###place#-#(#-#à unigram###( bigram###(#-#à trigram###(#-#à#-#la unigram###à bigram###à#-#la trigram###à#-#la#-#pinède unigram###la bigram###la#-#pinède trigram###la#-#pinède#-#) unigram###pinède bigram###pinède#-#) trigram###pinède#-#)#-#et unigram###) bigram###)#-#et trigram###)#-#et#-#bien unigram###et bigram###et#-#bien trigram###et#-#bien#-#je unigram###bien bigram###bien#-#je trigram###bien#-#je#-#n' unigram###je bigram###je#-#n' trigram###je#-#n'#-#ai unigram###n' bigram###n'#-#ai trigram###n'#-#ai#-#pas unigram###ai bigram###ai#-#pas trigram###ai#-#pas#-#été unigram###pas bigram###pas#-#été trigram###pas#-#été#-#du unigram###été bigram###été#-#du trigram###été#-#du#-#tout unigram###du bigram###du#-#tout trigram###du#-#tout#-#dessus unigram###tout bigram###tout#-#dessus trigram###tout#-#dessus#-#... unigram###dessus bigram###dessus#-#... trigram###dessus#-#...#-#super unigram###... bigram###...#-#super trigram###...#-#super#-#mobile unigram###super bigram###super#-#mobile trigram###super#-#mobile#-#home unigram###mobile bigram###mobile#-#home trigram###mobile#-#home#-#équipé unigram###home bigram###home#-#équipé trigram###home#-#équipé#-#propre unigram###équipé bigram###équipé#-#propre trigram###équipé#-#propre#-#... unigram###propre bigram###propre#-#... trigram###propre#-#...#-#reposant unigram###... bigram###...#-#reposant trigram###...#-#reposant#-#... unigram###reposant bigram###reposant#-#... trigram###reposant#-#...#-#la unigram###... bigram###...#-#la trigram###...#-#la#-#dolce unigram###la bigram###la#-#dolce trigram###la#-#dolce#-#vita unigram###dolce bigram###dolce#-#vita trigram###dolce#-#vita#-#: unigram###vita bigram###vita#-#: trigram###vita#-#:#-#) unigram###: bigram###:#-#) trigram###:#-#)#-#piscine unigram###) bigram###)#-#piscine trigram###)#-#piscine#-#, unigram###piscine bigram###piscine#-#, trigram###piscine#-#,#-#un unigram###, bigram###,#-#un trigram###,#-#un#-#petit unigram###un bigram###un#-#petit trigram###un#-#petit#-#commerçant unigram###petit bigram###petit#-#commerçant trigram###petit#-#commerçant#-#pas unigram###commerçant bigram###commerçant#-#pas trigram###commerçant#-#pas#-#loin unigram###pas bigram###pas#-#loin trigram###pas#-#loin#-#au unigram###loin bigram###loin#-#au trigram###loin#-#au#-#cas unigram###au bigram###au#-#cas trigram###au#-#cas#-#où unigram###cas bigram###cas#-#où trigram###cas#-#où#-#plus unigram###où bigram###où#-#plus trigram###où#-#plus#-#de unigram###plus bigram###plus#-#de trigram###plus#-#de#-#lait unigram###de bigram###de#-#lait trigram###de#-#lait#-#: unigram###lait bigram###lait#-#: trigram###lait#-#:#-#) unigram###: bigram###:#-#) trigram###:#-#)#-#franchement unigram###) bigram###)#-#franchement trigram###)#-#franchement#-#rien unigram###franchement bigram###franchement#-#rien trigram###franchement#-#rien#-#à unigram###rien bigram###rien#-#à trigram###rien#-#à#-#dire unigram###à bigram###à#-#dire trigram###à#-#dire#-#... unigram###dire bigram###dire#-#... trigram###dire#-#...#-#L' unigram###... bigram###...#-#L' trigram###...#-#L'#-#accueil unigram###L' bigram###L'#-#accueil trigram###L'#-#accueil#-#était unigram###accueil bigram###accueil#-#était trigram###accueil#-#était#-#très unigram###était bigram###était#-#très trigram###était#-#très#-#sympa unigram###très bigram###très#-#sympa trigram###très#-#sympa#-#... unigram###sympa bigram###sympa#-#... trigram###sympa#-#...#-#A unigram###... bigram###...#-#A trigram###...#-#A#-#recommander unigram###A bigram###A#-#recommander trigram###A#-#recommander#-#de unigram###recommander bigram###recommander#-#de trigram###recommander#-#de#-#toute unigram###de bigram###de#-#toute trigram###de#-#toute#-#urgence unigram###toute bigram###toute#-#urgence trigram###toute#-#urgence#-#; unigram###urgence bigram###urgence#-#; trigram###urgence#-#;#-#) unigram###; bigram###;#-#) unigram###) 
-0.039174895220053448929853345816809 85:1 132:1 184:1 190:1 222:1 265:1 266:1 267:1 268:1 269:1 270:1 271:1 272:1 273:1 274:1 275:1 276:2 277:1 278:1 279:1 280:1 281:1 282:1 283:1 284:1 285:1 286:1 287:1 288:1 289:1 290:1 291:1 292:1 293:1 294:1 295:1 296:1 297:1 #unigram###Hygiène bigram###Hygiène#-#douteuse trigram###Hygiène#-#douteuse#-#au unigram###douteuse bigram###douteuse#-#au trigram###douteuse#-#au#-#bar unigram###au bigram###au#-#bar trigram###au#-#bar#-#· unigram###bar bigram###bar#-#· trigram###bar#-#·#-#sceau unigram###· bigram###·#-#sceau trigram###·#-#sceau#-#de unigram###sceau bigram###sceau#-#de trigram###sceau#-#de#-#glaçons unigram###de bigram###de#-#glaçons trigram###de#-#glaçons#-#posés unigram###glaçons bigram###glaçons#-#posés trigram###glaçons#-#posés#-#a unigram###posés bigram###posés#-#a trigram###posés#-#a#-#même unigram###a bigram###a#-#même trigram###a#-#même#-#le unigram###même bigram###même#-#le trigram###même#-#le#-#sol unigram###le bigram###le#-#sol trigram###le#-#sol#-#· unigram###sol bigram###sol#-#· unigram###· 
0.01896952977800997128254856249896 21:1 47:1 85:1 124:1 250:1 375:1 523:1 524:1 727:1 751:1 2992:1 6562:1 6564:1 7840:1 7841:1 7989:1 7991:1 8274:1 9839:1 9890:1 10870:1 11451:1 11452:1 11453:1 11454:1 11455:1 11456:1 11457:1 11458:1 11459:1 11460:1 11461:1 11462:1 #unigram###De bigram###De#-#plus trigram###De#-#plus#-#il unigram###plus bigram###plus#-#il trigram###plus#-#il#-#est unigram###il bigram###il#-#est trigram###il#-#est#-#bien unigram###est bigram###est#-#bien trigram###est#-#bien#-#placé unigram###bien bigram###bien#-#placé trigram###bien#-#placé#-#pour unigram###placé bigram###placé#-#pour trigram###placé#-#pour#-#visiter unigram###pour bigram###pour#-#visiter trigram###pour#-#visiter#-#de unigram###visiter bigram###visiter#-#de trigram###visiter#-#de#-#la unigram###de bigram###de#-#la trigram###de#-#la#-#ville unigram###la bigram###la#-#ville trigram###la#-#ville#-#. unigram###ville bigram###ville#-#. unigram###. 
0.00082033210893514368032553019105535 7:5 10:1 16:5 21:1 56:2 70:1 71:1 72:1 73:1 74:1 76:2 79:1 85:2 106:1 124:1 149:2 163:1 172:1 184:1 190:2 193:1 362:1 375:1 378:1 427:1 435:2 469:1 668:3 680:1 683:1 727:2 743:1 754:1 835:1 837:1 953:2 961:1 1031:1 1322:1 1367:1 1394:1 1475:1 1488:1 1490:1 1549:1 1664:1 1717:1 1727:1 1759:1 2173:1 2188:1 2340:1 2531:1 2609:1 2700:1 2794:1 2906:1 3090:1 3144:1 3338:1 3557:1 3788:1 3874:1 3883:1 3895:1 4303:1 4591:1 4592:1 4593:1 5145:1 5167:1 5621:1 6216:1 6306:1 6332:1 7073:1 7292:1 8423:1 8424:1 8591:1 8999:1 9184:1 10009:1 10015:1 10017:1 11699:1 11951:1 13917:1 13918:1 13920:1 15723:1 20384:1 20708:1 22875:1 23524:1 27268:1 27282:1 27293:1 29536:1 29544:1 29545:1 29546:1 29547:1 29548:1 29549:1 29550:1 29551:1 29552:1 29553:1 29554:1 29555:1 29556:1 29557:1 29558:1 29559:1 29560:1 29561:1 29562:1 29563:1 29564:1 29565:1 29566:1 29567:1 29568:1 29569:1 29570:1 29571:1 29572:1 29573:1 29574:1 29575:1 29576:1 29577:1 29578:1 29579:1 29580:1 29581:1 29582:1 29583:1 29584:1 29585:1 29586:1 29587:1 29588:1 29589:1 29590:1 29591:1 29592:1 29593:1 29594:1 29595:1 29596:1 29597:1 29598:1 29599:1 29600:1 29601:1 29602:1 29603:1 29604:1 29605:1 29606:1 29607:1 29608:1 29609:1 29610:1 29611:1 29612:1 29613:1 29614:1 29615:1 29616:1 29617:1 29618:1 29619:1 29620:1 29621:1 29622:1 29623:1 29624:1 29625:1 29626:1 29627:1 29628:1 29629:1 29630:1 29631:1 29632:1 29633:1 29634:1 29635:1 29636:1 29637:1 29638:1 29639:1 29640:1 29641:1 29642:1 29643:1 29644:1 29645:1 29646:1 29647:1 29648:1 29649:1 29650:1 29651:1 29652:1 29653:1 29654:1 29655:1 29656:1 29657:1 29658:1 29659:1 29660:1 29661:1 29662:1 29663:1 29664:1 29665:1 29666:1 29667:1 29668:1 29669:1 29670:1 29671:1 29672:1 29673:1 29674:1 29675:1 29676:1 29677:1 29678:1 29679:1 29680:1 29681:1 29682:1 29683:1 29684:1 29685:1 29686:1 29687:1 29688:1 29689:1 29690:1 #unigram###Notre bigram###Notre#-#arrivée trigram###Notre#-#arrivée#-#sous unigram###arrivée bigram###arrivée#-#sous trigram###arrivée#-#sous#-#le unigram###sous bigram###sous#-#le trigram###sous#-#le#-#soleil unigram###le bigram###le#-#soleil trigram###le#-#soleil#-#fut unigram###soleil bigram###soleil#-#fut trigram###soleil#-#fut#-#pénible unigram###fut bigram###fut#-#pénible trigram###fut#-#pénible#-#, unigram###pénible bigram###pénible#-#, trigram###pénible#-#,#-#inscriptions unigram###, bigram###,#-#inscriptions trigram###,#-#inscriptions#-#à unigram###inscriptions bigram###inscriptions#-#à trigram###inscriptions#-#à#-#revoir unigram###à bigram###à#-#revoir trigram###à#-#revoir#-#, unigram###revoir bigram###revoir#-#, trigram###revoir#-#,#-#trop unigram###, bigram###,#-#trop trigram###,#-#trop#-#long unigram###trop bigram###trop#-#long trigram###trop#-#long#-#et unigram###long bigram###long#-#et trigram###long#-#et#-#attente unigram###et bigram###et#-#attente trigram###et#-#attente#-#à unigram###attente bigram###attente#-#à trigram###attente#-#à#-#l' unigram###à bigram###à#-#l' trigram###à#-#l'#-#extérieur.Nous unigram###l' bigram###l'#-#extérieur.Nous trigram###l'#-#extérieur.Nous#-#avons unigram###extérieur.Nous bigram###extérieur.Nous#-#avons trigram###extérieur.Nous#-#avons#-#eu unigram###avons bigram###avons#-#eu trigram###avons#-#eu#-#du unigram###eu bigram###eu#-#du trigram###eu#-#du#-#beau unigram###du bigram###du#-#beau trigram###du#-#beau#-#temps unigram###beau bigram###beau#-#temps trigram###beau#-#temps#-#, unigram###temps bigram###temps#-#, trigram###temps#-#,#-#le unigram###, bigram###,#-#le trigram###,#-#le#-#personnel unigram###le bigram###le#-#personnel trigram###le#-#personnel#-#du unigram###personnel bigram###personnel#-#du trigram###personnel#-#du#-#camping unigram###du bigram###du#-#camping trigram###du#-#camping#-#nous unigram###camping bigram###camping#-#nous trigram###camping#-#nous#-#a unigram###nous bigram###nous#-#a trigram###nous#-#a#-#fait unigram###a bigram###a#-#fait trigram###a#-#fait#-#une unigram###fait bigram###fait#-#une trigram###fait#-#une#-#présentation unigram###une bigram###une#-#présentation trigram###une#-#présentation#-#superbe unigram###présentation bigram###présentation#-#superbe trigram###présentation#-#superbe#-#et unigram###superbe bigram###superbe#-#et trigram###superbe#-#et#-#un unigram###et bigram###et#-#un trigram###et#-#un#-#spectacle unigram###un bigram###un#-#spectacle trigram###un#-#spectacle#-#en unigram###spectacle bigram###spectacle#-#en trigram###spectacle#-#en#-#semaine unigram###en bigram###en#-#semaine trigram###en#-#semaine#-#payant unigram###semaine bigram###semaine#-#payant trigram###semaine#-#payant#-#, unigram###payant bigram###payant#-#, trigram###payant#-#,#-#mais unigram###, bigram###,#-#mais trigram###,#-#mais#-#de unigram###mais bigram###mais#-#de trigram###mais#-#de#-#haute unigram###de bigram###de#-#haute trigram###de#-#haute#-#qualité.Le unigram###haute bigram###haute#-#qualité.Le trigram###haute#-#qualité.Le#-#restau unigram###qualité.Le bigram###qualité.Le#-#restau trigram###qualité.Le#-#restau#-#est unigram###restau bigram###restau#-#est trigram###restau#-#est#-#cher unigram###est bigram###est#-#cher trigram###est#-#cher#-#mais unigram###cher bigram###cher#-#mais trigram###cher#-#mais#-#bon.Les unigram###mais bigram###mais#-#bon.Les trigram###mais#-#bon.Les#-#tobbogans unigram###bon.Les bigram###bon.Les#-#tobbogans trigram###bon.Les#-#tobbogans#-#ne unigram###tobbogans bigram###tobbogans#-#ne trigram###tobbogans#-#ne#-#sont unigram###ne bigram###ne#-#sont trigram###ne#-#sont#-#pas unigram###sont bigram###sont#-#pas trigram###sont#-#pas#-#assez unigram###pas bigram###pas#-#assez trigram###pas#-#assez#-#dispos unigram###assez bigram###assez#-#dispos trigram###assez#-#dispos#-#et unigram###dispos bigram###dispos#-#et trigram###dispos#-#et#-#pour unigram###et bigram###et#-#pour trigram###et#-#pour#-#les unigram###pour bigram###pour#-#les trigram###pour#-#les#-#ados unigram###les bigram###les#-#ados trigram###les#-#ados#-#pas unigram###ados bigram###ados#-#pas trigram###ados#-#pas#-#grand unigram###pas bigram###pas#-#grand trigram###pas#-#grand#-#chose.Le unigram###grand bigram###grand#-#chose.Le trigram###grand#-#chose.Le#-#terrain unigram###chose.Le bigram###chose.Le#-#terrain trigram###chose.Le#-#terrain#-#de unigram###terrain bigram###terrain#-#de trigram###terrain#-#de#-#pétanque unigram###de bigram###de#-#pétanque trigram###de#-#pétanque#-#est unigram###pétanque bigram###pétanque#-#est trigram###pétanque#-#est#-#petit unigram###est bigram###est#-#petit trigram###est#-#petit#-#et unigram###petit bigram###petit#-#et trigram###petit#-#et#-#l' unigram###et bigram###et#-#l' trigram###et#-#l'#-#organisation unigram###l' bigram###l'#-#organisation trigram###l'#-#organisation#-#des unigram###organisation bigram###organisation#-#des trigram###organisation#-#des#-#concours unigram###des bigram###des#-#concours trigram###des#-#concours#-#à unigram###concours bigram###concours#-#à trigram###concours#-#à#-#revoir.Sinon unigram###à bigram###à#-#revoir.Sinon trigram###à#-#revoir.Sinon#-#les unigram###revoir.Sinon bigram###revoir.Sinon#-#les trigram###revoir.Sinon#-#les#-#piscines unigram###les bigram###les#-#piscines trigram###les#-#piscines#-#et unigram###piscines bigram###piscines#-#et trigram###piscines#-#et#-#la unigram###et bigram###et#-#la trigram###et#-#la#-#plage unigram###la bigram###la#-#plage trigram###la#-#plage#-#étaient unigram###plage bigram###plage#-#étaient trigram###plage#-#étaient#-#tranquiles unigram###étaient bigram###étaient#-#tranquiles trigram###étaient#-#tranquiles#-#, unigram###tranquiles bigram###tranquiles#-#, trigram###tranquiles#-#,#-#c' unigram###, bigram###,#-#c' trigram###,#-#c'#-#était unigram###c' bigram###c'#-#était trigram###c'#-#était#-#début unigram###était bigram###était#-#début trigram###était#-#début#-#juillet unigram###début bigram###début#-#juillet trigram###début#-#juillet#-#. unigram###juillet bigram###juillet#-#. unigram###. 
-0.11209191937985438225489076558006 47:1 76:1 85:1 184:1 583:1 622:1 765:1 766:1 2579:1 3035:1 3036:1 3037:1 3038:1 3039:1 3040:1 3041:1 3042:1 3043:1 3044:1 3045:1 3046:1 3047:1 3048:1 3049:1 #unigram###Au bigram###Au#-#Nemours trigram###Au#-#Nemours#-#il unigram###Nemours bigram###Nemours#-#il trigram###Nemours#-#il#-#n' unigram###il bigram###il#-#n' trigram###il#-#n'#-#y unigram###n' bigram###n'#-#y trigram###n'#-#y#-#a unigram###y bigram###y#-#a trigram###y#-#a#-#pas unigram###a bigram###a#-#pas trigram###a#-#pas#-#de unigram###pas bigram###pas#-#de trigram###pas#-#de#-#retour unigram###de bigram###de#-#retour unigram###retour 
0.018654134683522394233534669183427 85:1 124:1 250:1 730:1 968:1 1205:1 1781:1 7799:1 7800:1 7801:1 7802:1 7803:1 7804:1 7805:1 7806:1 #unigram###Le bigram###Le#-#magnifique trigram###Le#-#magnifique#-#hôtel unigram###magnifique bigram###magnifique#-#hôtel trigram###magnifique#-#hôtel#-#de unigram###hôtel bigram###hôtel#-#de trigram###hôtel#-#de#-#la unigram###de bigram###de#-#la trigram###de#-#la#-#Croisette unigram###la bigram###la#-#Croisette unigram###Croisette 
-0.27619719674880777171566137440095 21:1 264:1 2840:1 #unigram###) bigram###)#-#. unigram###. 
-0.13672754809499720884957696398487 132:1 427:1 435:1 1497:1 3541:1 6216:1 16962:1 16963:1 16964:1 16965:1 16966:1 16967:1 16968:1 16969:1 16970:1 #unigram###bon bigram###bon#-#courage trigram###bon#-#courage#-#au unigram###courage bigram###courage#-#au trigram###courage#-#au#-#staff unigram###au bigram###au#-#staff trigram###au#-#staff#-#du unigram###staff bigram###staff#-#du trigram###staff#-#du#-#camping unigram###du bigram###du#-#camping unigram###camping 
0.099318738478786569578993237428222 111:1 3050:1 3051:1 3052:1 3053:1 3054:1 #unigram###Excalibur bigram###Excalibur#-#yes trigram###Excalibur#-#yes#-#! unigram###yes bigram###yes#-#! unigram###! 
0.0012443516481643113798932764879623 7:1 16:1 21:1 73:1 124:1 149:1 307:1 375:1 2405:1 2452:1 2453:1 3798:1 4911:1 4981:1 5093:1 7201:1 7202:1 8591:1 15626:1 19855:1 27997:1 29822:1 30989:1 30991:1 40974:1 40975:1 40976:1 40977:1 40978:1 40979:1 40980:1 40981:1 40982:1 40983:1 40984:1 40985:1 40986:1 40987:1 40988:1 40989:1 40990:1 40991:1 40992:1 40993:1 40994:1 40995:1 40996:1 40997:1 #unigram###Les bigram###Les#-#réceptionnistes trigram###Les#-#réceptionnistes#-#sont unigram###réceptionnistes bigram###réceptionnistes#-#sont trigram###réceptionnistes#-#sont#-#très unigram###sont bigram###sont#-#très trigram###sont#-#très#-#sympas unigram###très bigram###très#-#sympas trigram###très#-#sympas#-#, unigram###sympas bigram###sympas#-#, trigram###sympas#-#,#-#serviables unigram###, bigram###,#-#serviables trigram###,#-#serviables#-#et unigram###serviables bigram###serviables#-#et trigram###serviables#-#et#-#pour unigram###et bigram###et#-#pour trigram###et#-#pour#-#la unigram###pour bigram###pour#-#la trigram###pour#-#la#-#plupart unigram###la bigram###la#-#plupart trigram###la#-#plupart#-#anglophone unigram###plupart bigram###plupart#-#anglophone trigram###plupart#-#anglophone#-#mais unigram###anglophone bigram###anglophone#-#mais trigram###anglophone#-#mais#-#parlent unigram###mais bigram###mais#-#parlent trigram###mais#-#parlent#-#aussi unigram###parlent bigram###parlent#-#aussi trigram###parlent#-#aussi#-#français unigram###aussi bigram###aussi#-#français trigram###aussi#-#français#-#. unigram###français bigram###français#-#. unigram###. 
0.02713522486154668761360042594788 7:1 44:2 62:1 85:1 163:1 172:1 254:1 264:2 435:1 953:1 1251:1 1445:1 1877:1 1903:1 2350:1 2408:1 4010:1 5393:1 5465:1 5466:1 5828:1 7702:1 8872:1 16840:1 17488:1 24991:2 24993:2 26820:1 28902:1 28903:1 28904:1 28905:1 28906:1 28907:1 28908:1 28909:1 28910:1 28911:1 28912:1 28913:1 28914:1 28915:1 28916:1 28917:1 28918:1 28919:1 28920:1 28921:1 28922:1 28923:1 28924:1 28925:1 28926:1 28927:1 28928:1 28929:1 28930:1 28931:1 28932:1 28933:1 28934:1 28935:1 28936:1 28937:1 28938:1 28939:1 28940:1 28941:1 28942:1 28943:1 28944:1 28945:1 28946:1 28947:1 #unigram###Belles bigram###Belles#-#vues trigram###Belles#-#vues#-#sur unigram###vues bigram###vues#-#sur trigram###vues#-#sur#-#l' unigram###sur bigram###sur#-#l' trigram###sur#-#l'#-#Alhambra unigram###l' bigram###l'#-#Alhambra trigram###l'#-#Alhambra#-#des unigram###Alhambra bigram###Alhambra#-#des trigram###Alhambra#-#des#-#chambres unigram###des bigram###des#-#chambres trigram###des#-#chambres#-#du unigram###chambres bigram###chambres#-#du trigram###chambres#-#du#-#3eme unigram###du bigram###du#-#3eme trigram###du#-#3eme#-#étage unigram###3eme bigram###3eme#-#étage trigram###3eme#-#étage#-#( unigram###étage bigram###étage#-#( trigram###étage#-#(#-#ch unigram###( bigram###(#-#ch trigram###(#-#ch#-#10 unigram###ch bigram###ch#-#10 trigram###ch#-#10#-#) unigram###10 bigram###10#-#) trigram###10#-#)#-#, unigram###) bigram###)#-#, trigram###)#-#,#-#en unigram###, bigram###,#-#en trigram###,#-#en#-#revanche unigram###en bigram###en#-#revanche trigram###en#-#revanche#-#0 unigram###revanche bigram###revanche#-#0 trigram###revanche#-#0#-#vue unigram###0 bigram###0#-#vue trigram###0#-#vue#-#de unigram###vue bigram###vue#-#de trigram###vue#-#de#-#notre unigram###de bigram###de#-#notre trigram###de#-#notre#-#autre unigram###notre bigram###notre#-#autre trigram###notre#-#autre#-#chambre unigram###autre bigram###autre#-#chambre trigram###autre#-#chambre#-#( unigram###chambre bigram###chambre#-#( trigram###chambre#-#(#-#ch unigram###( bigram###(#-#ch trigram###(#-#ch#-#8 unigram###ch bigram###ch#-#8 trigram###ch#-#8#-#) unigram###8 bigram###8#-#) unigram###) 
0.011792494949936798212530852936197 7:2 21:1 56:1 62:1 169:1 375:1 543:1 754:1 953:1 1514:1 1903:1 6047:1 9033:1 19299:1 26675:1 31127:1 32426:1 45064:1 55624:1 55625:1 55627:1 55710:1 58460:1 60644:1 60645:1 60646:1 60647:1 60648:1 60649:1 60650:1 60651:1 60652:1 60653:1 60654:1 60655:1 60656:1 60657:1 60658:1 60659:1 60660:1 60661:1 60662:1 60663:1 60664:1 60665:1 60666:1 60667:1 60668:1 60669:1 60670:1 60671:1 60672:1 60673:1 60674:1 60675:1 60676:1 60677:1 60678:1 60679:1 #unigram###La bigram###La#-#presse trigram###La#-#presse#-#espagnole unigram###presse bigram###presse#-#espagnole trigram###presse#-#espagnole#-#, unigram###espagnole bigram###espagnole#-#, trigram###espagnole#-#,#-#elle unigram###, bigram###,#-#elle trigram###,#-#elle#-#, unigram###elle bigram###elle#-#, trigram###elle#-#,#-#manifeste unigram###, bigram###,#-#manifeste trigram###,#-#manifeste#-#davantage unigram###manifeste bigram###manifeste#-#davantage trigram###manifeste#-#davantage#-#d' unigram###davantage bigram###davantage#-#d' trigram###davantage#-#d'#-#intérêt unigram###d' bigram###d'#-#intérêt trigram###d'#-#intérêt#-#pour unigram###intérêt bigram###intérêt#-#pour trigram###intérêt#-#pour#-#les unigram###pour bigram###pour#-#les trigram###pour#-#les#-#propositions unigram###les bigram###les#-#propositions trigram###les#-#propositions#-#sur unigram###propositions bigram###propositions#-#sur trigram###propositions#-#sur#-#l' unigram###sur bigram###sur#-#l' trigram###sur#-#l'#-#Europe unigram###l' bigram###l'#-#Europe trigram###l'#-#Europe#-#avancées unigram###Europe bigram###Europe#-#avancées trigram###Europe#-#avancées#-#par unigram###avancées bigram###avancées#-#par trigram###avancées#-#par#-#François unigram###par bigram###par#-#François trigram###par#-#François#-#Hollande unigram###François bigram###François#-#Hollande trigram###François#-#Hollande#-#. unigram###Hollande bigram###Hollande#-#. unigram###. 
0.010268273637147327589924650226294 7:2 21:1 76:1 85:3 124:3 169:1 172:1 276:1 607:1 608:1 609:1 610:1 622:1 668:1 727:1 856:1 1224:1 1299:1 1415:1 1982:1 1983:1 1984:1 3030:1 3454:1 4930:1 4932:1 6272:1 6504:1 6506:1 6573:1 6574:1 9070:1 9828:1 12840:1 14529:1 14531:1 14574:1 14575:1 14576:1 14577:1 14578:1 14579:1 14580:1 14581:1 14583:1 14630:1 14631:1 14632:1 14633:1 14634:1 14635:1 14636:1 14637:1 14638:1 14639:1 14640:1 14641:1 14642:1 14643:1 14644:1 14645:1 14646:1 14647:1 14648:1 14649:1 14650:1 14651:1 14652:1 14653:1 14654:1 14655:1 14656:1 14657:1 14658:1 14659:1 14660:1 14661:1 14662:1 14663:1 14664:1 14665:1 14666:1 14667:1 14668:1 14669:1 14670:1 14671:1 14672:1 14673:1 14674:1 14675:1 14676:1 14677:1 14678:1 #unigram###Si bigram###Si#-#vous trigram###Si#-#vous#-#rentrez unigram###vous bigram###vous#-#rentrez trigram###vous#-#rentrez#-#tard unigram###rentrez bigram###rentrez#-#tard trigram###rentrez#-#tard#-#, unigram###tard bigram###tard#-#, trigram###tard#-#,#-#éviter unigram###, bigram###,#-#éviter trigram###,#-#éviter#-#de unigram###éviter bigram###éviter#-#de trigram###éviter#-#de#-#rentrer unigram###de bigram###de#-#rentrer trigram###de#-#rentrer#-#par unigram###rentrer bigram###rentrer#-#par trigram###rentrer#-#par#-#la unigram###par bigram###par#-#la trigram###par#-#la#-#ligne unigram###la bigram###la#-#ligne trigram###la#-#ligne#-#de unigram###ligne bigram###ligne#-#de trigram###ligne#-#de#-#métro unigram###de bigram###de#-#métro trigram###de#-#métro#-#n unigram###métro bigram###métro#-#n trigram###métro#-#n#-#° unigram###n bigram###n#-#° trigram###n#-#°#-#13 unigram###° bigram###°#-#13 trigram###°#-#13#-#ou unigram###13 bigram###13#-#ou trigram###13#-#ou#-#de unigram###ou bigram###ou#-#de trigram###ou#-#de#-#sortir unigram###de bigram###de#-#sortir trigram###de#-#sortir#-#à unigram###sortir bigram###sortir#-#à trigram###sortir#-#à#-#la unigram###à bigram###à#-#la trigram###à#-#la#-#Gare unigram###la bigram###la#-#Gare trigram###la#-#Gare#-#Saint unigram###Gare bigram###Gare#-#Saint trigram###Gare#-#Saint#-#· unigram###Saint bigram###Saint#-#· trigram###Saint#-#·#-#Lazare unigram###· bigram###·#-#Lazare trigram###·#-#Lazare#-#, unigram###Lazare bigram###Lazare#-#, trigram###Lazare#-#,#-#la unigram###, bigram###,#-#la trigram###,#-#la#-#fréquentation unigram###la bigram###la#-#fréquentation trigram###la#-#fréquentation#-#n' unigram###fréquentation bigram###fréquentation#-#n' trigram###fréquentation#-#n'#-#est unigram###n' bigram###n'#-#est trigram###n'#-#est#-#pas unigram###est bigram###est#-#pas trigram###est#-#pas#-#des unigram###pas bigram###pas#-#des trigram###pas#-#des#-#meilleures unigram###des bigram###des#-#meilleures trigram###des#-#meilleures#-#. unigram###meilleures bigram###meilleures#-#. unigram###. 
-0.025747342778037751731545768052456 7:2 16:1 21:1 56:1 85:2 124:1 163:1 378:1 543:2 668:1 1050:1 1167:1 1224:1 1835:1 2672:1 4320:1 4507:2 6306:1 13994:1 16418:1 16420:1 17776:1 20927:1 40321:1 57419:1 57903:1 58119:1 59713:1 59714:1 59715:1 59716:1 59717:1 59718:1 59719:1 59720:1 59721:1 59722:1 59723:1 59724:1 59725:1 59726:1 59727:1 59728:1 59729:1 59730:1 59731:1 59732:1 59733:1 59734:1 59735:1 59736:1 59737:1 59738:1 59739:1 59740:1 59741:1 59742:1 59743:1 59744:1 59745:1 59746:1 59747:1 59748:1 59749:1 59750:1 59751:1 59752:1 59753:1 59754:1 59755:1 59756:1 59757:1 59758:1 59759:1 59760:1 59761:1 59762:1 59763:1 59764:1 59765:1 59766:1 59767:1 59768:1 #unigram###Ils bigram###Ils#-#renvoyaient trigram###Ils#-#renvoyaient#-#à unigram###renvoyaient bigram###renvoyaient#-#à trigram###renvoyaient#-#à#-#juin unigram###à bigram###à#-#juin trigram###à#-#juin#-#2014 unigram###juin bigram###juin#-#2014 trigram###juin#-#2014#-#, unigram###2014 bigram###2014#-#, trigram###2014#-#,#-#soit unigram###, bigram###,#-#soit trigram###,#-#soit#-#après unigram###soit bigram###soit#-#après trigram###soit#-#après#-#les unigram###après bigram###après#-#les trigram###après#-#les#-#élections unigram###les bigram###les#-#élections trigram###les#-#élections#-#européennes unigram###élections bigram###élections#-#européennes trigram###élections#-#européennes#-#, unigram###européennes bigram###européennes#-#, trigram###européennes#-#,#-#la unigram###, bigram###,#-#la trigram###,#-#la#-#définition unigram###la bigram###la#-#définition trigram###la#-#définition#-#d' unigram###définition bigram###définition#-#d' trigram###définition#-#d'#-#une unigram###d' bigram###d'#-#une trigram###d'#-#une#-#" unigram###une bigram###une#-#" trigram###une#-#"#-#politique unigram###" bigram###"#-#politique trigram###"#-#politique#-#de unigram###politique bigram###politique#-#de trigram###politique#-#de#-#long unigram###de bigram###de#-#long trigram###de#-#long#-#terme unigram###long bigram###long#-#terme trigram###long#-#terme#-#" unigram###terme bigram###terme#-#" trigram###terme#-#"#-#en unigram###" bigram###"#-#en trigram###"#-#en#-#matière unigram###en bigram###en#-#matière trigram###en#-#matière#-#d' unigram###matière bigram###matière#-#d' trigram###matière#-#d'#-#asile unigram###d' bigram###d'#-#asile trigram###d'#-#asile#-#et unigram###asile bigram###asile#-#et trigram###asile#-#et#-#de unigram###et bigram###et#-#de trigram###et#-#de#-#migration unigram###de bigram###de#-#migration trigram###de#-#migration#-#. unigram###migration bigram###migration#-#. unigram###. 
-0.27529517620172849756698951750877 668:1 34290:1 34291:1 34292:1 34293:1 34294:1 #unigram###Réponse bigram###Réponse#-#à trigram###Réponse#-#à#-#Perdreau unigram###à bigram###à#-#Perdreau unigram###Perdreau 
0.0025655598493824240124983049327057 7:1 16:2 21:1 44:1 47:1 124:1 184:1 190:1 239:1 264:1 307:1 562:1 668:1 727:2 968:1 1322:1 1505:1 1507:1 1543:1 2350:1 2418:1 2582:1 3144:1 4942:1 4943:1 5569:1 7151:1 8719:1 9238:1 9325:1 11649:1 12286:1 14308:1 19835:1 20490:1 31504:1 31505:1 31506:1 31507:1 31508:1 31509:1 31510:1 31511:1 31512:1 31513:1 31514:1 31515:1 31516:1 31517:1 31518:1 31519:1 31520:1 31521:1 31522:1 31523:1 31524:1 31525:1 31526:1 31527:1 31528:1 31529:1 31530:1 31531:1 31532:1 31533:1 31534:1 31535:1 31536:1 31537:1 31538:1 31539:1 31540:1 31541:1 31542:1 31543:1 31544:1 31545:1 31546:1 31547:1 31548:1 31549:1 31550:1 31551:1 31552:1 31553:1 31554:1 31555:1 31556:1 31557:1 31558:1 31559:1 #unigram###Le bigram###Le#-#chalet trigram###Le#-#chalet#-#est unigram###chalet bigram###chalet#-#est trigram###chalet#-#est#-#coquet unigram###est bigram###est#-#coquet trigram###est#-#coquet#-#et unigram###coquet bigram###coquet#-#et trigram###coquet#-#et#-#très unigram###et bigram###et#-#très trigram###et#-#très#-#propre unigram###très bigram###très#-#propre trigram###très#-#propre#-#quand unigram###propre bigram###propre#-#quand trigram###propre#-#quand#-#on unigram###quand bigram###quand#-#on trigram###quand#-#on#-#arrive unigram###on bigram###on#-#arrive trigram###on#-#arrive#-#, unigram###arrive bigram###arrive#-#, trigram###arrive#-#,#-#il unigram###, bigram###,#-#il trigram###,#-#il#-#fait unigram###il bigram###il#-#fait trigram###il#-#fait#-#chaud unigram###fait bigram###fait#-#chaud trigram###fait#-#chaud#-#à unigram###chaud bigram###chaud#-#à trigram###chaud#-#à#-#notre unigram###à bigram###à#-#notre trigram###à#-#notre#-#arrivée unigram###notre bigram###notre#-#arrivée trigram###notre#-#arrivée#-#( unigram###arrivée bigram###arrivée#-#( trigram###arrivée#-#(#-#le unigram###( bigram###(#-#le trigram###(#-#le#-#chauffage unigram###le bigram###le#-#chauffage trigram###le#-#chauffage#-#a unigram###chauffage bigram###chauffage#-#a trigram###chauffage#-#a#-#été unigram###a bigram###a#-#été trigram###a#-#été#-#mis unigram###été bigram###été#-#mis trigram###été#-#mis#-#) unigram###mis bigram###mis#-#) trigram###mis#-#)#-#la unigram###) bigram###)#-#la trigram###)#-#la#-#litterie unigram###la bigram###la#-#litterie trigram###la#-#litterie#-#est unigram###litterie bigram###litterie#-#est trigram###litterie#-#est#-#nickel unigram###est bigram###est#-#nickel trigram###est#-#nickel#-#et unigram###nickel bigram###nickel#-#et trigram###nickel#-#et#-#visiblement unigram###et bigram###et#-#visiblement trigram###et#-#visiblement#-#neuve unigram###visiblement bigram###visiblement#-#neuve trigram###visiblement#-#neuve#-#. unigram###neuve bigram###neuve#-#. unigram###. 
0.018987604210142304539399304985636 16:1 21:1 62:1 85:1 121:1 124:1 172:1 190:1 435:1 543:1 951:1 953:2 1537:1 1664:1 1905:1 1907:1 2649:1 2650:1 3234:1 3734:1 6071:1 10193:1 13056:1 26675:1 28161:1 45215:1 55811:1 55813:1 56624:1 58277:1 60685:1 61349:1 64038:1 64039:1 64040:1 64041:1 64042:1 64043:1 64044:1 64045:1 64046:1 64047:1 64048:1 64049:1 64050:1 64051:1 64052:1 64053:1 64054:1 64055:1 64056:1 64057:1 64058:1 64059:1 64060:1 64061:1 64062:1 64063:1 64064:1 64065:1 64066:1 64067:1 64068:1 64069:1 64070:1 64071:1 64072:1 64073:1 64074:1 64075:1 64076:1 64077:1 64078:1 64079:1 #unigram###L' bigram###L'#-#Europe trigram###L'#-#Europe#-#trouve unigram###Europe bigram###Europe#-#trouve trigram###Europe#-#trouve#-#la unigram###trouve bigram###trouve#-#la trigram###trouve#-#la#-#dette unigram###la bigram###la#-#dette trigram###la#-#dette#-#publique unigram###dette bigram###dette#-#publique trigram###dette#-#publique#-#trop unigram###publique bigram###publique#-#trop trigram###publique#-#trop#-#élevée unigram###trop bigram###trop#-#élevée trigram###trop#-#élevée#-#et unigram###élevée bigram###élevée#-#et trigram###élevée#-#et#-#entretient unigram###et bigram###et#-#entretient trigram###et#-#entretient#-#des unigram###entretient bigram###entretient#-#des trigram###entretient#-#des#-#doutes unigram###des bigram###des#-#doutes trigram###des#-#doutes#-#sur unigram###doutes bigram###doutes#-#sur trigram###doutes#-#sur#-#le unigram###sur bigram###sur#-#le trigram###sur#-#le#-#rôle unigram###le bigram###le#-#rôle trigram###le#-#rôle#-#du unigram###rôle bigram###rôle#-#du trigram###rôle#-#du#-#blanchiment unigram###du bigram###du#-#blanchiment trigram###du#-#blanchiment#-#d' unigram###blanchiment bigram###blanchiment#-#d' trigram###blanchiment#-#d'#-#argent unigram###d' bigram###d'#-#argent trigram###d'#-#argent#-#dans unigram###argent bigram###argent#-#dans trigram###argent#-#dans#-#l' unigram###dans bigram###dans#-#l' trigram###dans#-#l'#-#économie unigram###l' bigram###l'#-#économie trigram###l'#-#économie#-#de unigram###économie bigram###économie#-#de trigram###économie#-#de#-#l' unigram###de bigram###de#-#l' trigram###de#-#l'#-#île unigram###l' bigram###l'#-#île trigram###l'#-#île#-#. unigram###île bigram###île#-#. unigram###. 
0.018745926184026703159579696489345 44:1 47:1 85:1 124:1 190:1 264:1 523:1 524:1 727:1 751:1 869:1 904:1 1398:1 2992:1 3117:1 3496:1 3498:1 3543:1 4410:1 6394:1 9315:1 10020:1 10123:1 10124:1 11453:1 27595:1 32755:1 40841:1 40842:1 40843:1 40844:1 40845:1 40846:1 40847:1 40848:1 40849:1 40850:1 40851:1 40852:1 40853:1 40854:1 40855:1 40856:1 40857:1 40858:1 40859:1 40860:1 40861:1 40862:1 40863:1 40864:1 #unigram###de bigram###de#-#plus trigram###de#-#plus#-#il unigram###plus bigram###plus#-#il trigram###plus#-#il#-#est unigram###il bigram###il#-#est trigram###il#-#est#-#trés unigram###est bigram###est#-#trés trigram###est#-#trés#-#bien unigram###trés bigram###trés#-#bien trigram###trés#-#bien#-#déservie unigram###bien bigram###bien#-#déservie trigram###bien#-#déservie#-#depuis unigram###déservie bigram###déservie#-#depuis trigram###déservie#-#depuis#-#la unigram###depuis bigram###depuis#-#la trigram###depuis#-#la#-#gare unigram###la bigram###la#-#gare trigram###la#-#gare#-#central unigram###gare bigram###gare#-#central trigram###gare#-#central#-#( unigram###central bigram###central#-#( trigram###central#-#(#-#accés unigram###( bigram###(#-#accés trigram###(#-#accés#-#rapide unigram###accés bigram###accés#-#rapide trigram###accés#-#rapide#-#avec unigram###rapide bigram###rapide#-#avec trigram###rapide#-#avec#-#le unigram###avec bigram###avec#-#le trigram###avec#-#le#-#tramway unigram###le bigram###le#-#tramway trigram###le#-#tramway#-#) unigram###tramway bigram###tramway#-#) unigram###) 
0.010984132229234160049724522423276 7:2 21:1 56:1 76:1 79:1 85:1 91:1 124:2 190:1 250:1 362:1 427:1 529:1 622:1 668:1 727:1 869:1 980:1 1058:1 1415:1 1940:1 1941:1 1942:1 1943:1 1944:1 1945:1 1946:1 1947:1 1948:1 1949:1 1950:1 1951:1 1952:1 1953:1 1954:1 1955:1 1956:1 1957:1 1958:1 1959:1 1960:1 1961:1 1962:1 1963:1 1964:1 1965:1 1966:1 1967:1 1968:1 1969:1 1970:1 1971:1 1972:1 1973:1 1974:1 1975:1 1976:1 1977:1 1978:1 1979:1 1980:1 1981:1 1982:1 1983:1 1984:1 1985:1 1986:1 1987:1 1988:1 1989:1 #unigram###camping bigram###camping#-#à trigram###camping#-#à#-#la unigram###à bigram###à#-#la trigram###à#-#la#-#sortie unigram###la bigram###la#-#sortie trigram###la#-#sortie#-#de unigram###sortie bigram###sortie#-#de trigram###sortie#-#de#-#la unigram###de bigram###de#-#la trigram###de#-#la#-#ciotat unigram###la bigram###la#-#ciotat trigram###la#-#ciotat#-#avec unigram###ciotat bigram###ciotat#-#avec trigram###ciotat#-#avec#-#toujours unigram###avec bigram###avec#-#toujours trigram###avec#-#toujours#-#un unigram###toujours bigram###toujours#-#un trigram###toujours#-#un#-#petit unigram###un bigram###un#-#petit trigram###un#-#petit#-#air unigram###petit bigram###petit#-#air trigram###petit#-#air#-#marin unigram###air bigram###air#-#marin trigram###air#-#marin#-#, unigram###marin bigram###marin#-#, trigram###marin#-#,#-#les unigram###, bigram###,#-#les trigram###,#-#les#-#cigales unigram###les bigram###les#-#cigales trigram###les#-#cigales#-#, unigram###cigales bigram###cigales#-#, trigram###cigales#-#,#-#... unigram###, bigram###,#-#... trigram###,#-#...#-#le unigram###... bigram###...#-#le trigram###...#-#le#-#train unigram###le bigram###le#-#train trigram###le#-#train#-#n' unigram###train bigram###train#-#n' trigram###train#-#n'#-#est unigram###n' bigram###n'#-#est trigram###n'#-#est#-#pas unigram###est bigram###est#-#pas trigram###est#-#pas#-#dérangeant unigram###pas bigram###pas#-#dérangeant trigram###pas#-#dérangeant#-#. unigram###dérangeant bigram###dérangeant#-#. unigram###. 
-0.015336621460990702142668240526291 7:2 21:1 44:1 85:1 121:1 124:1 172:1 264:1 435:1 953:2 3718:1 3942:1 4010:1 5320:1 9176:1 9733:1 12043:1 23845:1 26261:1 26290:1 56034:1 57488:1 60636:1 61114:1 63363:1 63364:1 63365:1 63366:1 63367:1 63368:1 63369:1 63370:1 63371:1 63372:1 63373:1 63374:1 63375:1 63376:1 63377:1 63378:1 63379:1 63380:1 63381:1 63382:1 63383:1 63384:1 63385:1 63386:1 63387:1 63388:1 63389:1 63390:1 63391:1 63392:1 63393:1 63394:1 63395:1 63396:1 63397:1 63398:1 63399:1 63400:1 63401:1 63402:1 63403:1 63404:1 63405:1 63406:1 63407:1 63408:1 63409:1 63410:1 63411:1 63412:1 63413:1 63414:1 #unigram###Comptant bigram###Comptant#-#déjà trigram###Comptant#-#déjà#-#des unigram###déjà bigram###déjà#-#des trigram###déjà#-#des#-#fédérations unigram###des bigram###des#-#fédérations trigram###des#-#fédérations#-#dans unigram###fédérations bigram###fédérations#-#dans trigram###fédérations#-#dans#-#quatre unigram###dans bigram###dans#-#quatre trigram###dans#-#quatre#-#États unigram###quatre bigram###quatre#-#États trigram###quatre#-#États#-#régionaux unigram###États bigram###États#-#régionaux trigram###États#-#régionaux#-#, unigram###régionaux bigram###régionaux#-#, trigram###régionaux#-#,#-#dont unigram###, bigram###,#-#dont trigram###,#-#dont#-#la unigram###dont bigram###dont#-#la trigram###dont#-#la#-#Bavière unigram###la bigram###la#-#Bavière trigram###la#-#Bavière#-#( unigram###Bavière bigram###Bavière#-#( trigram###Bavière#-#(#-#sud unigram###( bigram###(#-#sud trigram###(#-#sud#-#) unigram###sud bigram###sud#-#) trigram###sud#-#)#-#, unigram###) bigram###)#-#, trigram###)#-#,#-#l' unigram###, bigram###,#-#l' trigram###,#-#l'#-#AFD unigram###l' bigram###l'#-#AFD trigram###l'#-#AFD#-#prévoit unigram###AFD bigram###AFD#-#prévoit trigram###AFD#-#prévoit#-#de unigram###prévoit bigram###prévoit#-#de trigram###prévoit#-#de#-#couvrir unigram###de bigram###de#-#couvrir trigram###de#-#couvrir#-#prochainement unigram###couvrir bigram###couvrir#-#prochainement trigram###couvrir#-#prochainement#-#l' unigram###prochainement bigram###prochainement#-#l' trigram###prochainement#-#l'#-#ensemble unigram###l' bigram###l'#-#ensemble trigram###l'#-#ensemble#-#du unigram###ensemble bigram###ensemble#-#du trigram###ensemble#-#du#-#territoire unigram###du bigram###du#-#territoire trigram###du#-#territoire#-#. unigram###territoire bigram###territoire#-#. unigram###. 
0.10227880476912436236158754354619 16:1 2722:1 38216:1 38217:1 38218:1 38219:1 #unigram###Simple bigram###Simple#-#et trigram###Simple#-#et#-#accueillant unigram###et bigram###et#-#accueillant unigram###accueillant 
-0.013906111659519949583230236100917 21:1 44:1 121:1 122:1 124:1 254:1 264:1 378:1 388:1 869:1 1472:1 1990:1 1992:1 2840:1 2872:1 2874:1 4268:1 4270:1 5973:1 7247:1 12478:1 21315:1 25775:1 30376:1 39445:1 39446:1 39447:1 39448:1 39449:1 39450:1 39451:1 39452:1 39453:1 39454:1 39455:1 39456:1 39457:1 39458:1 39459:1 39460:1 39461:1 39462:1 39463:1 39464:1 39465:1 39466:1 39467:1 39468:1 39469:1 39470:1 39471:1 #unigram###Nous bigram###Nous#-#avions trigram###Nous#-#avions#-#réservé unigram###avions bigram###avions#-#réservé trigram###avions#-#réservé#-#une unigram###réservé bigram###réservé#-#une trigram###réservé#-#une#-#chambre unigram###une bigram###une#-#chambre trigram###une#-#chambre#-#avec unigram###chambre bigram###chambre#-#avec trigram###chambre#-#avec#-#balcon unigram###avec bigram###avec#-#balcon trigram###avec#-#balcon#-#( unigram###balcon bigram###balcon#-#( trigram###balcon#-#(#-#il' unigram###( bigram###(#-#il' trigram###(#-#il'#-#ya unigram###il' bigram###il'#-#ya trigram###il'#-#ya#-#q unigram###ya bigram###ya#-#q trigram###ya#-#q#-#ún unigram###q bigram###q#-#ún trigram###q#-#ún#-#seul unigram###ún bigram###ún#-#seul trigram###ún#-#seul#-#dans unigram###seul bigram###seul#-#dans trigram###seul#-#dans#-#la unigram###dans bigram###dans#-#la trigram###dans#-#la#-#maison unigram###la bigram###la#-#maison trigram###la#-#maison#-#) unigram###maison bigram###maison#-#) trigram###maison#-#)#-#. unigram###) bigram###)#-#. unigram###. 
0.065889328702828930950374797248514 111:1 375:1 712:1 4880:1 47532:1 47533:1 47534:1 47535:1 47536:1 47537:1 47538:1 47539:1 #unigram###Sympa bigram###Sympa#-#pour trigram###Sympa#-#pour#-#quelques unigram###pour bigram###pour#-#quelques trigram###pour#-#quelques#-#jours unigram###quelques bigram###quelques#-#jours trigram###quelques#-#jours#-#! unigram###jours bigram###jours#-#! unigram###! 
0.0043076253923413614782544911463447 16:1 41:1 190:2 307:1 427:1 1381:1 1525:1 3527:1 3528:1 3529:1 3530:1 3531:1 3532:1 3533:1 3534:1 3535:1 3536:1 3537:1 3538:1 3539:1 3540:1 3541:1 3542:1 #unigram###camping bigram###camping#-#très trigram###camping#-#très#-#sale unigram###très bigram###très#-#sale trigram###très#-#sale#-#le unigram###sale bigram###sale#-#le trigram###sale#-#le#-#directeur unigram###le bigram###le#-#directeur trigram###le#-#directeur#-#et unigram###directeur bigram###directeur#-#et trigram###directeur#-#et#-#le unigram###et bigram###et#-#le trigram###et#-#le#-#staff unigram###le bigram###le#-#staff trigram###le#-#staff#-#désagréable unigram###staff bigram###staff#-#désagréable unigram###désagréable 
0.020396065182940303212033583690754 7:1 21:1 1205:1 1529:1 4821:1 5705:1 20883:1 28235:1 32558:1 42896:1 42897:1 42898:1 42899:1 42900:1 42901:1 #unigram###Bel bigram###Bel#-#hôtel trigram###Bel#-#hôtel#-#, unigram###hôtel bigram###hôtel#-#, trigram###hôtel#-#,#-#service unigram###, bigram###,#-#service trigram###,#-#service#-#efficace unigram###service bigram###service#-#efficace trigram###service#-#efficace#-#. unigram###efficace bigram###efficace#-#. unigram###. 
0.035698553642721925216463318975002 347:1 489:1 7824:1 11590:1 11591:1 11592:1 #unigram###Très bigram###Très#-#belle trigram###Très#-#belle#-#piscine unigram###belle bigram###belle#-#piscine unigram###piscine 
0.0044199838806020077044967031554279 111:3 523:1 600:2 1294:1 3854:1 12233:1 35038:1 48601:1 48602:1 #unigram###plus bigram###plus#-#jamais trigram###plus#-#jamais#-#! unigram###jamais bigram###jamais#-#! trigram###jamais#-#!#-#! unigram###! bigram###!#-#! trigram###!#-#!#-#! unigram###! bigram###!#-#! unigram###! 
0.042667133349892000238057221395138 111:1 1485:1 22536:1 45311:1 45312:1 45313:1 45314:1 45315:1 45316:1 #unigram###Quel bigram###Quel#-#séjour trigram###Quel#-#séjour#-#incroyable unigram###séjour bigram###séjour#-#incroyable trigram###séjour#-#incroyable#-#! unigram###incroyable bigram###incroyable#-#! unigram###! 
0.036171899751951758217316523769114 21:1 44:1 184:1 190:1 239:1 264:1 1594:1 2840:1 3360:1 4920:1 4942:1 4943:1 6767:1 8793:1 15272:1 17238:1 18446:1 41106:1 41107:1 41108:1 41109:1 41110:1 41111:1 41112:1 41113:1 41114:1 41115:1 41116:1 41117:1 41118:1 41119:1 41120:1 41121:1 41122:1 41123:1 41124:1 41125:1 41126:1 41127:1 #unigram###Encore bigram###Encore#-#mieux trigram###Encore#-#mieux#-#quand unigram###mieux bigram###mieux#-#quand trigram###mieux#-#quand#-#on unigram###quand bigram###quand#-#on trigram###quand#-#on#-#a unigram###on bigram###on#-#a trigram###on#-#a#-#le unigram###a bigram###a#-#le trigram###a#-#le#-#pdj unigram###le bigram###le#-#pdj trigram###le#-#pdj#-#inclut unigram###pdj bigram###pdj#-#inclut trigram###pdj#-#inclut#-#( unigram###inclut bigram###inclut#-#( trigram###inclut#-#(#-#25 unigram###( bigram###(#-#25 trigram###(#-#25#-#euros unigram###25 bigram###25#-#euros trigram###25#-#euros#-#sinon unigram###euros bigram###euros#-#sinon trigram###euros#-#sinon#-#) unigram###sinon bigram###sinon#-#) trigram###sinon#-#)#-#. unigram###) bigram###)#-#. unigram###. 
-0.025140525936426395131606525978896 7:2 16:1 21:1 47:1 85:4 124:2 184:1 190:1 250:2 276:2 489:1 580:1 668:1 763:1 764:1 765:1 766:1 818:1 1018:1 1019:1 1417:1 1419:1 2582:1 4642:1 4643:1 4644:1 5376:1 5378:1 5766:1 6376:1 6377:1 6965:1 8100:1 8842:1 11808:1 13473:1 13474:1 18866:1 18867:1 18868:1 31862:1 42597:1 42598:1 42599:1 42600:1 42601:1 42602:1 42603:1 42604:1 42605:1 42606:1 42607:1 42608:1 42609:1 42610:1 42611:1 42612:1 42613:1 42614:1 42615:1 42616:1 42617:1 42618:1 42619:2 42620:1 42621:1 42622:1 42623:1 42624:1 42625:1 42626:1 42627:1 42628:1 42629:1 42630:1 42631:1 42632:1 42633:1 42634:1 #unigram###Autour bigram###Autour#-#de trigram###Autour#-#de#-#la unigram###de bigram###de#-#la trigram###de#-#la#-#piscine unigram###la bigram###la#-#piscine trigram###la#-#piscine#-#, unigram###piscine bigram###piscine#-#, trigram###piscine#-#,#-#il unigram###, bigram###,#-#il trigram###,#-#il#-#y unigram###il bigram###il#-#y trigram###il#-#y#-#a unigram###y bigram###y#-#a trigram###y#-#a#-#de unigram###a bigram###a#-#de trigram###a#-#de#-#nombreux unigram###de bigram###de#-#nombreux trigram###de#-#nombreux#-#arbres unigram###nombreux bigram###nombreux#-#arbres trigram###nombreux#-#arbres#-#et unigram###arbres bigram###arbres#-#et trigram###arbres#-#et#-#plantes unigram###et bigram###et#-#plantes trigram###et#-#plantes#-#, unigram###plantes bigram###plantes#-#, trigram###plantes#-#,#-#ce unigram###, bigram###,#-#ce trigram###,#-#ce#-#qui unigram###ce bigram###ce#-#qui trigram###ce#-#qui#-#permet unigram###qui bigram###qui#-#permet trigram###qui#-#permet#-#de unigram###permet bigram###permet#-#de trigram###permet#-#de#-#diminuer unigram###de bigram###de#-#diminuer trigram###de#-#diminuer#-#le unigram###diminuer bigram###diminuer#-#le trigram###diminuer#-#le#-#vis unigram###le bigram###le#-#vis trigram###le#-#vis#-#· unigram###vis bigram###vis#-#· trigram###vis#-#·#-#à unigram###· bigram###·#-#à trigram###·#-#à#-#· unigram###à bigram###à#-#· trigram###à#-#·#-#vis unigram###· bigram###·#-#vis trigram###·#-#vis#-#venant unigram###vis bigram###vis#-#venant trigram###vis#-#venant#-#de unigram###venant bigram###venant#-#de trigram###venant#-#de#-#la unigram###de bigram###de#-#la trigram###de#-#la#-#rue unigram###la bigram###la#-#rue trigram###la#-#rue#-#. unigram###rue bigram###rue#-#. unigram###. 
0.01127821519149868265130542965835 7:2 16:1 21:1 56:1 85:2 169:1 172:1 190:1 840:1 5378:1 7328:1 7560:1 9577:1 10870:1 25519:1 30429:1 57199:1 57404:1 60236:1 60475:1 60476:1 73119:1 73120:1 73121:1 73122:1 73123:1 73124:1 73125:1 73126:1 73127:1 73128:1 73129:1 73130:1 73131:1 73132:1 73133:1 73134:1 73135:1 73136:1 73137:1 73138:1 73139:1 73140:1 73141:1 73142:1 73143:1 73144:1 73145:1 73146:1 73147:1 73148:1 73149:1 73150:1 73151:1 73152:1 73153:1 73154:1 73155:1 73156:1 73157:1 73158:1 73159:1 73160:1 73161:1 73162:1 73163:1 73164:1 73165:1 73166:1 73167:1 73168:1 73169:1 73170:1 73171:1 73172:1 73173:1 73174:1 73175:1 73176:1 #unigram###De bigram###De#-#nombreux trigram###De#-#nombreux#-#parlementaires unigram###nombreux bigram###nombreux#-#parlementaires trigram###nombreux#-#parlementaires#-#, unigram###parlementaires bigram###parlementaires#-#, trigram###parlementaires#-#,#-#hantés unigram###, bigram###,#-#hantés trigram###,#-#hantés#-#par unigram###hantés bigram###hantés#-#par trigram###hantés#-#par#-#le unigram###par bigram###par#-#le trigram###par#-#le#-#précédent unigram###le bigram###le#-#précédent trigram###le#-#précédent#-#irakien unigram###précédent bigram###précédent#-#irakien trigram###précédent#-#irakien#-#et unigram###irakien bigram###irakien#-#et trigram###irakien#-#et#-#les unigram###et bigram###et#-#les trigram###et#-#les#-#prétendues unigram###les bigram###les#-#prétendues trigram###les#-#prétendues#-#armes unigram###prétendues bigram###prétendues#-#armes trigram###prétendues#-#armes#-#de unigram###armes bigram###armes#-#de trigram###armes#-#de#-#destruction unigram###de bigram###de#-#destruction trigram###de#-#destruction#-#massive unigram###destruction bigram###destruction#-#massive trigram###destruction#-#massive#-#de unigram###massive bigram###massive#-#de trigram###massive#-#de#-#Saddam unigram###de bigram###de#-#Saddam trigram###de#-#Saddam#-#Hussein unigram###Saddam bigram###Saddam#-#Hussein trigram###Saddam#-#Hussein#-#, unigram###Hussein bigram###Hussein#-#, trigram###Hussein#-#,#-#avaient unigram###, bigram###,#-#avaient trigram###,#-#avaient#-#exprimé unigram###avaient bigram###avaient#-#exprimé trigram###avaient#-#exprimé#-#leur unigram###exprimé bigram###exprimé#-#leur trigram###exprimé#-#leur#-#scepticisme unigram###leur bigram###leur#-#scepticisme trigram###leur#-#scepticisme#-#lors unigram###scepticisme bigram###scepticisme#-#lors trigram###scepticisme#-#lors#-#des unigram###lors bigram###lors#-#des trigram###lors#-#des#-#débats unigram###des bigram###des#-#débats trigram###des#-#débats#-#. unigram###débats bigram###débats#-#. unigram###. 
0.003569120081756804729877785575809 7:2 21:1 121:1 378:1 727:1 818:1 953:1 1018:1 1261:1 1801:1 4507:3 13056:1 20339:1 22754:1 56050:1 56051:1 56131:1 56132:1 56134:1 56908:1 57145:1 57252:1 57900:1 58101:1 58102:1 58103:1 58104:1 58105:1 58106:1 58107:1 58108:1 58109:1 58110:1 58111:1 58112:1 58113:1 58114:1 58115:1 58116:1 58117:1 58118:1 58119:1 58120:1 58121:1 58122:1 58123:1 58124:1 58125:1 58126:1 58127:1 58128:1 58129:1 58130:1 58131:1 58132:1 58133:1 58134:1 58135:1 58136:1 58137:1 #unigram###Selon bigram###Selon#-#ce trigram###Selon#-#ce#-#dernier unigram###ce bigram###ce#-#dernier trigram###ce#-#dernier#-#, unigram###dernier bigram###dernier#-#, trigram###dernier#-#,#-#interrogé unigram###, bigram###,#-#interrogé trigram###,#-#interrogé#-#lundi unigram###interrogé bigram###interrogé#-#lundi trigram###interrogé#-#lundi#-#, unigram###lundi bigram###lundi#-#, trigram###lundi#-#,#-#Margaret unigram###, bigram###,#-#Margaret trigram###,#-#Margaret#-#Thatcher unigram###Margaret bigram###Margaret#-#Thatcher trigram###Margaret#-#Thatcher#-#est unigram###Thatcher bigram###Thatcher#-#est trigram###Thatcher#-#est#-#une unigram###est bigram###est#-#une trigram###est#-#une#-#" unigram###une bigram###une#-#" trigram###une#-#"#-#grande unigram###" bigram###"#-#grande trigram###"#-#grande#-#" unigram###grande bigram###grande#-#" trigram###grande#-#"#-#personnalité unigram###" bigram###"#-#personnalité trigram###"#-#personnalité#-#qui unigram###personnalité bigram###personnalité#-#qui trigram###personnalité#-#qui#-#restera unigram###qui bigram###qui#-#restera trigram###qui#-#restera#-#dans unigram###restera bigram###restera#-#dans trigram###restera#-#dans#-#l' unigram###dans bigram###dans#-#l' trigram###dans#-#l'#-#Histoire unigram###l' bigram###l'#-#Histoire trigram###l'#-#Histoire#-#" unigram###Histoire bigram###Histoire#-#" trigram###Histoire#-#"#-#. unigram###" bigram###"#-#. unigram###. 
0.025344220044916449668948033036031 4:1 16743:1 29100:1 #unigram###Sejour bigram###Sejour#-#agréable unigram###agréable 
0.0054507473757312938783536893083692 16:1 21:1 85:1 869:1 2002:1 4185:1 4336:1 8189:1 11849:1 11850:1 11851:1 11852:1 11853:1 11854:1 11855:1 11856:1 11857:1 11858:1 11859:1 11860:1 11861:1 11862:1 11863:1 11864:1 11865:1 11866:1 11867:1 #unigram###Mobile bigram###Mobile#-#home trigram###Mobile#-#home#-#avec unigram###home bigram###home#-#avec trigram###home#-#avec#-#terrasse unigram###avec bigram###avec#-#terrasse trigram###avec#-#terrasse#-#et unigram###terrasse bigram###terrasse#-#et trigram###terrasse#-#et#-#clim unigram###et bigram###et#-#clim trigram###et#-#clim#-#de unigram###clim bigram###clim#-#de trigram###clim#-#de#-#taille unigram###de bigram###de#-#taille trigram###de#-#taille#-#correct unigram###taille bigram###taille#-#correct trigram###taille#-#correct#-#. unigram###correct bigram###correct#-#. unigram###. 
0.027402190933874963352234743751978 7:1 21:1 56:1 124:1 727:1 1224:1 4320:1 22774:1 23196:1 56341:1 56343:1 59727:1 63598:1 63599:1 63600:1 63601:1 63602:1 63603:1 63604:1 63605:1 63606:1 63607:1 63608:1 63609:1 63610:1 63611:1 63612:1 63613:1 63614:1 63615:1 #unigram###D' bigram###D'#-#après trigram###D'#-#après#-#les unigram###après bigram###après#-#les trigram###après#-#les#-#derniers unigram###les bigram###les#-#derniers trigram###les#-#derniers#-#sondages unigram###derniers bigram###derniers#-#sondages trigram###derniers#-#sondages#-#, unigram###sondages bigram###sondages#-#, trigram###sondages#-#,#-#la unigram###, bigram###,#-#la trigram###,#-#la#-#CDU unigram###la bigram###la#-#CDU trigram###la#-#CDU#-#est unigram###CDU bigram###CDU#-#est trigram###CDU#-#est#-#favorite unigram###est bigram###est#-#favorite trigram###est#-#favorite#-#. unigram###favorite bigram###favorite#-#. unigram###. 
0.002471704530598888092246534498031 7:1 16:1 124:1 190:2 1525:1 1763:1 3788:1 6736:1 8431:1 9457:1 10986:1 10987:1 10988:1 10989:1 10990:1 10991:1 10992:1 10993:1 10994:1 10995:1 10996:1 10997:1 10998:1 10999:1 11000:1 11001:1 11002:1 11003:1 11004:1 #unigram###Y bigram###Y#-#séjourner trigram###Y#-#séjourner#-#: unigram###séjourner bigram###séjourner#-#: trigram###séjourner#-#:#-#la unigram###: bigram###:#-#la trigram###:#-#la#-#plénitude unigram###la bigram###la#-#plénitude trigram###la#-#plénitude#-#, unigram###plénitude bigram###plénitude#-#, trigram###plénitude#-#,#-#le unigram###, bigram###,#-#le trigram###,#-#le#-#calme unigram###le bigram###le#-#calme trigram###le#-#calme#-#et unigram###calme bigram###calme#-#et trigram###calme#-#et#-#le unigram###et bigram###et#-#le trigram###et#-#le#-#repos unigram###le bigram###le#-#repos unigram###repos 
0.39108638939604778439473875550902 190:1 304:1 5607:1 #unigram###le bigram###le#-#restaurant unigram###restaurant 
-0.040330615012993661916418375312787 16:1 85:1 375:1 378:1 534:1 668:1 953:1 1367:1 10477:1 13047:1 15020:1 15535:1 50621:1 50622:1 50623:1 50624:1 50625:1 50626:1 50627:1 50628:1 50629:1 50630:1 50631:1 50632:1 50633:1 50634:1 50635:1 50636:1 50637:1 50638:1 50639:1 50640:1 50641:1 50642:1 50643:1 50644:1 50645:1 50646:1 50647:1 50648:1 50649:1 50650:1 #unigram###Photos bigram###Photos#-#à trigram###Photos#-#à#-#l' unigram###à bigram###à#-#l' trigram###à#-#l'#-#appui unigram###l' bigram###l'#-#appui trigram###l'#-#appui#-#me unigram###appui bigram###appui#-#me trigram###appui#-#me#-#serviront unigram###me bigram###me#-#serviront trigram###me#-#serviront#-#de unigram###serviront bigram###serviront#-#de trigram###serviront#-#de#-#preuves unigram###de bigram###de#-#preuves trigram###de#-#preuves#-#pour unigram###preuves bigram###preuves#-#pour trigram###preuves#-#pour#-#introduire unigram###pour bigram###pour#-#introduire trigram###pour#-#introduire#-#une unigram###introduire bigram###introduire#-#une trigram###introduire#-#une#-#réclamation unigram###une bigram###une#-#réclamation trigram###une#-#réclamation#-#et unigram###réclamation bigram###réclamation#-#et trigram###réclamation#-#et#-#dédommagement unigram###et bigram###et#-#dédommagement trigram###et#-#dédommagement#-#!!! unigram###dédommagement bigram###dédommagement#-#!!! unigram###!!! 
0.0097236840953721769692519316663493 7:1 21:1 85:1 115:2 116:1 118:1 190:1 2504:1 2506:1 3030:1 6338:1 6813:1 8503:1 12192:1 13345:1 27724:1 42879:1 47245:1 47246:1 47247:1 47248:1 47249:1 47250:1 47251:1 47252:1 47253:1 47254:1 47255:1 47256:1 47257:1 47258:1 47259:1 47260:1 47261:1 47262:1 47263:1 47264:1 47265:1 47266:1 47267:1 47268:1 47269:1 47270:1 47271:1 47272:1 47273:1 47274:1 47275:1 47276:1 47277:1 #unigram###Manque bigram###Manque#-#d trigram###Manque#-#d#-#hygiene unigram###d bigram###d#-#hygiene trigram###d#-#hygiene#-#toilettes unigram###hygiene bigram###hygiene#-#toilettes trigram###hygiene#-#toilettes#-#sales unigram###toilettes bigram###toilettes#-#sales trigram###toilettes#-#sales#-#le unigram###sales bigram###sales#-#le trigram###sales#-#le#-#matin unigram###le bigram###le#-#matin trigram###le#-#matin#-#, unigram###matin bigram###matin#-#, trigram###matin#-#,#-#climatisations unigram###, bigram###,#-#climatisations trigram###,#-#climatisations#-#défectueuses unigram###climatisations bigram###climatisations#-#défectueuses trigram###climatisations#-#défectueuses#-#fuite unigram###défectueuses bigram###défectueuses#-#fuite trigram###défectueuses#-#fuite#-#d unigram###fuite bigram###fuite#-#d trigram###fuite#-#d#-#eau unigram###d bigram###d#-#eau trigram###d#-#eau#-#ou unigram###eau bigram###eau#-#ou trigram###eau#-#ou#-#odeur unigram###ou bigram###ou#-#odeur trigram###ou#-#odeur#-#de unigram###odeur bigram###odeur#-#de trigram###odeur#-#de#-#moisissure unigram###de bigram###de#-#moisissure trigram###de#-#moisissure#-#. unigram###moisissure bigram###moisissure#-#. unigram###. 
0.0097814855770319165256809768038693 7:5 44:2 79:1 85:2 124:1 149:1 163:1 239:1 250:1 264:2 307:1 384:1 420:1 427:1 477:1 668:2 751:2 810:1 1213:1 1274:1 1275:1 1276:1 1940:1 2127:1 2222:1 2457:1 2717:1 2719:1 2788:1 2790:1 4010:1 4117:1 4118:1 4120:1 5514:1 5865:1 5867:1 5947:1 6168:1 6193:1 6247:1 6695:1 7991:1 9839:1 9840:1 9890:1 13314:1 14088:1 14152:1 25032:1 26201:1 31332:1 31333:1 31587:1 31588:1 31589:1 31590:1 31591:1 31592:1 31593:1 31594:1 31595:1 31596:1 31597:1 31598:1 31599:1 31600:1 31601:1 31602:1 31603:1 31604:1 31605:1 31606:1 31607:1 31608:1 31609:1 31610:1 31611:1 31612:1 31613:1 31614:1 31615:1 31616:1 31617:1 31618:1 31619:1 31620:1 31621:1 31622:1 31623:1 31624:1 31625:1 31626:1 31627:1 31628:1 31629:1 31630:1 31631:1 31632:1 31633:1 31634:1 31635:1 31636:1 31637:1 31638:1 31639:1 31640:1 31641:1 31642:1 31643:1 31644:1 31645:1 31646:1 31647:1 31648:1 31649:1 31650:1 #unigram###camping bigram###camping#-#à trigram###camping#-#à#-#proximité unigram###à bigram###à#-#proximité trigram###à#-#proximité#-#de unigram###proximité bigram###proximité#-#de trigram###proximité#-#de#-#la unigram###de bigram###de#-#la trigram###de#-#la#-#mer unigram###la bigram###la#-#mer trigram###la#-#mer#-#mais unigram###mer bigram###mer#-#mais trigram###mer#-#mais#-#accès unigram###mais bigram###mais#-#accès trigram###mais#-#accès#-#uniquement unigram###accès bigram###accès#-#uniquement trigram###accès#-#uniquement#-#en unigram###uniquement bigram###uniquement#-#en trigram###uniquement#-#en#-#voiture unigram###en bigram###en#-#voiture trigram###en#-#voiture#-#( unigram###voiture bigram###voiture#-#( trigram###voiture#-#(#-#route unigram###( bigram###(#-#route trigram###(#-#route#-#dangereuse unigram###route bigram###route#-#dangereuse trigram###route#-#dangereuse#-#à unigram###dangereuse bigram###dangereuse#-#à trigram###dangereuse#-#à#-#traverser unigram###à bigram###à#-#traverser trigram###à#-#traverser#-#) unigram###traverser bigram###traverser#-#) trigram###traverser#-#)#-#, unigram###) bigram###)#-#, trigram###)#-#,#-#très unigram###, bigram###,#-#très trigram###,#-#très#-#bien unigram###très bigram###très#-#bien trigram###très#-#bien#-#si unigram###bien bigram###bien#-#si trigram###bien#-#si#-#on unigram###si bigram###si#-#on trigram###si#-#on#-#veut unigram###on bigram###on#-#veut trigram###on#-#veut#-#visiter unigram###veut bigram###veut#-#visiter trigram###veut#-#visiter#-#chaque unigram###visiter bigram###visiter#-#chaque trigram###visiter#-#chaque#-#jour unigram###chaque bigram###chaque#-#jour trigram###chaque#-#jour#-#un unigram###jour bigram###jour#-#un trigram###jour#-#un#-#endroit unigram###un bigram###un#-#endroit trigram###un#-#endroit#-#différent unigram###endroit bigram###endroit#-#différent trigram###endroit#-#différent#-#, unigram###différent bigram###différent#-#, trigram###différent#-#,#-#bien unigram###, bigram###,#-#bien trigram###,#-#bien#-#placé unigram###bien bigram###bien#-#placé trigram###bien#-#placé#-#( unigram###placé bigram###placé#-#( trigram###placé#-#(#-#près unigram###( bigram###(#-#près trigram###(#-#près#-#de unigram###près bigram###près#-#de trigram###près#-#de#-#cassis unigram###de bigram###de#-#cassis trigram###de#-#cassis#-#, unigram###cassis bigram###cassis#-#, trigram###cassis#-#,#-#Bandol unigram###, bigram###,#-#Bandol trigram###,#-#Bandol#-#, unigram###Bandol bigram###Bandol#-#, trigram###Bandol#-#,#-#Marseille unigram###, bigram###,#-#Marseille trigram###,#-#Marseille#-#, unigram###Marseille bigram###Marseille#-#, trigram###Marseille#-#,#-#etc. unigram###, bigram###,#-#etc. trigram###,#-#etc.#-#) unigram###etc. bigram###etc.#-#) unigram###) 
-0.02742790950486964987597993115287 16:1 47:1 85:1 239:2 810:1 1445:1 2222:1 2584:1 2585:1 2586:1 2587:1 5865:1 5867:1 8783:1 9755:1 16696:1 16698:1 24738:1 31612:1 55523:1 55524:1 55525:1 55526:1 55527:1 55528:1 55529:1 55530:1 55531:1 55532:1 55533:1 55534:1 55535:1 55536:1 55537:1 55538:1 55539:1 55540:1 55541:1 #unigram###si bigram###si#-#on trigram###si#-#on#-#veut unigram###on bigram###on#-#veut trigram###on#-#veut#-#autre unigram###veut bigram###veut#-#autre trigram###veut#-#autre#-#chose unigram###autre bigram###autre#-#chose trigram###autre#-#chose#-#il unigram###chose bigram###chose#-#il trigram###chose#-#il#-#suffit unigram###il bigram###il#-#suffit trigram###il#-#suffit#-#de unigram###suffit bigram###suffit#-#de trigram###suffit#-#de#-#demander unigram###de bigram###de#-#demander trigram###de#-#demander#-#et unigram###demander bigram###demander#-#et trigram###demander#-#et#-#on unigram###et bigram###et#-#on trigram###et#-#on#-#réalise unigram###on bigram###on#-#réalise trigram###on#-#réalise#-#vos unigram###réalise bigram###réalise#-#vos trigram###réalise#-#vos#-#souhaits unigram###vos bigram###vos#-#souhaits unigram###souhaits 
-0.06502175495698499230190492426118 21:1 49392:1 50691:1 73352:1 73353:1 73354:1 73355:1 73356:1 73357:1 73358:1 73359:1 73360:1 73361:1 73362:1 73363:1 73364:1 73365:1 73366:1 73367:1 73368:1 73369:1 #unigram###FRANÇOIS bigram###FRANÇOIS#-#HOLLANDE trigram###FRANÇOIS#-#HOLLANDE#-#ÉTAIT unigram###HOLLANDE bigram###HOLLANDE#-#ÉTAIT trigram###HOLLANDE#-#ÉTAIT#-#CE unigram###ÉTAIT bigram###ÉTAIT#-#CE trigram###ÉTAIT#-#CE#-#MERCREDI unigram###CE bigram###CE#-#MERCREDI trigram###CE#-#MERCREDI#-#À unigram###MERCREDI bigram###MERCREDI#-#À trigram###MERCREDI#-#À#-#VARSOVIE unigram###À bigram###À#-#VARSOVIE trigram###À#-#VARSOVIE#-#. unigram###VARSOVIE bigram###VARSOVIE#-#. unigram###. 
-0.02307801637225338070580349381089 16:1 21:1 85:2 121:1 190:1 727:1 765:1 1514:1 1525:1 3549:1 4416:1 5128:1 5130:1 7095:1 55561:1 56162:1 56164:1 56999:1 57069:1 57078:1 59321:1 59322:1 59323:1 59324:1 59325:1 59326:1 59327:1 59328:1 59329:1 59330:1 59331:1 59332:1 59333:1 59334:1 59335:1 59336:1 59337:1 59338:1 59339:1 59340:1 59341:1 59342:1 59343:1 59344:1 59345:1 59346:1 59347:1 59348:1 59349:1 59350:1 59351:1 59352:1 59353:1 59354:1 59355:1 59356:1 59357:1 59358:1 59359:1 59360:1 59361:1 59362:1 #unigram###La bigram###La#-#Grèce trigram###La#-#Grèce#-#est unigram###Grèce bigram###Grèce#-#est trigram###Grèce#-#est#-#entrée unigram###est bigram###est#-#entrée trigram###est#-#entrée#-#dans unigram###entrée bigram###entrée#-#dans trigram###entrée#-#dans#-#sa unigram###dans bigram###dans#-#sa trigram###dans#-#sa#-#sixième unigram###sa bigram###sa#-#sixième trigram###sa#-#sixième#-#année unigram###sixième bigram###sixième#-#année trigram###sixième#-#année#-#consécutive unigram###année bigram###année#-#consécutive trigram###année#-#consécutive#-#de unigram###consécutive bigram###consécutive#-#de trigram###consécutive#-#de#-#récession unigram###de bigram###de#-#récession trigram###de#-#récession#-#et unigram###récession bigram###récession#-#et trigram###récession#-#et#-#le unigram###et bigram###et#-#le trigram###et#-#le#-#taux unigram###le bigram###le#-#taux trigram###le#-#taux#-#de unigram###taux bigram###taux#-#de trigram###taux#-#de#-#chômage unigram###de bigram###de#-#chômage trigram###de#-#chômage#-#y unigram###chômage bigram###chômage#-#y trigram###chômage#-#y#-#atteint unigram###y bigram###y#-#atteint trigram###y#-#atteint#-#désormais unigram###atteint bigram###atteint#-#désormais trigram###atteint#-#désormais#-#27 unigram###désormais bigram###désormais#-#27 trigram###désormais#-#27#-#% unigram###27 bigram###27#-#% trigram###27#-#%#-#. unigram###% bigram###%#-#. unigram###. 
0.005962477236354058601763838964871 21:1 70:1 76:1 163:1 201:1 378:1 944:1 1050:1 3595:1 11175:1 11414:1 11608:1 15500:1 55606:1 56066:1 68826:1 68827:1 68828:1 71912:1 71913:1 71914:1 71915:1 71916:1 71917:1 71918:1 71919:1 71920:1 71921:1 71922:1 71923:1 71924:1 71925:1 71926:1 71927:1 71928:1 71929:1 71930:1 71931:1 71932:1 71933:1 71934:1 71935:1 71936:1 71937:1 71938:1 #unigram###Ils bigram###Ils#-#ne trigram###Ils#-#ne#-#veulent unigram###ne bigram###ne#-#veulent trigram###ne#-#veulent#-#absolument unigram###veulent bigram###veulent#-#absolument trigram###veulent#-#absolument#-#pas unigram###absolument bigram###absolument#-#pas trigram###absolument#-#pas#-#qu' unigram###pas bigram###pas#-#qu' trigram###pas#-#qu'#-#une unigram###qu' bigram###qu'#-#une trigram###qu'#-#une#-#supervision unigram###une bigram###une#-#supervision trigram###une#-#supervision#-#supra unigram###supervision bigram###supervision#-#supra trigram###supervision#-#supra#-#nationale unigram###supra bigram###supra#-#nationale trigram###supra#-#nationale#-#se unigram###nationale bigram###nationale#-#se trigram###nationale#-#se#-#mette unigram###se bigram###se#-#mette trigram###se#-#mette#-#en unigram###mette bigram###mette#-#en trigram###mette#-#en#-#oeuvre unigram###en bigram###en#-#oeuvre trigram###en#-#oeuvre#-#» unigram###oeuvre bigram###oeuvre#-#» trigram###oeuvre#-#»#-#. unigram###» bigram###»#-#. unigram###. 
0.015509708164953782058570475044235 7:2 21:1 62:2 85:2 124:1 190:2 276:1 435:1 668:1 727:1 2892:1 3234:1 4320:1 5285:1 5486:1 6027:1 6912:1 8136:1 9886:3 11627:1 15896:1 16166:1 18435:1 20927:1 21208:1 21864:1 23145:1 27679:1 55576:1 55577:1 55595:1 55606:1 55902:1 56082:1 56107:1 56661:1 56662:1 56664:1 56726:1 56727:1 56728:1 56729:1 56730:1 56732:1 56963:1 58740:1 58741:1 58827:1 58828:1 60747:1 61037:1 61038:1 61039:1 61040:1 61041:1 61042:1 61043:1 61044:1 61045:1 61046:1 61047:1 61048:1 61049:1 61050:1 61051:1 61052:1 61053:1 61054:1 61055:1 61056:1 61057:1 61058:1 61059:1 61060:1 61061:1 61062:1 61063:1 61064:1 61065:1 61066:1 61067:1 61068:1 61069:1 61070:1 61071:1 61072:1 61073:1 61074:1 61075:1 61076:1 61077:1 61078:1 61079:1 61080:1 61081:1 61082:1 61083:1 61084:1 61085:1 61086:1 61087:1 61088:1 61089:1 61090:1 61091:1 61092:1 61093:1 61094:1 61095:1 61096:1 61097:1 61098:1 61099:1 61100:1 61101:1 61102:1 61103:1 61104:1 61105:1 61106:1 61107:1 61108:1 61109:1 #unigram###« bigram###«#-#Cela trigram###«#-#Cela#-#valait unigram###Cela bigram###Cela#-#valait trigram###Cela#-#valait#-#la unigram###valait bigram###valait#-#la trigram###valait#-#la#-#peine unigram###la bigram###la#-#peine trigram###la#-#peine#-#d’ unigram###peine bigram###peine#-#d’ trigram###peine#-#d’#-#attendre unigram###d’ bigram###d’#-#attendre trigram###d’#-#attendre#-#» unigram###attendre bigram###attendre#-#» trigram###attendre#-#»#-#, unigram###» bigram###»#-#, trigram###»#-#,#-#s’ unigram###, bigram###,#-#s’ trigram###,#-#s’#-#est unigram###s’ bigram###s’#-#est trigram###s’#-#est#-#félicité unigram###est bigram###est#-#félicité trigram###est#-#félicité#-#sur unigram###félicité bigram###félicité#-#sur trigram###félicité#-#sur#-#son unigram###sur bigram###sur#-#son trigram###sur#-#son#-#compte unigram###son bigram###son#-#compte trigram###son#-#compte#-#Twitter unigram###compte bigram###compte#-#Twitter trigram###compte#-#Twitter#-#le unigram###Twitter bigram###Twitter#-#le trigram###Twitter#-#le#-#président unigram###le bigram###le#-#président trigram###le#-#président#-#du unigram###président bigram###président#-#du trigram###président#-#du#-#Conseil unigram###du bigram###du#-#Conseil trigram###du#-#Conseil#-#européen unigram###Conseil bigram###Conseil#-#européen trigram###Conseil#-#européen#-#Herman unigram###européen bigram###européen#-#Herman trigram###européen#-#Herman#-#Van unigram###Herman bigram###Herman#-#Van trigram###Herman#-#Van#-#Rompuy unigram###Van bigram###Van#-#Rompuy trigram###Van#-#Rompuy#-#, unigram###Rompuy bigram###Rompuy#-#, trigram###Rompuy#-#,#-#après unigram###, bigram###,#-#après trigram###,#-#après#-#l’ unigram###après bigram###après#-#l’ trigram###après#-#l’#-#accord unigram###l’ bigram###l’#-#accord trigram###l’#-#accord#-#à unigram###accord bigram###accord#-#à trigram###accord#-#à#-#l’ unigram###à bigram###à#-#l’ trigram###à#-#l’#-#arraché unigram###l’ bigram###l’#-#arraché trigram###l’#-#arraché#-#sur unigram###arraché bigram###arraché#-#sur trigram###arraché#-#sur#-#le unigram###sur bigram###sur#-#le trigram###sur#-#le#-#projet unigram###le bigram###le#-#projet trigram###le#-#projet#-#de unigram###projet bigram###projet#-#de trigram###projet#-#de#-#budget unigram###de bigram###de#-#budget trigram###de#-#budget#-#2014 unigram###budget bigram###budget#-#2014 trigram###budget#-#2014#-#· unigram###2014 bigram###2014#-#· trigram###2014#-#·#-#2020 unigram###· bigram###·#-#2020 trigram###·#-#2020#-#de unigram###2020 bigram###2020#-#de trigram###2020#-#de#-#l’ unigram###de bigram###de#-#l’ trigram###de#-#l’#-#Union unigram###l’ bigram###l’#-#Union trigram###l’#-#Union#-#européenne unigram###Union bigram###Union#-#européenne trigram###Union#-#européenne#-#. unigram###européenne bigram###européenne#-#. unigram###. 
0.28514703627728521517781246075174 5753:1 32239:1 32240:1 #unigram###A bigram###A#-#FUIRE unigram###FUIRE 
-0.040711901955834538247014364742427 16:1 21:1 169:1 444:1 445:1 446:1 447:1 448:1 449:1 450:1 451:1 452:1 453:1 454:1 455:1 456:1 457:1 458:1 459:1 460:1 461:1 462:1 463:1 464:1 465:1 466:1 467:1 468:1 469:1 470:1 #unigram###9 bigram###9#-#€ trigram###9#-#€#-#/ unigram###€ bigram###€#-#/ trigram###€#-#/#-#personne unigram###/ bigram###/#-#personne trigram###/#-#personne#-#et unigram###personne bigram###personne#-#et trigram###personne#-#et#-#cela unigram###et bigram###et#-#cela trigram###et#-#cela#-#2 unigram###cela bigram###cela#-#2 trigram###cela#-#2#-#fois unigram###2 bigram###2#-#fois trigram###2#-#fois#-#par unigram###fois bigram###fois#-#par trigram###fois#-#par#-#semaine unigram###par bigram###par#-#semaine trigram###par#-#semaine#-#. unigram###semaine bigram###semaine#-#. unigram###. 
-0.023465445522374343140237229476952 16:1 21:1 132:1 668:1 1584:1 2892:1 27577:1 55576:1 56215:1 56217:1 56223:1 56661:1 59898:1 60949:1 61110:1 69903:1 69904:1 74428:1 74429:1 74430:1 74431:1 74432:1 74433:1 74434:1 74435:1 74436:1 74437:1 74438:1 74439:1 74440:1 74441:1 74442:1 74443:1 74444:1 74445:1 74446:1 74447:1 74448:1 74449:1 74450:1 74451:1 74452:1 74453:1 74454:1 74455:1 #unigram###L’ bigram###L’#-#Union trigram###L’#-#Union#-#doit unigram###Union bigram###Union#-#doit trigram###Union#-#doit#-#boucler unigram###doit bigram###doit#-#boucler trigram###doit#-#boucler#-#son unigram###boucler bigram###boucler#-#son trigram###boucler#-#son#-#projet unigram###son bigram###son#-#projet trigram###son#-#projet#-#au unigram###projet bigram###projet#-#au trigram###projet#-#au#-#sommet unigram###au bigram###au#-#sommet trigram###au#-#sommet#-#réuni unigram###sommet bigram###sommet#-#réuni trigram###sommet#-#réuni#-#aujourd’ unigram###réuni bigram###réuni#-#aujourd’ trigram###réuni#-#aujourd’#-#hui unigram###aujourd’ bigram###aujourd’#-#hui trigram###aujourd’#-#hui#-#et unigram###hui bigram###hui#-#et trigram###hui#-#et#-#demain unigram###et bigram###et#-#demain trigram###et#-#demain#-#à unigram###demain bigram###demain#-#à trigram###demain#-#à#-#Bruxelles unigram###à bigram###à#-#Bruxelles trigram###à#-#Bruxelles#-#. unigram###Bruxelles bigram###Bruxelles#-#. unigram###. 
0.19142220786940533638897932178224 111:1 9980:1 15389:1 #unigram###Inoubliable bigram###Inoubliable#-#! unigram###! 
0.044427845234368663895896389703921 748:1 1497:1 10870:1 23466:1 26009:1 44725:1 44726:1 44727:1 44728:1 #unigram###De bigram###De#-#tres trigram###De#-#tres#-#bon unigram###tres bigram###tres#-#bon trigram###tres#-#bon#-#moments unigram###bon bigram###bon#-#moments unigram###moments 
0.012867099901865285474511502172845 7:1 21:1 56:2 62:1 63:1 172:1 184:1 435:1 543:1 818:1 944:1 1015:1 3144:1 3718:1 5280:1 6047:1 15225:1 24032:1 25049:1 37871:1 55542:1 55620:1 55621:1 56375:1 56376:1 57400:1 57529:1 57531:1 62959:1 65103:1 65104:1 65105:1 65106:1 65107:1 65108:1 65109:1 65110:1 65111:1 65112:1 65113:1 65114:1 65115:1 65116:1 65117:1 65118:1 65119:1 65120:1 65121:1 65122:1 65123:1 65124:1 65125:1 65126:1 65127:1 65128:1 65129:1 65130:1 65131:1 65132:1 65133:1 65134:1 65135:1 65136:1 65137:1 65138:1 65139:1 65140:1 65141:1 65142:1 65143:1 65144:1 65145:1 65146:1 65147:1 #unigram###Mais bigram###Mais#-#Angela trigram###Mais#-#Angela#-#Merkel unigram###Angela bigram###Angela#-#Merkel trigram###Angela#-#Merkel#-#a unigram###Merkel bigram###Merkel#-#a trigram###Merkel#-#a#-#déjà unigram###a bigram###a#-#déjà trigram###a#-#déjà#-#fait unigram###déjà bigram###déjà#-#fait trigram###déjà#-#fait#-#savoir unigram###fait bigram###fait#-#savoir trigram###fait#-#savoir#-#qu' unigram###savoir bigram###savoir#-#qu' trigram###savoir#-#qu'#-#elle unigram###qu' bigram###qu'#-#elle trigram###qu'#-#elle#-#réclamerait unigram###elle bigram###elle#-#réclamerait trigram###elle#-#réclamerait#-#des unigram###réclamerait bigram###réclamerait#-#des trigram###réclamerait#-#des#-#détails unigram###des bigram###des#-#détails trigram###des#-#détails#-#sur unigram###détails bigram###détails#-#sur trigram###détails#-#sur#-#les unigram###sur bigram###sur#-#les trigram###sur#-#les#-#programmes unigram###les bigram###les#-#programmes trigram###les#-#programmes#-#d' unigram###programmes bigram###programmes#-#d' trigram###programmes#-#d'#-#espionnage unigram###d' bigram###d'#-#espionnage trigram###d'#-#espionnage#-#du unigram###espionnage bigram###espionnage#-#du trigram###espionnage#-#du#-#net unigram###du bigram###du#-#net trigram###du#-#net#-#, unigram###net bigram###net#-#, trigram###net#-#,#-#qui unigram###, bigram###,#-#qui trigram###,#-#qui#-#viseraient unigram###qui bigram###qui#-#viseraient trigram###qui#-#viseraient#-#singulièrement unigram###viseraient bigram###viseraient#-#singulièrement trigram###viseraient#-#singulièrement#-#les unigram###singulièrement bigram###singulièrement#-#les trigram###singulièrement#-#les#-#étrangers unigram###les bigram###les#-#étrangers trigram###les#-#étrangers#-#. unigram###étrangers bigram###étrangers#-#. unigram###. 
-0.0097351867614153056451620216193987 7:3 16:1 21:1 85:2 124:2 250:1 276:1 435:1 464:1 668:2 953:1 961:1 1367:1 1415:1 5416:1 6017:1 7145:1 7424:1 19863:1 35283:1 35284:1 56131:1 56132:1 56134:1 56751:1 57903:1 58110:1 58113:1 58114:1 58138:1 58139:1 58140:1 58141:1 58142:1 58143:1 58144:1 58145:1 58146:1 58147:1 58148:1 58149:1 58150:1 58151:1 58152:1 58153:1 58154:1 58155:1 58156:1 58157:1 58158:1 58159:1 58160:1 58161:1 58162:1 58163:1 58164:1 58165:1 58166:1 58167:1 58168:1 58169:1 58170:1 58171:1 58172:1 58173:1 58174:1 58175:1 58176:1 58177:1 58178:1 58179:1 58180:1 58181:1 58182:1 58183:1 58184:1 58185:1 58186:1 58187:1 58188:1 58189:1 58190:1 58191:1 58192:1 58193:1 58194:1 58195:1 58196:1 58197:1 58198:1 58199:1 #unigram###PORTRAIT bigram###PORTRAIT#-#· trigram###PORTRAIT#-#·#-#Personnage unigram###· bigram###·#-#Personnage trigram###·#-#Personnage#-#emblématique unigram###Personnage bigram###Personnage#-#emblématique trigram###Personnage#-#emblématique#-#de unigram###emblématique bigram###emblématique#-#de trigram###emblématique#-#de#-#la unigram###de bigram###de#-#la trigram###de#-#la#-#vie unigram###la bigram###la#-#vie trigram###la#-#vie#-#politique unigram###vie bigram###vie#-#politique trigram###vie#-#politique#-#britannique unigram###politique bigram###politique#-#britannique trigram###politique#-#britannique#-#du unigram###britannique bigram###britannique#-#du trigram###britannique#-#du#-#20e unigram###du bigram###du#-#20e trigram###du#-#20e#-#siècle unigram###20e bigram###20e#-#siècle trigram###20e#-#siècle#-#, unigram###siècle bigram###siècle#-#, trigram###siècle#-#,#-#Margaret unigram###, bigram###,#-#Margaret trigram###,#-#Margaret#-#Thatcher unigram###Margaret bigram###Margaret#-#Thatcher trigram###Margaret#-#Thatcher#-#, unigram###Thatcher bigram###Thatcher#-#, trigram###Thatcher#-#,#-#morte unigram###, bigram###,#-#morte trigram###,#-#morte#-#lundi unigram###morte bigram###morte#-#lundi trigram###morte#-#lundi#-#à unigram###lundi bigram###lundi#-#à trigram###lundi#-#à#-#l' unigram###à bigram###à#-#l' trigram###à#-#l'#-#âge unigram###l' bigram###l'#-#âge trigram###l'#-#âge#-#de unigram###âge bigram###âge#-#de trigram###âge#-#de#-#87 unigram###de bigram###de#-#87 trigram###de#-#87#-#ans unigram###87 bigram###87#-#ans trigram###87#-#ans#-#, unigram###ans bigram###ans#-#, trigram###ans#-#,#-#était unigram###, bigram###,#-#était trigram###,#-#était#-#à unigram###était bigram###était#-#à trigram###était#-#à#-#la unigram###à bigram###à#-#la trigram###à#-#la#-#fois unigram###la bigram###la#-#fois trigram###la#-#fois#-#admirée unigram###fois bigram###fois#-#admirée trigram###fois#-#admirée#-#et unigram###admirée bigram###admirée#-#et trigram###admirée#-#et#-#décriée unigram###et bigram###et#-#décriée trigram###et#-#décriée#-#. unigram###décriée bigram###décriée#-#. unigram###. 
0.16158100434179115123534131726046 190:1 8323:1 22811:1 22812:1 22813:1 22814:1 #unigram###Vaut bigram###Vaut#-#le trigram###Vaut#-#le#-#déplacement unigram###le bigram###le#-#déplacement unigram###déplacement 
-0.053836351774622363819400305828822 16:1 190:1 668:1 7438:1 27233:1 43033:1 55542:1 55620:1 55621:1 55624:1 55625:1 55627:1 60628:1 60629:1 60876:1 62429:1 62430:1 62431:1 62432:1 62433:1 62434:1 62435:1 62436:1 62437:1 62438:1 62439:1 62440:1 62441:1 62442:1 62443:1 #unigram###François bigram###François#-#Hollande trigram###François#-#Hollande#-#et unigram###Hollande bigram###Hollande#-#et trigram###Hollande#-#et#-#Angela unigram###et bigram###et#-#Angela trigram###et#-#Angela#-#Merkel unigram###Angela bigram###Angela#-#Merkel trigram###Angela#-#Merkel#-#le unigram###Merkel bigram###Merkel#-#le trigram###Merkel#-#le#-#6 unigram###le bigram###le#-#6 trigram###le#-#6#-#mars unigram###6 bigram###6#-#mars trigram###6#-#mars#-#2013 unigram###mars bigram###mars#-#2013 trigram###mars#-#2013#-#à unigram###2013 bigram###2013#-#à trigram###2013#-#à#-#Varsovie unigram###à bigram###à#-#Varsovie unigram###Varsovie 
0.082213971877088912187936386999354 111:1 727:1 1011:1 1031:1 1032:1 28012:1 28013:1 28014:1 28015:1 #unigram###c' bigram###c'#-#est trigram###c'#-#est#-#triste unigram###est bigram###est#-#triste trigram###est#-#triste#-#! unigram###triste bigram###triste#-#! unigram###! 
0.4843928255186139564258951395459 639:1 5023:1 39917:1 #unigram###Vacance bigram###Vacance#-#bruyante unigram###bruyante 
0.5 53705:1 #unigram###Génialissime 
0.014714582279009858975515889767394 16:1 79:1 85:2 111:1 124:1 172:1 250:1 427:1 435:1 1015:1 1497:1 1514:1 1549:1 1835:1 2271:1 5053:1 6148:1 6216:1 15396:1 15397:1 15398:1 15399:1 17292:1 20877:1 26983:1 28328:1 28329:1 28331:1 30323:1 38672:1 38673:1 38674:1 38675:1 38676:1 38677:1 38678:1 38679:1 38680:1 38681:1 38682:1 38683:1 38684:1 38685:1 38686:1 38687:1 38688:1 38689:1 38690:1 38691:1 38692:1 #unigram###Mais bigram###Mais#-#nous trigram###Mais#-#nous#-#garderons unigram###nous bigram###nous#-#garderons trigram###nous#-#garderons#-#un unigram###garderons bigram###garderons#-#un trigram###garderons#-#un#-#bon unigram###un bigram###un#-#bon trigram###un#-#bon#-#souvenir unigram###bon bigram###bon#-#souvenir trigram###bon#-#souvenir#-#du unigram###souvenir bigram###souvenir#-#du trigram###souvenir#-#du#-#camping unigram###du bigram###du#-#camping trigram###du#-#camping#-#de unigram###camping bigram###camping#-#de trigram###camping#-#de#-#la unigram###de bigram###de#-#la trigram###de#-#la#-#baie unigram###la bigram###la#-#baie trigram###la#-#baie#-#des unigram###baie bigram###baie#-#des trigram###baie#-#des#-#anges unigram###des bigram###des#-#anges trigram###des#-#anges#-#et unigram###anges bigram###anges#-#et trigram###anges#-#et#-#de unigram###et bigram###et#-#de trigram###et#-#de#-#La unigram###de bigram###de#-#La trigram###de#-#La#-#Ciotat unigram###La bigram###La#-#Ciotat trigram###La#-#Ciotat#-#! unigram###Ciotat bigram###Ciotat#-#! unigram###! 
0.0039020191208446173593282768621293 7:3 21:1 56:1 76:2 85:2 172:1 276:1 375:1 378:1 583:2 597:1 754:1 818:1 880:1 920:1 1018:1 1019:1 1664:1 1763:1 2947:1 3678:1 3967:1 4497:1 5717:1 8370:1 10671:1 10931:1 14501:1 14894:1 15020:1 21900:1 24756:1 29712:1 29713:1 36673:1 36674:1 36675:1 36676:1 36677:1 36678:1 36679:1 36680:1 36681:1 36682:1 36683:1 36684:1 36685:1 36686:1 36687:1 36688:1 36689:1 36690:1 36691:1 36692:1 36693:1 36694:1 36695:1 36696:1 36697:1 36698:1 36699:1 36700:1 36701:1 36702:1 36703:1 36704:1 36705:1 36706:1 36707:1 36708:1 36709:1 36710:1 36711:1 36712:1 36713:1 36714:1 36715:1 36716:1 36717:1 36718:1 36719:1 36720:1 36721:1 36722:1 36723:1 36724:1 36725:1 36726:1 36727:1 36728:1 36729:1 36730:1 36731:1 36732:1 #unigram###Comme bigram###Comme#-#trop trigram###Comme#-#trop#-#souvent unigram###trop bigram###trop#-#souvent trigram###trop#-#souvent#-#pour unigram###souvent bigram###souvent#-#pour trigram###souvent#-#pour#-#les unigram###pour bigram###pour#-#les trigram###pour#-#les#-#hôtels unigram###les bigram###les#-#hôtels trigram###les#-#hôtels#-#Mercure unigram###hôtels bigram###hôtels#-#Mercure trigram###hôtels#-#Mercure#-#, unigram###Mercure bigram###Mercure#-#, trigram###Mercure#-#,#-#je unigram###, bigram###,#-#je trigram###,#-#je#-#me unigram###je bigram###je#-#me trigram###je#-#me#-#demande unigram###me bigram###me#-#demande trigram###me#-#demande#-#ce unigram###demande bigram###demande#-#ce trigram###demande#-#ce#-#qui unigram###ce bigram###ce#-#qui trigram###ce#-#qui#-#peut unigram###qui bigram###qui#-#peut trigram###qui#-#peut#-#effectivement unigram###peut bigram###peut#-#effectivement trigram###peut#-#effectivement#-#justifier unigram###effectivement bigram###effectivement#-#justifier trigram###effectivement#-#justifier#-#une unigram###justifier bigram###justifier#-#une trigram###justifier#-#une#-#4e unigram###une bigram###une#-#4e trigram###une#-#4e#-#étoile unigram###4e bigram###4e#-#étoile trigram###4e#-#étoile#-#: unigram###étoile bigram###étoile#-#: trigram###étoile#-#:#-#pas unigram###: bigram###:#-#pas trigram###:#-#pas#-#de unigram###pas bigram###pas#-#de trigram###pas#-#de#-#minibar unigram###de bigram###de#-#minibar trigram###de#-#minibar#-#, unigram###minibar bigram###minibar#-#, trigram###minibar#-#,#-#pas unigram###, bigram###,#-#pas trigram###,#-#pas#-#de unigram###pas bigram###pas#-#de trigram###pas#-#de#-#coffre unigram###de bigram###de#-#coffre trigram###de#-#coffre#-#· unigram###coffre bigram###coffre#-#· trigram###coffre#-#·#-#fort unigram###· bigram###·#-#fort trigram###·#-#fort#-#, unigram###fort bigram###fort#-#, trigram###fort#-#,#-#des unigram###, bigram###,#-#des trigram###,#-#des#-#lits unigram###des bigram###des#-#lits trigram###des#-#lits#-#minuscules unigram###lits bigram###lits#-#minuscules trigram###lits#-#minuscules#-#. unigram###minuscules bigram###minuscules#-#. unigram###. 
0.093924396750869526551142030257324 111:1 32272:1 32273:1 32274:1 32275:1 32276:1 #unigram###PLUS bigram###PLUS#-#JAMAIS trigram###PLUS#-#JAMAIS#-#! unigram###JAMAIS bigram###JAMAIS#-#! unigram###! 
0.014293104598658122258991731712285 7:2 85:1 1717:1 2160:1 2161:1 2162:1 2163:1 2164:1 2165:1 2166:1 2167:1 2168:1 2169:1 2170:1 2171:1 2172:1 2173:1 #unigram###Grand bigram###Grand#-#, trigram###Grand#-#,#-#beau unigram###, bigram###,#-#beau trigram###,#-#beau#-#, unigram###beau bigram###beau#-#, trigram###beau#-#,#-#plein unigram###, bigram###,#-#plein trigram###,#-#plein#-#de unigram###plein bigram###plein#-#de trigram###plein#-#de#-#piscines unigram###de bigram###de#-#piscines unigram###piscines 
0.012813036501091591701229077671087 21:1 172:1 727:1 968:1 2408:1 2903:1 5091:1 5093:1 7702:1 8305:1 18861:1 18862:1 18863:1 24588:1 30602:1 30603:1 30604:1 30605:1 30606:1 30607:1 30608:1 #unigram###Le bigram###Le#-#nettoyage trigram###Le#-#nettoyage#-#des unigram###nettoyage bigram###nettoyage#-#des trigram###nettoyage#-#des#-#chambres unigram###des bigram###des#-#chambres trigram###des#-#chambres#-#est unigram###chambres bigram###chambres#-#est trigram###chambres#-#est#-#aussi unigram###est bigram###est#-#aussi trigram###est#-#aussi#-#correcte unigram###aussi bigram###aussi#-#correcte trigram###aussi#-#correcte#-#. unigram###correcte bigram###correcte#-#. unigram###. 
0.023560581445800182071037554010218 21:1 85:1 172:2 378:1 668:1 951:1 953:2 1514:1 3144:1 3422:1 11390:1 18030:1 26040:1 37839:1 45437:1 56658:1 56659:1 56660:1 56661:1 56662:1 56664:1 58705:1 58706:1 58707:1 58708:1 58709:1 58710:1 58711:1 58712:1 58713:1 58714:1 58715:1 58716:1 58717:1 58718:1 58719:1 58720:1 58721:1 58722:1 58723:1 58724:1 58725:1 58726:1 58727:1 58728:1 58729:1 58730:1 58731:1 58732:1 58733:1 58734:1 58735:1 58736:1 58737:1 58738:1 58739:1 58740:1 58741:1 #unigram###La bigram###La#-#France trigram###La#-#France#-#fait unigram###France bigram###France#-#fait trigram###France#-#fait#-#partie unigram###fait bigram###fait#-#partie trigram###fait#-#partie#-#des unigram###partie bigram###partie#-#des trigram###partie#-#des#-#pays unigram###des bigram###des#-#pays trigram###des#-#pays#-#hostiles unigram###pays bigram###pays#-#hostiles trigram###pays#-#hostiles#-#à unigram###hostiles bigram###hostiles#-#à trigram###hostiles#-#à#-#une unigram###à bigram###à#-#une trigram###à#-#une#-#modification unigram###une bigram###une#-#modification trigram###une#-#modification#-#des unigram###modification bigram###modification#-#des trigram###modification#-#des#-#traités unigram###des bigram###des#-#traités trigram###des#-#traités#-#fixant unigram###traités bigram###traités#-#fixant trigram###traités#-#fixant#-#l' unigram###fixant bigram###fixant#-#l' trigram###fixant#-#l'#-#architecture unigram###l' bigram###l'#-#architecture trigram###l'#-#architecture#-#institutionnelle unigram###architecture bigram###architecture#-#institutionnelle trigram###architecture#-#institutionnelle#-#de unigram###institutionnelle bigram###institutionnelle#-#de trigram###institutionnelle#-#de#-#l' unigram###de bigram###de#-#l' trigram###de#-#l'#-#Union unigram###l' bigram###l'#-#Union trigram###l'#-#Union#-#européenne unigram###Union bigram###Union#-#européenne trigram###Union#-#européenne#-#. unigram###européenne bigram###européenne#-#. unigram###. 
0.010146250127462235965380976665529 7:1 21:1 56:1 62:1 63:1 85:2 163:1 276:1 301:1 810:1 869:1 2911:1 3350:1 5393:1 5465:1 6559:1 7824:2 8868:1 16719:1 29449:1 29451:1 30087:1 34747:1 34748:1 39800:1 40041:1 42502:1 42692:1 42693:1 42902:1 42903:1 42904:1 42905:1 42906:1 42907:1 42908:1 42909:1 42910:1 42911:1 42912:1 42913:1 42914:1 42915:1 42916:1 42917:1 42918:1 42919:1 42920:1 42921:1 42922:1 42923:1 42924:1 42925:1 42926:1 42927:1 42928:1 42929:1 42930:1 42931:1 42932:1 42933:1 #unigram###Chambre bigram###Chambre#-#confortable trigram###Chambre#-#confortable#-#avec unigram###confortable bigram###confortable#-#avec trigram###confortable#-#avec#-#belle unigram###avec bigram###avec#-#belle trigram###avec#-#belle#-#salle unigram###belle bigram###belle#-#salle trigram###belle#-#salle#-#de unigram###salle bigram###salle#-#de trigram###salle#-#de#-#bains unigram###de bigram###de#-#bains trigram###de#-#bains#-#, unigram###bains bigram###bains#-#, trigram###bains#-#,#-#si unigram###, bigram###,#-#si trigram###,#-#si#-#en unigram###si bigram###si#-#en trigram###si#-#en#-#étage unigram###en bigram###en#-#étage trigram###en#-#étage#-#belle unigram###étage bigram###étage#-#belle trigram###étage#-#belle#-#vue unigram###belle bigram###belle#-#vue trigram###belle#-#vue#-#sur unigram###vue bigram###vue#-#sur trigram###vue#-#sur#-#les unigram###sur bigram###sur#-#les trigram###sur#-#les#-#immeubles unigram###les bigram###les#-#immeubles trigram###les#-#immeubles#-#hauts unigram###immeubles bigram###immeubles#-#hauts trigram###immeubles#-#hauts#-#de unigram###hauts bigram###hauts#-#de trigram###hauts#-#de#-#Hong unigram###de bigram###de#-#Hong trigram###de#-#Hong#-#· unigram###Hong bigram###Hong#-#· trigram###Hong#-#·#-#Kong unigram###· bigram###·#-#Kong trigram###·#-#Kong#-#. unigram###Kong bigram###Kong#-#. unigram###. 
0.028906387481977366404883866835007 21:1 73:1 85:2 2405:1 3828:1 9886:1 15896:1 57740:1 74856:1 74857:1 74858:1 74859:1 74860:1 74861:1 74862:1 74863:1 74864:1 74865:1 74866:1 74867:1 74868:1 74869:1 74870:1 74871:1 74872:1 74873:1 74874:1 74875:1 74876:1 #unigram###Les bigram###Les#-#écarts trigram###Les#-#écarts#-#de unigram###écarts bigram###écarts#-#de trigram###écarts#-#de#-#performance unigram###de bigram###de#-#performance trigram###de#-#performance#-#de unigram###performance bigram###performance#-#de trigram###performance#-#de#-#l’ unigram###de bigram###de#-#l’ trigram###de#-#l’#-#emploi unigram###l’ bigram###l’#-#emploi trigram###l’#-#emploi#-#sont unigram###emploi bigram###emploi#-#sont trigram###emploi#-#sont#-#autant unigram###sont bigram###sont#-#autant trigram###sont#-#autant#-#significatifs unigram###autant bigram###autant#-#significatifs trigram###autant#-#significatifs#-#. unigram###significatifs bigram###significatifs#-#. unigram###. 
0.10217915198836727275200075837347 2637:1 3609:1 9977:1 9978:1 9979:1 9980:1 #unigram###Un bigram###Un#-#Séjour trigram###Un#-#Séjour#-#Inoubliable unigram###Séjour bigram###Séjour#-#Inoubliable unigram###Inoubliable 
0.020416357557454037352506759361859 21:1 70:1 76:1 163:1 190:1 499:1 668:1 727:1 818:1 819:1 4677:1 7731:1 12057:1 14599:1 17048:1 23135:1 45053:1 55542:1 62231:1 62232:1 62233:1 62234:1 62235:1 62236:1 62237:1 62238:1 62239:1 62240:1 62241:1 62242:1 62243:1 62244:1 62245:1 62246:1 62247:1 62248:1 62249:1 62250:1 62251:1 62252:1 62253:1 62254:1 62255:1 62256:1 62257:1 62258:1 62259:1 62260:1 #unigram###Je bigram###Je#-#ne trigram###Je#-#ne#-#vois unigram###ne bigram###ne#-#vois trigram###ne#-#vois#-#pas unigram###vois bigram###vois#-#pas trigram###vois#-#pas#-#le unigram###pas bigram###pas#-#le trigram###pas#-#le#-#Président unigram###le bigram###le#-#Président trigram###le#-#Président#-#normal unigram###Président bigram###Président#-#normal trigram###Président#-#normal#-#s unigram###normal bigram###normal#-#s trigram###normal#-#s#-#affronter unigram###s bigram###s#-#affronter trigram###s#-#affronter#-#à unigram###affronter bigram###affronter#-#à trigram###affronter#-#à#-#Merkel unigram###à bigram###à#-#Merkel trigram###à#-#Merkel#-#qui unigram###Merkel bigram###Merkel#-#qui trigram###Merkel#-#qui#-#est unigram###qui bigram###qui#-#est trigram###qui#-#est#-#en unigram###est bigram###est#-#en trigram###est#-#en#-#campagne unigram###en bigram###en#-#campagne trigram###en#-#campagne#-#électorale unigram###campagne bigram###campagne#-#électorale trigram###campagne#-#électorale#-#. unigram###électorale bigram###électorale#-#. unigram###. 
-0.11635797724401139574545993582433 21:1 184:1 215:1 929:1 968:1 11701:1 55897:1 55898:1 55899:1 55900:1 55901:1 55902:1 55903:1 55904:1 55905:1 55906:1 55907:1 55908:1 #unigram###Le bigram###Le#-#Parlement trigram###Le#-#Parlement#-#européen unigram###Parlement bigram###Parlement#-#européen trigram###Parlement#-#européen#-#a unigram###européen bigram###européen#-#a trigram###européen#-#a#-#dit unigram###a bigram###a#-#dit trigram###a#-#dit#-#non unigram###dit bigram###dit#-#non trigram###dit#-#non#-#. unigram###non bigram###non#-#. unigram###. 
-0.020903535317152045075461685996743 16:1 21:1 56:3 79:1 124:1 435:1 523:1 590:1 591:1 668:1 840:1 1170:1 8105:1 8107:1 10138:1 10166:1 26913:1 26914:1 55899:1 55900:1 55902:1 55909:1 55910:1 55911:1 55912:1 55913:1 55914:1 55915:1 55916:1 55917:1 55918:1 55919:1 55920:1 55921:1 55922:1 55923:1 55924:1 55925:1 55926:1 55927:1 55928:1 55929:1 55930:1 55931:1 55932:1 55933:1 55934:1 55935:1 55936:1 55937:1 55938:1 55939:1 55940:1 55941:1 55942:1 55943:1 55944:1 55945:1 55946:1 55947:1 55948:1 #unigram###Toute bigram###Toute#-#la trigram###Toute#-#la#-#négociation unigram###la bigram###la#-#négociation trigram###la#-#négociation#-#consiste unigram###négociation bigram###négociation#-#consiste trigram###négociation#-#consiste#-#à unigram###consiste bigram###consiste#-#à trigram###consiste#-#à#-#trouver unigram###à bigram###à#-#trouver trigram###à#-#trouver#-#un unigram###trouver bigram###trouver#-#un trigram###trouver#-#un#-#équilibre unigram###un bigram###un#-#équilibre trigram###un#-#équilibre#-#entre unigram###équilibre bigram###équilibre#-#entre trigram###équilibre#-#entre#-#les unigram###entre bigram###entre#-#les trigram###entre#-#les#-#positions unigram###les bigram###les#-#positions trigram###les#-#positions#-#les unigram###positions bigram###positions#-#les trigram###positions#-#les#-#plus unigram###les bigram###les#-#plus trigram###les#-#plus#-#radicales unigram###plus bigram###plus#-#radicales trigram###plus#-#radicales#-#et unigram###radicales bigram###radicales#-#et trigram###radicales#-#et#-#les unigram###et bigram###et#-#les trigram###et#-#les#-#lignes unigram###les bigram###les#-#lignes trigram###les#-#lignes#-#rouges unigram###lignes bigram###lignes#-#rouges trigram###lignes#-#rouges#-#du unigram###rouges bigram###rouges#-#du trigram###rouges#-#du#-#Parlement unigram###du bigram###du#-#Parlement trigram###du#-#Parlement#-#européen unigram###Parlement bigram###Parlement#-#européen trigram###Parlement#-#européen#-#. unigram###européen bigram###européen#-#. unigram###. 
