SVM-light Version V6.02
0 # kernel type
3 # kernel parameter -d 
1 # kernel parameter -g 
1 # kernel parameter -s 
1 # kernel parameter -r 
empty# kernel parameter -u 
72414 # highest feature index 
3124 # number of training documents 
2163 # number of support vectors plus 1 
-0.27072984 # threshold b, each following line is a SV (starting with alpha*y)
0.0327217509656944974261172376373 79:1 135:1 178:1 250:1 261:1 474:1 1206:1 1208:1 1311:1 2021:1 2142:1 2143:1 3368:1 3369:1 3370:1 3371:1 17895:1 20074:1 21866:1 21867:1 21868:1 21869:1 21870:1 21871:1 21872:1 21873:1 21874:1 21875:1 21876:1 21877:1 21878:1 21879:1 21880:1 #unigram###I bigram###I#-#will trigram###I#-#will#-#definitely unigram###will bigram###will#-#definitely trigram###will#-#definitely#-#be unigram###definitely bigram###definitely#-#be trigram###definitely#-#be#-#returning unigram###be bigram###be#-#returning trigram###be#-#returning#-#on unigram###returning bigram###returning#-#on trigram###returning#-#on#-#my unigram###on bigram###on#-#my trigram###on#-#my#-#next unigram###my bigram###my#-#next trigram###my#-#next#-#trip unigram###next bigram###next#-#trip trigram###next#-#trip#-#to unigram###trip bigram###trip#-#to trigram###trip#-#to#-#Holland unigram###to bigram###to#-#Holland trigram###to#-#Holland#-#! unigram###Holland bigram###Holland#-#! unigram###! 
-0.010160901425584569282567493075931 4:1 56:1 201:2 374:1 446:1 474:1 1383:1 2142:1 2143:1 4267:1 6548:1 10426:1 10470:1 20813:1 22570:1 24611:1 24612:1 24613:1 24614:1 24615:1 24616:1 24617:1 24618:1 24619:1 24620:1 24621:1 24622:1 24623:1 24624:1 24625:1 24626:1 24627:1 24628:1 24629:1 24630:1 #unigram###We bigram###We#-#did trigram###We#-#did#-#a unigram###did bigram###did#-#a trigram###did#-#a#-#few unigram###a bigram###a#-#few trigram###a#-#few#-#diving unigram###few bigram###few#-#diving trigram###few#-#diving#-#trips unigram###diving bigram###diving#-#trips trigram###diving#-#trips#-#and unigram###trips bigram###trips#-#and trigram###trips#-#and#-#a unigram###and bigram###and#-#a trigram###and#-#a#-#trip unigram###a bigram###a#-#trip trigram###a#-#trip#-#to unigram###trip bigram###trip#-#to trigram###trip#-#to#-#Mahmya unigram###to bigram###to#-#Mahmya trigram###to#-#Mahmya#-#Island unigram###Mahmya bigram###Mahmya#-#Island trigram###Mahmya#-#Island#-#. unigram###Island bigram###Island#-#. unigram###. 
0.043895146274862802127092464843372 196:1 434:1 673:1 5130:1 5131:1 5132:1 5133:1 5134:1 5135:1 #unigram###Friendly bigram###Friendly#-#, trigram###Friendly#-#,#-#helpful unigram###, bigram###,#-#helpful trigram###,#-#helpful#-#hosts unigram###helpful bigram###helpful#-#hosts unigram###hosts 
0.099246668141857799505523018979147 19:1 56:1 397:1 3362:1 3363:1 3364:1 #unigram###Fantasic bigram###Fantasic#-#hotel trigram###Fantasic#-#hotel#-#. unigram###hotel bigram###hotel#-#. unigram###. 
-0.048712620312640404762749568590152 187:2 199:1 201:1 661:1 727:1 729:1 1181:1 2197:2 2784:1 3087:1 3559:1 3560:1 5828:1 17376:1 21273:1 21283:1 21284:1 21285:1 21286:1 21287:1 21288:1 21289:1 21290:1 21291:1 21292:1 21293:1 21294:1 21295:1 21296:1 21297:1 21298:1 21299:1 21300:1 21301:1 21302:1 21303:1 21304:1 21305:1 21306:1 21307:1 21308:1 21309:1 21310:1 #unigram###You bigram###You#-#can trigram###You#-#can#-#pay unigram###can bigram###can#-#pay trigram###can#-#pay#-#exrra unigram###pay bigram###pay#-#exrra trigram###pay#-#exrra#-#for unigram###exrra bigram###exrra#-#for trigram###exrra#-#for#-#these unigram###for bigram###for#-#these trigram###for#-#these#-#by unigram###these bigram###these#-#by trigram###these#-#by#-#paying unigram###by bigram###by#-#paying trigram###by#-#paying#-#for unigram###paying bigram###paying#-#for trigram###paying#-#for#-#a unigram###for bigram###for#-#a trigram###for#-#a#-#' unigram###a bigram###a#-#' trigram###a#-#'#-#gold unigram###' bigram###'#-#gold trigram###'#-#gold#-#all unigram###gold bigram###gold#-#all trigram###gold#-#all#-#inclusive unigram###all bigram###all#-#inclusive trigram###all#-#inclusive#-#' unigram###inclusive bigram###inclusive#-#' trigram###inclusive#-#'#-#package unigram###' bigram###'#-#package unigram###package 
0.01965806594921563899003302822166 4:1 82:1 120:1 262:1 799:1 1208:1 2340:1 3008:1 14550:1 28574:1 28575:1 28576:1 28577:1 28578:1 28579:1 28580:1 28581:1 28582:1 28583:1 28584:1 28585:1 28586:1 28587:1 28588:1 28589:1 28590:1 28591:1 #unigram###A bigram###A#-#stay trigram###A#-#stay#-#we unigram###stay bigram###stay#-#we trigram###stay#-#we#-#always unigram###we bigram###we#-#always trigram###we#-#always#-#will unigram###always bigram###always#-#will trigram###always#-#will#-#remember unigram###will bigram###will#-#remember trigram###will#-#remember#-#with unigram###remember bigram###remember#-#with trigram###remember#-#with#-#joy unigram###with bigram###with#-#joy trigram###with#-#joy#-#and unigram###joy bigram###joy#-#and trigram###joy#-#and#-#happiness unigram###and bigram###and#-#happiness unigram###happiness 
-0.093975146572964365909719219871477 56:1 79:1 120:1 187:1 199:1 201:1 762:1 1263:1 2661:1 2774:1 2967:1 3978:1 3995:1 4468:1 4470:1 7374:1 11978:1 11979:1 11980:1 11981:1 11982:1 11983:1 11984:1 11985:1 11986:1 11987:1 11988:1 #unigram###Stayed bigram###Stayed#-#here trigram###Stayed#-#here#-#with unigram###here bigram###here#-#with trigram###here#-#with#-#my unigram###with bigram###with#-#my trigram###with#-#my#-#wife unigram###my bigram###my#-#wife trigram###my#-#wife#-#for unigram###wife bigram###wife#-#for trigram###wife#-#for#-#a unigram###for bigram###for#-#a trigram###for#-#a#-#short unigram###a bigram###a#-#short trigram###a#-#short#-#holiday unigram###short bigram###short#-#holiday trigram###short#-#holiday#-#. unigram###holiday bigram###holiday#-#. unigram###. 
0.083469116004077595349919249656523 56:1 62:1 109:1 164:1 224:1 365:1 416:1 417:1 418:1 1142:1 2661:1 6493:1 44978:1 44979:1 44980:1 #unigram###Our bigram###Our#-#holiday trigram###Our#-#holiday#-#was unigram###holiday bigram###holiday#-#was trigram###holiday#-#was#-#very unigram###was bigram###was#-#very trigram###was#-#very#-#nice unigram###very bigram###very#-#nice trigram###very#-#nice#-#. unigram###nice bigram###nice#-#. unigram###. 
-0.026582364167045267194788848996723 56:1 79:1 187:1 201:1 319:1 331:1 394:1 474:2 953:1 1946:1 1947:1 2977:1 4930:1 7599:1 7600:1 7601:1 7602:1 7603:1 7604:1 7605:1 7606:1 7607:1 7608:1 7609:1 7610:1 7611:1 7612:1 7613:1 7614:1 7615:1 7616:1 7617:1 7618:1 7619:1 7620:1 7621:1 7622:1 7623:1 7624:1 7625:1 7626:1 7627:1 7628:1 7629:1 #unigram###Felt bigram###Felt#-#a trigram###Felt#-#a#-#little unigram###a bigram###a#-#little trigram###a#-#little#-#embarrassed unigram###little bigram###little#-#embarrassed trigram###little#-#embarrassed#-#to unigram###embarrassed bigram###embarrassed#-#to trigram###embarrassed#-#to#-#present unigram###to bigram###to#-#present trigram###to#-#present#-#this unigram###present bigram###present#-#this trigram###present#-#this#-#to unigram###this bigram###this#-#to trigram###this#-#to#-#my unigram###to bigram###to#-#my trigram###to#-#my#-#bf unigram###my bigram###my#-#bf trigram###my#-#bf#-#for unigram###bf bigram###bf#-#for trigram###bf#-#for#-#his unigram###for bigram###for#-#his trigram###for#-#his#-#birthday unigram###his bigram###his#-#birthday trigram###his#-#birthday#-#weekend unigram###birthday bigram###birthday#-#weekend trigram###birthday#-#weekend#-#away unigram###weekend bigram###weekend#-#away trigram###weekend#-#away#-#. unigram###away bigram###away#-#. unigram###. 
0.038706063930350226298671145741537 157:1 201:1 262:1 2627:1 4592:1 5831:1 5832:1 5833:1 5834:1 5835:1 5836:1 5837:1 5838:1 5839:1 5840:1 5841:1 5842:1 5843:1 #unigram###A bigram###A#-#brilliant trigram###A#-#brilliant#-#oasis unigram###brilliant bigram###brilliant#-#oasis trigram###brilliant#-#oasis#-#in unigram###oasis bigram###oasis#-#in trigram###oasis#-#in#-#a unigram###in bigram###in#-#a trigram###in#-#a#-#desert unigram###a bigram###a#-#desert trigram###a#-#desert#-#wilderness unigram###desert bigram###desert#-#wilderness unigram###wilderness 
0.0036227590157485662150649297075233 56:1 90:1 149:2 196:2 253:1 338:1 349:1 352:1 427:1 474:1 552:1 584:1 942:1 943:1 1585:1 2437:1 2454:1 2512:1 2812:1 2814:1 4191:1 5405:1 5406:1 5407:1 5408:1 5409:1 5915:1 9613:1 9614:1 24260:1 24261:1 24262:1 31956:1 31957:1 31958:1 31959:1 31960:1 31961:1 31962:1 31963:1 31964:1 31965:1 31966:1 31967:1 31968:1 31969:1 31970:1 31971:1 31972:1 31973:1 31974:1 31975:1 #unigram###size bigram###size#-#of trigram###size#-#of#-#the unigram###of bigram###of#-#the trigram###of#-#the#-#room unigram###the bigram###the#-#room trigram###the#-#room#-#, unigram###room bigram###room#-#, trigram###room#-#,#-#really unigram###, bigram###,#-#really trigram###,#-#really#-#small unigram###really bigram###really#-#small trigram###really#-#small#-#small unigram###small bigram###small#-#small trigram###small#-#small#-#, unigram###small bigram###small#-#, trigram###small#-#,#-#no unigram###, bigram###,#-#no trigram###,#-#no#-#place unigram###no bigram###no#-#place trigram###no#-#place#-#to unigram###place bigram###place#-#to trigram###place#-#to#-#hang unigram###to bigram###to#-#hang trigram###to#-#hang#-#something unigram###hang bigram###hang#-#something trigram###hang#-#something#-#more unigram###something bigram###something#-#more trigram###something#-#more#-#than unigram###more bigram###more#-#than trigram###more#-#than#-#two unigram###than bigram###than#-#two trigram###than#-#two#-#shirts unigram###two bigram###two#-#shirts trigram###two#-#shirts#-#. unigram###shirts bigram###shirts#-#. unigram###. 
-0.010874266191708135964599790668217 4:2 10:1 56:1 157:2 201:2 250:2 253:2 344:1 349:1 352:1 391:1 765:1 808:1 986:1 1365:1 1535:1 1537:1 1640:1 2194:1 2627:1 2774:1 2775:1 2977:1 4048:1 5711:1 6376:1 8307:1 11067:1 11867:1 14008:1 14637:1 15000:1 17751:1 34259:1 37893:1 38772:1 53223:1 53224:1 56591:1 57143:1 57206:1 68108:1 68179:1 68180:1 68181:1 68182:1 68183:1 68184:1 68185:1 68186:1 68187:1 68188:1 68189:1 68190:1 68191:1 68192:1 68193:1 68194:1 68195:1 68196:1 68197:1 68198:1 68199:1 68200:1 68201:1 68202:1 68203:1 68204:1 68205:1 68206:1 68207:1 68208:1 68209:1 68210:1 68211:1 68212:1 68213:1 68214:1 68215:1 68216:1 68217:1 68218:1 68219:1 68220:1 68221:1 68222:1 68223:1 68224:1 68225:1 68226:1 68227:1 68228:1 68229:1 68230:1 68231:1 68232:1 68233:1 68234:1 68235:1 68236:1 68237:1 68238:1 68239:1 68240:1 68241:1 68242:1 #unigram###His bigram###His#-#wife trigram###His#-#wife#-#and unigram###wife bigram###wife#-#and trigram###wife#-#and#-#two unigram###and bigram###and#-#two trigram###and#-#two#-#children unigram###two bigram###two#-#children trigram###two#-#children#-#are unigram###children bigram###children#-#are trigram###children#-#are#-#at unigram###are bigram###are#-#at trigram###are#-#at#-#the unigram###at bigram###at#-#the trigram###at#-#the#-#hospital unigram###the bigram###the#-#hospital trigram###the#-#hospital#-#in unigram###hospital bigram###hospital#-#in trigram###hospital#-#in#-#the unigram###in bigram###in#-#the trigram###in#-#the#-#French unigram###the bigram###the#-#French trigram###the#-#French#-#Alpine unigram###French bigram###French#-#Alpine trigram###French#-#Alpine#-#city unigram###Alpine bigram###Alpine#-#city trigram###Alpine#-#city#-#of unigram###city bigram###city#-#of trigram###city#-#of#-#Grenoble unigram###of bigram###of#-#Grenoble trigram###of#-#Grenoble#-#where unigram###Grenoble bigram###Grenoble#-#where trigram###Grenoble#-#where#-#Schumacher unigram###where bigram###where#-#Schumacher trigram###where#-#Schumacher#-#is unigram###Schumacher bigram###Schumacher#-#is trigram###Schumacher#-#is#-#in unigram###is bigram###is#-#in trigram###is#-#in#-#a unigram###in bigram###in#-#a trigram###in#-#a#-#coma unigram###a bigram###a#-#coma trigram###a#-#coma#-#after unigram###coma bigram###coma#-#after trigram###coma#-#after#-#he unigram###after bigram###after#-#he trigram###after#-#he#-#fell unigram###he bigram###he#-#fell trigram###he#-#fell#-#and unigram###fell bigram###fell#-#and trigram###fell#-#and#-#slammed unigram###and bigram###and#-#slammed trigram###and#-#slammed#-#his unigram###slammed bigram###slammed#-#his trigram###slammed#-#his#-#head unigram###his bigram###his#-#head trigram###his#-#head#-#on unigram###head bigram###head#-#on trigram###head#-#on#-#a unigram###on bigram###on#-#a trigram###on#-#a#-#rock unigram###a bigram###a#-#rock trigram###a#-#rock#-#while unigram###rock bigram###rock#-#while trigram###rock#-#while#-#skiing unigram###while bigram###while#-#skiing trigram###while#-#skiing#-#off-piste unigram###skiing bigram###skiing#-#off-piste trigram###skiing#-#off-piste#-#on unigram###off-piste bigram###off-piste#-#on trigram###off-piste#-#on#-#Sunday unigram###on bigram###on#-#Sunday trigram###on#-#Sunday#-#. unigram###Sunday bigram###Sunday#-#. unigram###. 
0.0085898087321590911591417949466631 4:1 56:1 253:2 468:1 2075:1 5828:1 6007:1 17341:1 20316:1 20318:1 51040:1 51041:1 51043:1 51270:1 51395:1 51396:1 51397:1 51398:1 51399:1 51400:1 51401:1 51402:1 51403:1 51404:1 51405:1 51406:1 51407:1 51408:1 51409:1 51410:1 51411:1 51412:1 51413:1 51414:1 51415:1 51416:1 51417:1 51418:1 51419:1 51420:1 51421:1 51422:1 51423:1 51424:1 51425:1 51426:1 51427:1 51428:1 51429:1 51430:1 51431:1 51432:1 51433:1 51434:1 51435:1 51436:1 51437:1 51438:1 51439:1 51440:1 51441:1 51442:1 #unigram###Brazilian bigram###Brazilian#-#President trigram###Brazilian#-#President#-#Dilma unigram###President bigram###President#-#Dilma trigram###President#-#Dilma#-#Rousseff unigram###Dilma bigram###Dilma#-#Rousseff trigram###Dilma#-#Rousseff#-#and unigram###Rousseff bigram###Rousseff#-#and trigram###Rousseff#-#and#-#German unigram###and bigram###and#-#German trigram###and#-#German#-#Chancellor unigram###German bigram###German#-#Chancellor trigram###German#-#Chancellor#-#Angela unigram###Chancellor bigram###Chancellor#-#Angela trigram###Chancellor#-#Angela#-#Merkel unigram###Angela bigram###Angela#-#Merkel trigram###Angela#-#Merkel#-#have unigram###Merkel bigram###Merkel#-#have trigram###Merkel#-#have#-#both unigram###have bigram###have#-#both trigram###have#-#both#-#condemned unigram###both bigram###both#-#condemned trigram###both#-#condemned#-#the unigram###condemned bigram###condemned#-#the trigram###condemned#-#the#-#widespread unigram###the bigram###the#-#widespread trigram###the#-#widespread#-#snooping unigram###widespread bigram###widespread#-#snooping trigram###widespread#-#snooping#-#by unigram###snooping bigram###snooping#-#by trigram###snooping#-#by#-#the unigram###by bigram###by#-#the trigram###by#-#the#-#US unigram###the bigram###the#-#US trigram###the#-#US#-#National unigram###US bigram###US#-#National trigram###US#-#National#-#Security unigram###National bigram###National#-#Security trigram###National#-#Security#-#Agency unigram###Security bigram###Security#-#Agency trigram###Security#-#Agency#-#. unigram###Agency bigram###Agency#-#. unigram###. 
-0.052065223823494696797631320350774 445:1 3830:1 5096:1 8574:1 23928:1 23929:1 23930:1 23931:1 23932:1 23933:1 23934:1 23935:1 23936:1 23937:1 23938:1 #unigram###Hotel bigram###Hotel#-#Golden trigram###Hotel#-#Golden#-#5 unigram###Golden bigram###Golden#-#5 trigram###Golden#-#5#-#City unigram###5 bigram###5#-#City trigram###5#-#City#-#Topaz unigram###City bigram###City#-#Topaz trigram###City#-#Topaz#-#Club unigram###Topaz bigram###Topaz#-#Club unigram###Club 
-0.037589706325670935171956443809904 56:1 62:1 196:1 224:1 253:1 365:1 417:1 418:1 568:1 934:1 2151:1 4102:1 7625:1 13448:1 26099:1 26669:1 32977:1 32979:1 33025:1 33026:1 33027:1 33028:1 33029:1 33030:1 33031:1 33032:1 33033:1 33034:1 33035:1 33036:1 33037:1 33038:1 33039:1 #unigram###the bigram###the#-#girls trigram###the#-#girls#-#organized unigram###girls bigram###girls#-#organized trigram###girls#-#organized#-#even unigram###organized bigram###organized#-#even trigram###organized#-#even#-#our unigram###even bigram###even#-#our trigram###even#-#our#-#daughter unigram###our bigram###our#-#daughter trigram###our#-#daughter#-#birthday unigram###daughter bigram###daughter#-#birthday trigram###daughter#-#birthday#-#party unigram###birthday bigram###birthday#-#party trigram###birthday#-#party#-#, unigram###party bigram###party#-#, trigram###party#-#,#-#very unigram###, bigram###,#-#very trigram###,#-#very#-#nice unigram###very bigram###very#-#nice trigram###very#-#nice#-#. unigram###nice bigram###nice#-#. unigram###. 
0.0091832708897526850455594882305377 4:2 56:1 87:1 90:1 253:1 306:1 449:1 598:1 1231:1 1236:1 1585:1 2537:1 2856:1 2991:1 3469:1 5937:1 5938:1 8012:1 8236:1 8238:1 8285:2 13132:1 19630:1 21845:1 26913:1 32466:1 32467:1 32468:1 32469:1 32470:1 32471:1 32472:1 32473:1 32474:1 32475:1 32476:1 32477:1 32478:1 32479:1 32480:1 32481:1 32482:1 32483:1 32484:1 32485:1 32486:1 32487:1 32488:1 32489:1 32490:1 32491:1 32492:1 32493:1 32494:1 32495:1 32496:1 32497:1 32498:1 32499:1 32500:1 32501:1 32502:1 32503:1 32504:1 32505:1 32506:1 32507:1 #unigram###The bigram###The#-#property trigram###The#-#property#-#respected unigram###property bigram###property#-#respected trigram###property#-#respected#-#frequent unigram###respected bigram###respected#-#frequent trigram###respected#-#frequent#-#guest unigram###frequent bigram###frequent#-#guest trigram###frequent#-#guest#-#status unigram###guest bigram###guest#-#status trigram###guest#-#status#-#and unigram###status bigram###status#-#and trigram###status#-#and#-#offered unigram###and bigram###and#-#offered trigram###and#-#offered#-#free unigram###offered bigram###offered#-#free trigram###offered#-#free#-#internet unigram###free bigram###free#-#internet trigram###free#-#internet#-#as unigram###internet bigram###internet#-#as trigram###internet#-#as#-#the unigram###as bigram###as#-#the trigram###as#-#the#-#property unigram###the bigram###the#-#property trigram###the#-#property#-#only unigram###property bigram###property#-#only trigram###property#-#only#-#has unigram###only bigram###only#-#has trigram###only#-#has#-#1 unigram###has bigram###has#-#1 trigram###has#-#1#-#room unigram###1 bigram###1#-#room trigram###1#-#room#-#type unigram###room bigram###room#-#type trigram###room#-#type#-#and unigram###type bigram###type#-#and trigram###type#-#and#-#no unigram###and bigram###and#-#no trigram###and#-#no#-#upgrades unigram###no bigram###no#-#upgrades trigram###no#-#upgrades#-#were unigram###upgrades bigram###upgrades#-#were trigram###upgrades#-#were#-#available unigram###were bigram###were#-#available trigram###were#-#available#-#. unigram###available bigram###available#-#. unigram###. 
0.014613636593933172769244066557803 4:1 56:1 154:1 196:1 253:1 344:1 358:1 468:1 595:1 1679:1 3929:1 5456:1 5828:1 6871:1 12681:1 15471:1 15892:1 16887:1 20071:1 20316:1 20318:2 33887:1 40200:1 51031:1 51032:1 51428:1 58746:1 58747:1 61175:1 61176:1 61177:1 61178:1 61179:1 61180:1 61181:1 61182:1 61183:1 61184:1 61185:1 61186:1 61187:1 61188:1 61189:1 61190:1 61191:1 61192:1 61193:1 61194:1 61195:1 61196:1 61197:1 61198:1 61199:1 61200:1 61201:1 61202:1 61203:1 61204:1 61205:1 #unigram###France bigram###France#-#and trigram###France#-#and#-#Germany unigram###and bigram###and#-#Germany trigram###and#-#Germany#-#are unigram###Germany bigram###Germany#-#are trigram###Germany#-#are#-#US unigram###are bigram###are#-#US trigram###are#-#US#-#allies unigram###US bigram###US#-#allies trigram###US#-#allies#-#, unigram###allies bigram###allies#-#, trigram###allies#-#,#-#but unigram###, bigram###,#-#but trigram###,#-#but#-#they unigram###but bigram###but#-#they trigram###but#-#they#-#have unigram###they bigram###they#-#have trigram###they#-#have#-#voiced unigram###have bigram###have#-#voiced trigram###have#-#voiced#-#anger unigram###voiced bigram###voiced#-#anger trigram###voiced#-#anger#-#over unigram###anger bigram###anger#-#over trigram###anger#-#over#-#the unigram###over bigram###over#-#the trigram###over#-#the#-#US unigram###the bigram###the#-#US trigram###the#-#US#-#snooping unigram###US bigram###US#-#snooping trigram###US#-#snooping#-#activities unigram###snooping bigram###snooping#-#activities trigram###snooping#-#activities#-#disclosed unigram###activities bigram###activities#-#disclosed trigram###activities#-#disclosed#-#by unigram###disclosed bigram###disclosed#-#by trigram###disclosed#-#by#-#Snowden unigram###by bigram###by#-#Snowden trigram###by#-#Snowden#-#. unigram###Snowden bigram###Snowden#-#. unigram###. 
0.00013967639653414141488220467923753 19:1 56:1 154:1 196:1 250:1 253:1 296:1 383:1 449:2 474:1 578:1 710:1 799:1 1720:1 1913:1 2342:1 2784:1 3150:1 4707:1 4709:1 4952:1 4965:1 5631:1 6149:1 8091:1 8093:1 8437:1 9944:1 9945:1 12186:1 12625:1 13263:1 15571:1 16510:1 16511:1 16999:1 35061:1 41166:1 50035:1 50036:1 50037:1 50038:1 50039:1 50040:1 50041:1 50042:1 50043:1 50044:1 50045:1 50046:1 50047:1 50048:1 50049:1 50050:1 50051:1 50052:1 50053:1 50054:1 50055:1 50056:1 50057:1 50058:1 50059:1 50060:1 50061:1 50062:1 50063:1 50064:1 50065:1 50066:1 50067:1 50068:1 50069:1 50070:1 50071:1 50072:1 50073:1 50074:1 50075:1 50076:1 50077:1 50078:1 50079:1 #unigram###Very bigram###Very#-#large trigram###Very#-#large#-#resort unigram###large bigram###large#-#resort trigram###large#-#resort#-#hotel unigram###resort bigram###resort#-#hotel trigram###resort#-#hotel#-#but unigram###hotel bigram###hotel#-#but trigram###hotel#-#but#-#we unigram###but bigram###but#-#we trigram###but#-#we#-#were unigram###we bigram###we#-#were trigram###we#-#were#-#upgraded unigram###were bigram###were#-#upgraded trigram###were#-#upgraded#-#to unigram###upgraded bigram###upgraded#-#to trigram###upgraded#-#to#-#suites unigram###to bigram###to#-#suites trigram###to#-#suites#-#on unigram###suites bigram###suites#-#on trigram###suites#-#on#-#arrival unigram###on bigram###on#-#arrival trigram###on#-#arrival#-#, unigram###arrival bigram###arrival#-#, trigram###arrival#-#,#-#however unigram###, bigram###,#-#however trigram###,#-#however#-#these unigram###however bigram###however#-#these trigram###however#-#these#-#were unigram###these bigram###these#-#were trigram###these#-#were#-#an unigram###were bigram###were#-#an trigram###were#-#an#-#extremely unigram###an bigram###an#-#extremely trigram###an#-#extremely#-#long unigram###extremely bigram###extremely#-#long trigram###extremely#-#long#-#walk unigram###long bigram###long#-#walk trigram###long#-#walk#-#from unigram###walk bigram###walk#-#from trigram###walk#-#from#-#the unigram###from bigram###from#-#the trigram###from#-#the#-#restaurant unigram###the bigram###the#-#restaurant trigram###the#-#restaurant#-#/ unigram###restaurant bigram###restaurant#-#/ trigram###restaurant#-#/#-#reception unigram###/ bigram###/#-#reception trigram###/#-#reception#-#approx unigram###reception bigram###reception#-#approx trigram###reception#-#approx#-#500 unigram###approx bigram###approx#-#500 trigram###approx#-#500#-#metres unigram###500 bigram###500#-#metres trigram###500#-#metres#-#. unigram###metres bigram###metres#-#. unigram###. 
0.0081233302620786294184762610370854 4:1 56:1 109:2 120:1 157:1 196:5 201:3 250:1 253:2 352:1 374:1 474:1 630:1 1365:1 1585:1 1656:2 1736:2 2368:1 2856:1 3150:1 4009:1 6007:1 12673:1 12988:1 13655:1 14411:1 14900:1 19229:1 20498:1 20697:1 24142:1 25732:1 26577:1 30612:1 32878:1 40072:1 42349:1 51576:2 52860:1 55354:1 56378:1 56695:1 56746:1 59541:1 61626:1 63690:1 63691:1 63692:1 63693:1 63694:1 63695:1 63696:1 63697:1 63698:1 63699:1 63700:1 63701:1 63702:1 63703:1 63704:1 63705:1 63706:1 63707:1 63708:1 63709:1 63710:1 63711:1 63712:1 63713:1 63714:1 63715:1 63716:1 63717:1 63718:1 63719:1 63720:1 63721:1 63722:1 63723:1 63724:1 63725:1 63726:1 63727:1 63728:1 63729:1 63730:1 63731:1 63732:1 63733:1 63734:1 63735:1 63736:1 63737:1 63738:1 63739:1 63740:1 63741:1 63742:1 63743:1 63744:1 63745:1 63746:1 63747:1 63748:1 63749:1 63750:1 63751:1 63752:1 63753:1 63754:1 63755:1 63756:1 63757:1 63758:1 63759:1 63760:1 63761:1 63762:1 63763:1 63764:1 63765:1 63766:1 63767:1 63768:1 63769:1 63770:1 63771:1 63772:1 63773:1 63774:1 63775:1 63776:1 63777:1 63778:1 63779:1 63780:1 #unigram###But bigram###But#-#the trigram###But#-#the#-#half unigram###the bigram###the#-#half trigram###the#-#half#-#Scot unigram###half bigram###half#-#Scot trigram###half#-#Scot#-#, unigram###Scot bigram###Scot#-#, trigram###Scot#-#,#-#who unigram###, bigram###,#-#who trigram###,#-#who#-#was unigram###who bigram###who#-#was trigram###who#-#was#-#born unigram###was bigram###was#-#born trigram###was#-#born#-#in unigram###born bigram###born#-#in trigram###born#-#in#-#West unigram###in bigram###in#-#West trigram###in#-#West#-#Berlin unigram###West bigram###West#-#Berlin trigram###West#-#Berlin#-#to unigram###Berlin bigram###Berlin#-#to trigram###Berlin#-#to#-#James unigram###to bigram###to#-#James trigram###to#-#James#-#McAllister unigram###James bigram###James#-#McAllister trigram###James#-#McAllister#-#, unigram###McAllister bigram###McAllister#-#, trigram###McAllister#-#,#-#a unigram###, bigram###,#-#a trigram###,#-#a#-#British unigram###a bigram###a#-#British trigram###a#-#British#-#army unigram###British bigram###British#-#army trigram###British#-#army#-#father unigram###army bigram###army#-#father trigram###army#-#father#-#from unigram###father bigram###father#-#from trigram###father#-#from#-#a unigram###from bigram###from#-#a trigram###from#-#a#-#working-class unigram###a bigram###a#-#working-class trigram###a#-#working-class#-#part unigram###working-class bigram###working-class#-#part trigram###working-class#-#part#-#of unigram###part bigram###part#-#of trigram###part#-#of#-#Glasgow unigram###of bigram###of#-#Glasgow trigram###of#-#Glasgow#-#who unigram###Glasgow bigram###Glasgow#-#who trigram###Glasgow#-#who#-#was unigram###who bigram###who#-#was trigram###who#-#was#-#serving unigram###was bigram###was#-#serving trigram###was#-#serving#-#with unigram###serving bigram###serving#-#with trigram###serving#-#with#-#the unigram###with bigram###with#-#the trigram###with#-#the#-#Signal unigram###the bigram###the#-#Signal trigram###the#-#Signal#-#Corps unigram###Signal bigram###Signal#-#Corps trigram###Signal#-#Corps#-#, unigram###Corps bigram###Corps#-#, trigram###Corps#-#,#-#and unigram###, bigram###,#-#and trigram###,#-#and#-#a unigram###and bigram###and#-#a trigram###and#-#a#-#German unigram###a bigram###a#-#German trigram###a#-#German#-#music unigram###German bigram###German#-#music trigram###German#-#music#-#teacher unigram###music bigram###music#-#teacher trigram###music#-#teacher#-#mother unigram###teacher bigram###teacher#-#mother trigram###teacher#-#mother#-#, unigram###mother bigram###mother#-#, trigram###mother#-#,#-#Mechthild unigram###, bigram###,#-#Mechthild trigram###,#-#Mechthild#-#, unigram###Mechthild bigram###Mechthild#-#, trigram###Mechthild#-#,#-#says unigram###, bigram###,#-#says trigram###,#-#says#-#he unigram###says bigram###says#-#he trigram###says#-#he#-#has unigram###he bigram###he#-#has trigram###he#-#has#-#no unigram###has bigram###has#-#no trigram###has#-#no#-#designs unigram###no bigram###no#-#designs trigram###no#-#designs#-#on unigram###designs bigram###designs#-#on trigram###designs#-#on#-#Berlin unigram###on bigram###on#-#Berlin trigram###on#-#Berlin#-#. unigram###Berlin bigram###Berlin#-#. unigram###. 
-0.075919546842851376444727407033497 56:1 187:1 253:1 474:1 743:1 1196:1 1867:1 4184:1 22536:1 22637:1 22638:1 22639:1 22640:1 22641:1 22642:1 22643:1 22644:1 22645:1 22646:1 22647:1 22648:1 #unigram###Went bigram###Went#-#to trigram###Went#-#to#-#Daniela unigram###to bigram###to#-#Daniela trigram###to#-#Daniela#-#for unigram###Daniela bigram###Daniela#-#for trigram###Daniela#-#for#-#the unigram###for bigram###for#-#the trigram###for#-#the#-#first unigram###the bigram###the#-#first trigram###the#-#first#-#time unigram###first bigram###first#-#time trigram###first#-#time#-#. unigram###time bigram###time#-#. unigram###. 
0.07178971990386842638720565901167 56:1 57:1 181:1 187:1 1074:1 1352:1 3402:1 3403:1 3404:1 3405:1 3406:1 3407:1 3408:1 3409:1 5372:1 5661:1 5662:1 5663:1 #unigram###Staff bigram###Staff#-#cannot trigram###Staff#-#cannot#-#do unigram###cannot bigram###cannot#-#do trigram###cannot#-#do#-#enough unigram###do bigram###do#-#enough trigram###do#-#enough#-#for unigram###enough bigram###enough#-#for trigram###enough#-#for#-#you unigram###for bigram###for#-#you trigram###for#-#you#-#. unigram###you bigram###you#-#. unigram###. 
0.018321496982812868897783076249652 10:1 56:1 271:1 352:1 445:1 532:1 1917:1 1918:1 2252:1 2440:1 3036:1 3147:1 3148:1 3150:1 4409:1 4523:1 5171:1 8555:1 28037:1 28757:1 30778:1 30779:1 30780:1 30781:1 30782:1 30783:1 30784:1 30785:1 30786:1 30787:1 30788:1 30789:1 30790:1 30791:1 30792:1 30793:1 30794:1 30795:1 30796:1 30797:1 30798:1 30799:1 #unigram###Hotel bigram###Hotel#-#is trigram###Hotel#-#is#-#placed unigram###is bigram###is#-#placed trigram###is#-#placed#-#about unigram###placed bigram###placed#-#about trigram###placed#-#about#-#30 unigram###about bigram###about#-#30 trigram###about#-#30#-#minutes unigram###30 bigram###30#-#minutes trigram###30#-#minutes#-#from unigram###minutes bigram###minutes#-#from trigram###minutes#-#from#-#center unigram###from bigram###from#-#center trigram###from#-#center#-#of unigram###center bigram###center#-#of trigram###center#-#of#-#Paris unigram###of bigram###of#-#Paris trigram###of#-#Paris#-#· unigram###Paris bigram###Paris#-#· trigram###Paris#-#·#-#metro unigram###· bigram###·#-#metro trigram###·#-#metro#-#line unigram###metro bigram###metro#-#line trigram###metro#-#line#-#12 unigram###line bigram###line#-#12 trigram###line#-#12#-#. unigram###12 bigram###12#-#. unigram###. 
-0.14413383672369450838601778741577 474:1 2142:1 2143:1 5096:1 15649:1 15651:1 28292:1 28293:1 28294:1 #unigram###City bigram###City#-#trip trigram###City#-#trip#-#to unigram###trip bigram###trip#-#to trigram###trip#-#to#-#Amsterdam unigram###to bigram###to#-#Amsterdam unigram###Amsterdam 
-0.038164524222633000594129271121346 56:1 157:1 175:1 253:2 986:1 1556:1 1671:1 14120:1 20316:1 20318:1 26996:1 44808:1 50816:1 52578:1 60967:1 62040:1 68488:1 70565:1 70566:1 70567:1 70568:1 70569:1 70570:1 70571:1 70572:1 70573:1 70574:1 70575:1 70576:1 70577:1 70578:1 70579:1 70580:1 70581:1 70582:1 70583:1 70584:1 70585:1 70586:1 70587:1 70588:1 70589:1 70590:1 70591:1 #unigram###Sky bigram###Sky#-#'s trigram###Sky#-#'s#-#Mark unigram###'s bigram###'s#-#Mark trigram###'s#-#Mark#-#Stone unigram###Mark bigram###Mark#-#Stone trigram###Mark#-#Stone#-#said unigram###Stone bigram###Stone#-#said trigram###Stone#-#said#-#the unigram###said bigram###said#-#the trigram###said#-#the#-#judicial unigram###the bigram###the#-#judicial trigram###the#-#judicial#-#process unigram###judicial bigram###judicial#-#process trigram###judicial#-#process#-#in unigram###process bigram###process#-#in trigram###process#-#in#-#the unigram###in bigram###in#-#the trigram###in#-#the#-#US unigram###the bigram###the#-#US trigram###the#-#US#-#would unigram###US bigram###US#-#would trigram###US#-#would#-#begin unigram###would bigram###would#-#begin trigram###would#-#begin#-#almost unigram###begin bigram###begin#-#almost trigram###begin#-#almost#-#immediately unigram###almost bigram###almost#-#immediately trigram###almost#-#immediately#-#. unigram###immediately bigram###immediately#-#. unigram###. 
0.045149777244498451311827125209675 253:1 474:1 607:1 1917:1 6374:1 6375:1 6376:1 6377:1 8067:1 13921:1 17006:1 25798:1 25799:1 25800:1 25801:1 25802:1 25803:1 25804:1 25805:1 25806:1 25807:1 #unigram###+ bigram###+#-#Next trigram###+#-#Next#-#to unigram###Next bigram###Next#-#to trigram###Next#-#to#-#the unigram###to bigram###to#-#the trigram###to#-#the#-#city unigram###the bigram###the#-#city trigram###the#-#city#-#center unigram###city bigram###city#-#center trigram###city#-#center#-#Port unigram###center bigram###center#-#Port trigram###center#-#Port#-#Vieuz unigram###Port bigram###Port#-#Vieuz unigram###Vieuz 
0.0218204297184054311908862899827 4:1 56:1 2294:1 3211:1 3985:1 4127:1 16109:1 24759:1 26169:1 37101:1 37133:1 53053:1 53054:1 53055:1 53056:1 53057:1 53058:1 53059:1 53060:1 53061:1 53062:1 53063:1 53064:1 53065:1 53066:1 53067:1 53068:1 53069:1 53070:1 53071:1 53072:1 53073:1 53074:1 #unigram###Poland bigram###Poland#-#and trigram###Poland#-#and#-#its unigram###and bigram###and#-#its trigram###and#-#its#-#ex-communist unigram###its bigram###its#-#ex-communist trigram###its#-#ex-communist#-#neighbours unigram###ex-communist bigram###ex-communist#-#neighbours trigram###ex-communist#-#neighbours#-#want unigram###neighbours bigram###neighbours#-#want trigram###neighbours#-#want#-#current unigram###want bigram###want#-#current trigram###want#-#current#-#spending unigram###current bigram###current#-#spending trigram###current#-#spending#-#maintained unigram###spending bigram###spending#-#maintained trigram###spending#-#maintained#-#or unigram###maintained bigram###maintained#-#or trigram###maintained#-#or#-#raised unigram###or bigram###or#-#raised trigram###or#-#raised#-#. unigram###raised bigram###raised#-#. unigram###. 
0.042573035318662820480906106013208 445:1 6104:1 8485:2 27928:1 27929:1 27930:1 27931:1 27932:1 #unigram###Poor bigram###Poor#-#Service trigram###Poor#-#Service#-#Poor unigram###Service bigram###Service#-#Poor trigram###Service#-#Poor#-#Hotel unigram###Poor bigram###Poor#-#Hotel unigram###Hotel 
0.048709641718626392470348207552888 445:1 2202:1 22997:1 22998:1 22999:1 23000:1 #unigram###Nice bigram###Nice#-#Affordable trigram###Nice#-#Affordable#-#Hotel unigram###Affordable bigram###Affordable#-#Hotel unigram###Hotel 
0.0094336203294147439463168680617855 4:1 56:1 424:1 2377:1 2512:1 3896:1 22463:1 22464:1 22465:1 22466:1 22467:1 22468:1 22469:1 22470:1 22471:1 #unigram###really bigram###really#-#load trigram###really#-#load#-#and unigram###load bigram###load#-#and trigram###load#-#and#-#unfriendly unigram###and bigram###and#-#unfriendly trigram###and#-#unfriendly#-#staff unigram###unfriendly bigram###unfriendly#-#staff trigram###unfriendly#-#staff#-#. unigram###staff bigram###staff#-#. unigram###. 
0.013272850195938016779062529337807 10:1 56:1 87:1 88:1 89:1 90:1 91:1 92:1 93:1 94:1 95:1 96:1 97:1 98:1 99:1 100:1 101:1 102:1 #unigram###The bigram###The#-#room trigram###The#-#room#-#itself unigram###room bigram###room#-#itself trigram###room#-#itself#-#is unigram###itself bigram###itself#-#is trigram###itself#-#is#-#different unigram###is bigram###is#-#different trigram###is#-#different#-#story unigram###different bigram###different#-#story trigram###different#-#story#-#. unigram###story bigram###story#-#. unigram###. 
0.079845693321733954284091794306732 56:1 3506:1 8358:1 18367:1 18368:1 18369:1 18370:1 18371:1 18372:1 18373:1 18374:1 18375:1 #unigram###Complaints bigram###Complaints#-#handling trigram###Complaints#-#handling#-#took unigram###handling bigram###handling#-#took trigram###handling#-#took#-#hours unigram###took bigram###took#-#hours trigram###took#-#hours#-#. unigram###hours bigram###hours#-#. unigram###. 
-0.073905819511658532583453506958904 10:1 19:1 22:2 56:1 87:1 196:1 253:2 273:1 274:1 275:1 484:1 6882:1 6883:1 6884:1 6885:1 8526:2 17495:1 19150:1 19151:1 19152:1 19153:1 19154:1 19155:1 19156:1 19157:1 19158:1 19159:1 19160:1 19161:1 19162:1 19163:1 19164:1 19165:1 19166:1 19167:1 19168:1 #unigram###The bigram###The#-#hotel trigram###The#-#hotel#-#is unigram###hotel bigram###hotel#-#is trigram###hotel#-#is#-#located unigram###is bigram###is#-#located trigram###is#-#located#-#near unigram###located bigram###located#-#near trigram###located#-#near#-#the unigram###near bigram###near#-#the trigram###near#-#the#-#ring unigram###the bigram###the#-#ring trigram###the#-#ring#-#road unigram###ring bigram###ring#-#road trigram###ring#-#road#-#, unigram###road bigram###road#-#, trigram###road#-#,#-#near unigram###, bigram###,#-#near trigram###,#-#near#-#the unigram###near bigram###near#-#the trigram###near#-#the#-#football unigram###the bigram###the#-#football trigram###the#-#football#-#stadium unigram###football bigram###football#-#stadium trigram###football#-#stadium#-#. unigram###stadium bigram###stadium#-#. unigram###. 
0.0004087220109188403026345692836685 4:1 56:1 62:1 76:1 212:1 250:1 446:1 449:1 474:1 661:1 700:1 887:1 889:1 1814:1 4164:1 4679:1 4680:1 4681:1 4682:2 4683:1 4684:1 4685:1 4686:1 4687:1 4688:1 4689:1 4690:1 4691:1 4692:1 4693:1 4694:1 4695:1 4696:1 4697:1 4698:1 4699:1 4700:1 4701:1 4702:1 4703:1 4704:1 4705:1 4706:1 4707:1 4708:1 4709:1 4710:1 #unigram###We bigram###We#-#had trigram###We#-#had#-#eight unigram###had bigram###had#-#eight trigram###had#-#eight#-#rooms unigram###eight bigram###eight#-#rooms trigram###eight#-#rooms#-#and unigram###rooms bigram###rooms#-#and trigram###rooms#-#and#-#all unigram###and bigram###and#-#all trigram###and#-#all#-#eight unigram###all bigram###all#-#eight trigram###all#-#eight#-#couples unigram###eight bigram###eight#-#couples trigram###eight#-#couples#-#were unigram###couples bigram###couples#-#were trigram###couples#-#were#-#made unigram###were bigram###were#-#made trigram###were#-#made#-#to unigram###made bigram###made#-#to trigram###made#-#to#-#feel unigram###to bigram###to#-#feel trigram###to#-#feel#-#very unigram###feel bigram###feel#-#very trigram###feel#-#very#-#welcome unigram###very bigram###very#-#welcome trigram###very#-#welcome#-#on unigram###welcome bigram###welcome#-#on trigram###welcome#-#on#-#arrival unigram###on bigram###on#-#arrival trigram###on#-#arrival#-#. unigram###arrival bigram###arrival#-#. unigram###. 
0.010155051493466125608899908172589 56:1 196:1 253:1 584:1 2087:1 4089:1 5111:1 5565:1 12729:1 14120:1 19436:1 50814:1 50815:1 50816:1 53317:1 55792:1 57380:1 57381:1 57382:1 57383:1 57384:1 57385:1 57386:1 57387:1 57388:1 57389:1 57390:1 57391:1 57392:1 57393:1 57394:1 57395:1 57396:1 57397:1 57398:1 57399:1 57400:1 57401:1 57402:1 57403:1 57404:1 57405:1 57406:1 57407:1 57408:1 57409:1 57410:1 57411:1 57412:1 57413:1 57414:1 57415:1 57416:1 57417:1 #unigram###Firms bigram###Firms#-#assessed trigram###Firms#-#assessed#-#their unigram###assessed bigram###assessed#-#their trigram###assessed#-#their#-#business unigram###their bigram###their#-#business trigram###their#-#business#-#outlook unigram###business bigram###business#-#outlook trigram###business#-#outlook#-#slightly unigram###outlook bigram###outlook#-#slightly trigram###outlook#-#slightly#-#less unigram###slightly bigram###slightly#-#less trigram###slightly#-#less#-#optimistically unigram###less bigram###less#-#optimistically trigram###less#-#optimistically#-#than unigram###optimistically bigram###optimistically#-#than trigram###optimistically#-#than#-#last unigram###than bigram###than#-#last trigram###than#-#last#-#month unigram###last bigram###last#-#month trigram###last#-#month#-#, unigram###month bigram###month#-#, trigram###month#-#,#-#said unigram###, bigram###,#-#said trigram###,#-#said#-#the unigram###said bigram###said#-#the trigram###said#-#the#-#think-tanks unigram###the bigram###the#-#think-tanks trigram###the#-#think-tanks#-#economist unigram###think-tanks bigram###think-tanks#-#economist trigram###think-tanks#-#economist#-#Kai unigram###economist bigram###economist#-#Kai trigram###economist#-#Kai#-#Carstensen unigram###Kai bigram###Kai#-#Carstensen trigram###Kai#-#Carstensen#-#. unigram###Carstensen bigram###Carstensen#-#. unigram###. 
0.013423671328291161483625693051636 56:1 196:1 2494:1 3402:1 6130:1 8732:1 18893:1 18894:1 18895:1 18896:1 18897:1 18898:1 18899:1 18900:1 18901:1 18902:1 18903:1 18904:1 #unigram###No bigram###No#-#balcony trigram###No#-#balcony#-#, unigram###balcony bigram###balcony#-#, trigram###balcony#-#,#-#cannot unigram###, bigram###,#-#cannot trigram###,#-#cannot#-#open unigram###cannot bigram###cannot#-#open trigram###cannot#-#open#-#windows unigram###open bigram###open#-#windows trigram###open#-#windows#-#. unigram###windows bigram###windows#-#. unigram###. 
0.0039853725477845460684056533295916 4:2 56:1 62:1 109:1 120:1 164:1 187:1 201:2 253:2 271:2 283:2 301:1 446:1 474:1 736:1 855:1 857:2 887:1 889:1 1561:1 1562:1 1876:1 2079:1 2080:1 2081:1 2082:1 2083:1 2084:1 2085:1 2086:1 2087:1 2088:1 2089:1 2090:1 2091:1 2092:1 2093:1 2094:1 2095:1 2096:1 2097:1 2098:1 2099:1 2100:2 2101:2 2102:1 2103:1 2104:1 2105:1 2106:1 2107:1 2108:1 2109:1 2110:1 2111:1 2112:1 2113:1 2114:1 2115:1 2116:1 2117:1 2118:1 2119:1 2120:1 2121:1 2122:1 2123:1 2124:1 2125:1 2126:1 2127:1 2128:1 2129:1 #unigram###We bigram###We#-#had trigram###We#-#had#-#a unigram###had bigram###had#-#a trigram###had#-#a#-#4 unigram###a bigram###a#-#4 trigram###a#-#4#-#· unigram###4 bigram###4#-#· trigram###4#-#·#-#month unigram###· bigram###·#-#month trigram###·#-#month#-#· unigram###month bigram###month#-#· trigram###month#-#·#-#old unigram###· bigram###·#-#old trigram###·#-#old#-#baby unigram###old bigram###old#-#baby trigram###old#-#baby#-#with unigram###baby bigram###baby#-#with trigram###baby#-#with#-#us unigram###with bigram###with#-#us trigram###with#-#us#-#and unigram###us bigram###us#-#and trigram###us#-#and#-#the unigram###and bigram###and#-#the trigram###and#-#the#-#personnel unigram###the bigram###the#-#personnel trigram###the#-#personnel#-#was unigram###personnel bigram###personnel#-#was trigram###personnel#-#was#-#very unigram###was bigram###was#-#very trigram###was#-#very#-#keen unigram###very bigram###very#-#keen trigram###very#-#keen#-#to unigram###keen bigram###keen#-#to trigram###keen#-#to#-#find unigram###to bigram###to#-#find trigram###to#-#find#-#a unigram###find bigram###find#-#a trigram###find#-#a#-#good unigram###a bigram###a#-#good trigram###a#-#good#-#table unigram###good bigram###good#-#table trigram###good#-#table#-#for unigram###table bigram###table#-#for trigram###table#-#for#-#us unigram###for bigram###for#-#us trigram###for#-#us#-#and unigram###us bigram###us#-#and trigram###us#-#and#-#the unigram###and bigram###and#-#the trigram###and#-#the#-#stroller unigram###the bigram###the#-#stroller trigram###the#-#stroller#-#. unigram###stroller bigram###stroller#-#. unigram###. 
0.017374227986565553977227338577904 56:1 157:1 190:1 253:1 352:1 427:1 799:1 889:1 1556:1 1974:1 1975:1 4342:1 4344:1 4414:1 4415:1 4433:1 5335:1 5336:1 5337:1 5339:1 18674:1 21403:1 24911:1 26402:1 29749:1 29750:1 29751:1 29752:1 29753:1 29754:1 29755:1 29756:1 29757:1 29758:1 29759:1 29760:1 #unigram###It bigram###It#-#'s trigram###It#-#'s#-#one unigram###'s bigram###'s#-#one trigram###'s#-#one#-#of unigram###one bigram###one#-#of trigram###one#-#of#-#the unigram###of bigram###of#-#the trigram###of#-#the#-#best unigram###the bigram###the#-#best trigram###the#-#best#-#holidays unigram###best bigram###best#-#holidays trigram###best#-#holidays#-#we unigram###holidays bigram###holidays#-#we trigram###holidays#-#we#-#ever unigram###we bigram###we#-#ever trigram###we#-#ever#-#had unigram###ever bigram###ever#-#had trigram###ever#-#had#-#in unigram###had bigram###had#-#in trigram###had#-#in#-#hurghada unigram###in bigram###in#-#hurghada trigram###in#-#hurghada#-#. unigram###hurghada bigram###hurghada#-#. unigram###. 
0.032255797925593771013907939959608 7:1 56:1 109:1 157:1 2763:1 2764:1 4410:1 51238:1 51487:1 56764:1 56765:1 56766:1 56767:1 56768:1 56769:1 56770:1 56771:1 56772:1 56773:1 56774:1 56775:1 #unigram###This bigram###This#-#was trigram###This#-#was#-#angrily unigram###was bigram###was#-#angrily trigram###was#-#angrily#-#batted unigram###angrily bigram###angrily#-#batted trigram###angrily#-#batted#-#back unigram###batted bigram###batted#-#back trigram###batted#-#back#-#in unigram###back bigram###back#-#in trigram###back#-#in#-#Athens unigram###in bigram###in#-#Athens trigram###in#-#Athens#-#. unigram###Athens bigram###Athens#-#. unigram###. 
0.0059944912851979306050997919896872 56:1 109:1 201:1 250:1 251:1 253:1 352:1 1883:1 2568:1 6331:1 6544:1 7505:1 12840:1 16855:1 16856:1 16857:1 16858:1 16897:1 18422:1 23736:1 23737:1 23738:1 23739:1 23740:1 23741:1 23742:1 23743:1 23744:1 23745:1 23746:1 #unigram###There bigram###There#-#was trigram###There#-#was#-#a unigram###was bigram###was#-#a trigram###was#-#a#-#certain unigram###a bigram###a#-#certain trigram###a#-#certain#-#amount unigram###certain bigram###certain#-#amount trigram###certain#-#amount#-#of unigram###amount bigram###amount#-#of trigram###amount#-#of#-#dust unigram###of bigram###of#-#dust trigram###of#-#dust#-#on unigram###dust bigram###dust#-#on trigram###dust#-#on#-#the unigram###on bigram###on#-#the trigram###on#-#the#-#floor unigram###the bigram###the#-#floor trigram###the#-#floor#-#. unigram###floor bigram###floor#-#. unigram###. 
0.040283581603649490365803842450987 13:1 120:1 261:1 3728:1 7844:1 7845:1 7846:1 7847:1 7848:1 7849:1 7850:1 7851:1 7852:1 7853:1 7854:1 7855:1 7856:1 7857:1 #unigram###18th bigram###18th#-#century trigram###18th#-#century#-#luxury unigram###century bigram###century#-#luxury trigram###century#-#luxury#-#with unigram###luxury bigram###luxury#-#with trigram###luxury#-#with#-#modern unigram###with bigram###with#-#modern trigram###with#-#modern#-#comfort unigram###modern bigram###modern#-#comfort trigram###modern#-#comfort#-#! unigram###comfort bigram###comfort#-#! unigram###! 
0.0042328878830184320930518637737805 4:1 19:1 56:1 79:1 80:1 82:1 106:1 135:1 154:1 157:1 196:1 240:1 253:2 283:1 352:1 358:1 412:1 799:1 958:1 2583:1 2822:1 2823:1 2825:1 3138:1 3214:1 3597:1 3598:1 3599:1 5435:1 6501:1 7020:1 8502:1 8503:1 8504:2 8505:1 8507:1 8519:1 8520:1 8641:1 8642:1 8643:1 8644:1 8645:1 8646:1 8647:1 8648:1 8649:1 8650:1 8651:1 8652:1 8653:1 8654:1 8655:1 8656:1 8657:1 8658:1 8659:1 8660:1 8661:1 8662:1 8663:1 8664:1 8665:1 8666:1 8667:1 8668:1 8669:1 8670:1 8671:1 8672:1 8673:1 8674:1 8675:1 8676:1 8677:1 8678:1 8679:1 8680:1 8681:1 8682:1 8683:1 8684:1 #unigram###I bigram###I#-#remeber trigram###I#-#remeber#-#we unigram###remeber bigram###remeber#-#we trigram###remeber#-#we#-#booked unigram###we bigram###we#-#booked trigram###we#-#booked#-#the unigram###booked bigram###booked#-#the trigram###booked#-#the#-#hotel unigram###the bigram###the#-#hotel trigram###the#-#hotel#-#mainly unigram###hotel bigram###hotel#-#mainly trigram###hotel#-#mainly#-#because unigram###mainly bigram###mainly#-#because trigram###mainly#-#because#-#of unigram###because bigram###because#-#of trigram###because#-#of#-#it unigram###of bigram###of#-#it trigram###of#-#it#-#´ unigram###it bigram###it#-#´ trigram###it#-#´#-#s unigram###´ bigram###´#-#s trigram###´#-#s#-#central unigram###s bigram###s#-#central trigram###s#-#central#-#location unigram###central bigram###central#-#location trigram###central#-#location#-#and unigram###location bigram###location#-#and trigram###location#-#and#-#the unigram###and bigram###and#-#the trigram###and#-#the#-#price unigram###the bigram###the#-#price trigram###the#-#price#-#, unigram###price bigram###price#-#, trigram###price#-#,#-#but unigram###, bigram###,#-#but trigram###,#-#but#-#definately unigram###but bigram###but#-#definately trigram###but#-#definately#-#wouldn unigram###definately bigram###definately#-#wouldn trigram###definately#-#wouldn#-#´ unigram###wouldn bigram###wouldn#-#´ trigram###wouldn#-#´#-#t unigram###´ bigram###´#-#t trigram###´#-#t#-#repeat unigram###t bigram###t#-#repeat trigram###t#-#repeat#-#my unigram###repeat bigram###repeat#-#my trigram###repeat#-#my#-#stay unigram###my bigram###my#-#stay trigram###my#-#stay#-#in unigram###stay bigram###stay#-#in trigram###stay#-#in#-#there unigram###in bigram###in#-#there trigram###in#-#there#-#. unigram###there bigram###there#-#. unigram###. 
0.019425750573889736388943916267635 4:1 157:1 253:1 406:1 986:1 2502:1 3150:1 6835:1 7404:1 7405:1 7406:1 7407:1 7408:1 7409:1 7410:1 7411:1 7412:1 7413:1 7414:1 7415:1 7416:1 7417:1 7418:1 7419:1 7420:1 7421:1 7422:1 #unigram###Swiming bigram###Swiming#-#swans trigram###Swiming#-#swans#-#in unigram###swans bigram###swans#-#in trigram###swans#-#in#-#the unigram###in bigram###in#-#the trigram###in#-#the#-#pond unigram###the bigram###the#-#pond trigram###the#-#pond#-#and unigram###pond bigram###pond#-#and trigram###pond#-#and#-#park unigram###and bigram###and#-#park trigram###and#-#park#-#view unigram###park bigram###park#-#view trigram###park#-#view#-#from unigram###view bigram###view#-#from trigram###view#-#from#-#lobby unigram###from bigram###from#-#lobby unigram###lobby 
0.0077643696095263670109432041499531 19:1 56:1 82:1 175:1 196:1 389:1 390:1 391:1 392:1 393:1 394:1 395:1 474:1 799:2 966:1 999:1 1239:1 1240:1 2654:1 2655:1 3621:1 3655:1 3774:1 3775:1 3776:1 3777:1 3778:1 3779:1 3780:1 3781:1 3782:1 3783:1 3784:1 3785:1 3786:1 3787:1 3788:1 3789:1 3790:1 3791:1 3792:1 3793:1 3794:1 3795:1 3796:1 3797:1 3798:1 #unigram###If bigram###If#-#we trigram###If#-#we#-#plan unigram###we bigram###we#-#plan trigram###we#-#plan#-#another unigram###plan bigram###plan#-#another trigram###plan#-#another#-#visit unigram###another bigram###another#-#visit trigram###another#-#visit#-#to unigram###visit bigram###visit#-#to trigram###visit#-#to#-#Cologne unigram###to bigram###to#-#Cologne trigram###to#-#Cologne#-#, unigram###Cologne bigram###Cologne#-#, trigram###Cologne#-#,#-#we unigram###, bigram###,#-#we trigram###,#-#we#-#would unigram###we bigram###we#-#would trigram###we#-#would#-#certainly unigram###would bigram###would#-#certainly trigram###would#-#certainly#-#stay unigram###certainly bigram###certainly#-#stay trigram###certainly#-#stay#-#at unigram###stay bigram###stay#-#at trigram###stay#-#at#-#this unigram###at bigram###at#-#this trigram###at#-#this#-#hotel unigram###this bigram###this#-#hotel trigram###this#-#hotel#-#again unigram###hotel bigram###hotel#-#again trigram###hotel#-#again#-#. unigram###again bigram###again#-#. unigram###. 
-0.5 56:1 62:1 196:1 253:1 352:1 474:2 651:1 661:2 1074:2 1196:1 1873:1 2681:1 2731:1 3724:1 5332:1 8849:1 8937:1 10797:1 10798:1 10799:1 10800:1 10835:1 10836:1 10837:1 10838:1 10839:1 10840:1 10841:1 10842:1 10843:1 10844:1 10845:1 10846:1 10847:1 10848:1 10849:1 10850:1 10851:1 10852:1 10853:1 10854:1 10855:1 10856:1 10857:1 10858:1 10859:1 10860:1 10861:1 10862:1 10863:2 10864:1 10865:1 10866:1 10867:1 10868:1 10869:1 10870:1 10871:1 10872:1 10873:1 10874:1 10875:1 10876:1 10877:1 10878:1 10879:1 10880:1 10881:1 10882:1 10883:1 10884:1 #unigram###One bigram###One#-#big trigram###One#-#big#-#minus unigram###big bigram###big#-#minus trigram###big#-#minus#-#, unigram###minus bigram###minus#-#, trigram###minus#-#,#-#prepare unigram###, bigram###,#-#prepare trigram###,#-#prepare#-#yourself unigram###prepare bigram###prepare#-#yourself trigram###prepare#-#yourself#-#to unigram###yourself bigram###yourself#-#to trigram###yourself#-#to#-#very unigram###to bigram###to#-#very trigram###to#-#very#-#persistent unigram###very bigram###very#-#persistent trigram###very#-#persistent#-#shop unigram###persistent bigram###persistent#-#shop trigram###persistent#-#shop#-#workers unigram###shop bigram###shop#-#workers trigram###shop#-#workers#-#that unigram###workers bigram###workers#-#that trigram###workers#-#that#-#bother unigram###that bigram###that#-#bother trigram###that#-#bother#-#you unigram###bother bigram###bother#-#you trigram###bother#-#you#-#all unigram###you bigram###you#-#all trigram###you#-#all#-#the unigram###all bigram###all#-#the trigram###all#-#the#-#time unigram###the bigram###the#-#time trigram###the#-#time#-#trying unigram###time bigram###time#-#trying trigram###time#-#trying#-#to unigram###trying bigram###trying#-#to trigram###trying#-#to#-#sell unigram###to bigram###to#-#sell trigram###to#-#sell#-#you unigram###sell bigram###sell#-#you trigram###sell#-#you#-#all unigram###you bigram###you#-#all trigram###you#-#all#-#kind unigram###all bigram###all#-#kind trigram###all#-#kind#-#of unigram###kind bigram###kind#-#of trigram###kind#-#of#-#things unigram###of bigram###of#-#things trigram###of#-#things#-#. unigram###things bigram###things#-#. unigram###. 
0.043995753155551570179326859033608 157:1 445:1 474:1 2257:1 2272:1 2847:1 17273:1 17274:1 34275:1 41345:1 41346:1 41347:1 41348:1 41349:1 41350:1 41351:1 41352:1 41353:1 #unigram###Hotel bigram###Hotel#-#in trigram###Hotel#-#in#-#Siena unigram###in bigram###in#-#Siena trigram###in#-#Siena#-#close unigram###Siena bigram###Siena#-#close trigram###Siena#-#close#-#to unigram###close bigram###close#-#to trigram###close#-#to#-#railway unigram###to bigram###to#-#railway trigram###to#-#railway#-#station unigram###railway bigram###railway#-#station unigram###station 
0.029763139041144848900843911110314 4:1 56:1 62:1 106:1 196:1 212:1 391:1 446:1 474:3 542:1 630:1 659:1 661:1 692:1 887:1 889:1 1006:2 1007:1 1008:2 1009:1 1294:1 1383:1 2913:1 3180:1 3183:1 3184:1 4574:1 4701:1 6596:1 6597:1 6598:1 7949:1 36137:1 36138:1 36139:1 36140:1 36141:1 36142:1 36143:1 36144:1 36145:1 36146:1 36147:1 36148:1 36149:1 36150:1 36151:1 36152:1 36153:1 36154:1 36155:1 36156:1 36157:1 #unigram###We bigram###We#-#had trigram###We#-#had#-#to unigram###had bigram###had#-#to trigram###had#-#to#-#go unigram###to bigram###to#-#go trigram###to#-#go#-#through unigram###go bigram###go#-#through trigram###go#-#through#-#it unigram###through bigram###through#-#it trigram###through#-#it#-#to unigram###it bigram###it#-#to trigram###it#-#to#-#go unigram###to bigram###to#-#go trigram###to#-#go#-#to unigram###go bigram###go#-#to trigram###go#-#to#-#sleep unigram###to bigram###to#-#sleep trigram###to#-#sleep#-#, unigram###sleep bigram###sleep#-#, trigram###sleep#-#,#-#and unigram###, bigram###,#-#and trigram###,#-#and#-#did unigram###and bigram###and#-#did trigram###and#-#did#-#not unigram###did bigram###did#-#not trigram###did#-#not#-#feel unigram###not bigram###not#-#feel trigram###not#-#feel#-#very unigram###feel bigram###feel#-#very trigram###feel#-#very#-#safe unigram###very bigram###very#-#safe trigram###very#-#safe#-#at unigram###safe bigram###safe#-#at trigram###safe#-#at#-#all unigram###at bigram###at#-#all trigram###at#-#all#-#. unigram###all bigram###all#-#. unigram###. 
-0.0059372167345716131067745457983165 56:1 109:1 196:2 250:1 253:1 352:1 474:1 1932:1 4102:1 4184:1 12865:1 13695:1 18200:1 19639:1 21082:1 21084:1 22536:1 26196:1 33038:1 42897:1 56186:1 56682:1 60449:1 61802:1 62883:1 62895:1 63014:1 63015:1 63016:1 63017:1 63018:1 63019:1 63020:1 63021:1 63022:1 63023:1 63024:1 63025:1 63026:1 63027:1 63028:1 63029:1 63030:1 63031:1 63032:1 63033:1 63034:1 63035:1 63036:1 63037:1 63038:1 63039:1 63040:1 63041:1 63042:1 63043:1 63044:1 63045:1 63046:1 #unigram###She bigram###She#-#was trigram###She#-#was#-#elected unigram###was bigram###was#-#elected trigram###was#-#elected#-#to unigram###elected bigram###elected#-#to trigram###elected#-#to#-#replace unigram###to bigram###to#-#replace trigram###to#-#replace#-#Schäuble unigram###replace bigram###replace#-#Schäuble trigram###replace#-#Schäuble#-#, unigram###Schäuble bigram###Schäuble#-#, trigram###Schäuble#-#,#-#becoming unigram###, bigram###,#-#becoming trigram###,#-#becoming#-#the unigram###becoming bigram###becoming#-#the trigram###becoming#-#the#-#first unigram###the bigram###the#-#first trigram###the#-#first#-#female unigram###first bigram###first#-#female trigram###first#-#female#-#chair unigram###female bigram###female#-#chair trigram###female#-#chair#-#of unigram###chair bigram###chair#-#of trigram###chair#-#of#-#her unigram###of bigram###of#-#her trigram###of#-#her#-#party unigram###her bigram###her#-#party trigram###her#-#party#-#, unigram###party bigram###party#-#, trigram###party#-#,#-#on unigram###, bigram###,#-#on trigram###,#-#on#-#10 unigram###on bigram###on#-#10 trigram###on#-#10#-#April unigram###10 bigram###10#-#April trigram###10#-#April#-#2000 unigram###April bigram###April#-#2000 trigram###April#-#2000#-#. unigram###2000 bigram###2000#-#. unigram###. 
-0.018108471964457157482586424634974 4:1 56:1 109:1 212:1 247:2 250:1 253:4 306:1 352:2 394:1 427:1 542:1 799:1 966:1 1142:1 1181:1 1231:1 1383:1 1720:1 2957:2 3990:1 4406:2 4407:1 5515:1 5711:1 7862:1 7863:1 7947:1 7948:1 7949:1 8018:1 9401:1 9806:1 12194:1 13949:1 15256:1 15983:1 16231:1 16631:1 16632:1 19218:1 21417:1 22259:1 22760:1 23447:1 24018:1 24020:1 27994:1 33687:1 35751:1 44502:1 44503:1 44504:1 44505:1 44506:1 44507:1 44508:1 44509:1 44510:1 44511:1 44512:1 44513:1 44514:1 44515:1 44516:1 44517:1 44518:1 44519:1 44520:1 44521:1 44522:1 44523:1 44524:1 44525:1 44526:1 44527:1 44528:1 44529:1 44530:1 44531:1 44532:1 44533:1 44534:1 44535:1 44536:1 44537:1 44538:1 44539:1 44540:1 44541:1 44542:1 44543:1 44544:1 44545:1 44546:1 44547:1 44548:1 44549:1 44550:1 44551:1 44552:1 44553:1 44554:1 44555:1 44556:1 44557:1 44558:1 #unigram###Our bigram###Our#-#villa trigram###Our#-#villa#-#was unigram###villa bigram###villa#-#was trigram###villa#-#was#-#positioned unigram###was bigram###was#-#positioned trigram###was#-#positioned#-#towards unigram###positioned bigram###positioned#-#towards trigram###positioned#-#towards#-#the unigram###towards bigram###towards#-#the trigram###towards#-#the#-#quiet unigram###the bigram###the#-#quiet trigram###the#-#quiet#-#pool unigram###quiet bigram###quiet#-#pool trigram###quiet#-#pool#-#area unigram###pool bigram###pool#-#area trigram###pool#-#area#-#of unigram###area bigram###area#-#of trigram###area#-#of#-#the unigram###of bigram###of#-#the trigram###of#-#the#-#complex unigram###the bigram###the#-#complex trigram###the#-#complex#-#and unigram###complex bigram###complex#-#and trigram###complex#-#and#-#i unigram###and bigram###and#-#i trigram###and#-#i#-#feel unigram###i bigram###i#-#feel trigram###i#-#feel#-#i unigram###feel bigram###feel#-#i trigram###feel#-#i#-#can unigram###i bigram###i#-#can trigram###i#-#can#-#only unigram###can bigram###can#-#only trigram###can#-#only#-#comment unigram###only bigram###only#-#comment trigram###only#-#comment#-#on unigram###comment bigram###comment#-#on trigram###comment#-#on#-#this unigram###on bigram###on#-#this trigram###on#-#this#-#area unigram###this bigram###this#-#area trigram###this#-#area#-#as unigram###area bigram###area#-#as trigram###area#-#as#-#we unigram###as bigram###as#-#we trigram###as#-#we#-#did unigram###we bigram###we#-#did trigram###we#-#did#-#not unigram###did bigram###did#-#not trigram###did#-#not#-#visit unigram###not bigram###not#-#visit trigram###not#-#visit#-#the unigram###visit bigram###visit#-#the trigram###visit#-#the#-#large unigram###the bigram###the#-#large trigram###the#-#large#-#pool unigram###large bigram###large#-#pool trigram###large#-#pool#-#where unigram###pool bigram###pool#-#where trigram###pool#-#where#-#the unigram###where bigram###where#-#the trigram###where#-#the#-#animators unigram###the bigram###the#-#animators trigram###the#-#animators#-#conducted unigram###animators bigram###animators#-#conducted trigram###animators#-#conducted#-#games unigram###conducted bigram###conducted#-#games trigram###conducted#-#games#-#of unigram###games bigram###games#-#of trigram###games#-#of#-#various unigram###of bigram###of#-#various trigram###of#-#various#-#kinds unigram###various bigram###various#-#kinds trigram###various#-#kinds#-#. unigram###kinds bigram###kinds#-#. unigram###. 
0.021925899939710197239506328514835 474:1 1142:1 2661:1 4344:1 18566:1 28531:1 28533:1 31229:1 31230:1 31231:1 31232:1 31233:1 #unigram###Our bigram###Our#-#best trigram###Our#-#best#-#holiday unigram###best bigram###best#-#holiday trigram###best#-#holiday#-#to unigram###holiday bigram###holiday#-#to trigram###holiday#-#to#-#date unigram###to bigram###to#-#date unigram###date 
0.062425190469045030439154686519032 4:1 56:1 253:1 283:1 474:1 4811:1 4812:1 15649:1 15651:1 29696:1 49579:1 49580:1 49581:1 49582:1 49583:1 49584:1 49585:1 49586:1 #unigram###Close bigram###Close#-#to trigram###Close#-#to#-#Amsterdam unigram###to bigram###to#-#Amsterdam trigram###to#-#Amsterdam#-#and unigram###Amsterdam bigram###Amsterdam#-#and trigram###Amsterdam#-#and#-#the unigram###and bigram###and#-#the trigram###and#-#the#-#highway unigram###the bigram###the#-#highway trigram###the#-#highway#-#. unigram###highway bigram###highway#-#. unigram###. 
0.018523471909397792867224552537664 56:1 135:1 253:1 352:1 427:1 2556:1 4424:1 4425:1 4426:1 4428:1 4433:1 4890:1 5332:1 5333:1 5334:1 10714:1 10716:1 11280:1 11281:1 11282:1 11283:1 11284:1 11285:1 11286:1 11287:1 11288:1 11289:1 #unigram###One bigram###One#-#of trigram###One#-#of#-#the unigram###of bigram###of#-#the trigram###of#-#the#-#worst unigram###the bigram###the#-#worst trigram###the#-#worst#-#hotels unigram###worst bigram###worst#-#hotels trigram###worst#-#hotels#-#I unigram###hotels bigram###hotels#-#I trigram###hotels#-#I#-#'ve unigram###I bigram###I#-#'ve trigram###I#-#'ve#-#ever unigram###'ve bigram###'ve#-#ever trigram###'ve#-#ever#-#seen unigram###ever bigram###ever#-#seen trigram###ever#-#seen#-#. unigram###seen bigram###seen#-#. unigram###. 
-0.025782950221539958912675416513594 36:1 54:1 56:1 253:1 474:1 607:1 1074:1 1088:1 1236:1 5532:1 7280:1 8507:1 13485:1 26336:1 33731:1 33866:1 33926:1 33927:1 33928:1 33929:1 33930:1 33931:1 33932:1 33933:1 33934:1 33935:1 33936:1 33937:1 33938:1 33939:1 33940:1 33941:1 33942:1 33943:1 33944:1 33945:1 33946:1 33947:1 33948:1 33949:1 33950:1 33951:1 #unigram###Special bigram###Special#-#thank trigram###Special#-#thank#-#you unigram###thank bigram###thank#-#you trigram###thank#-#you#-#( unigram###you bigram###you#-#( trigram###you#-#(#-#s unigram###( bigram###(#-#s trigram###(#-#s#-#) unigram###s bigram###s#-#) trigram###s#-#)#-#to unigram###) bigram###)#-#to trigram###)#-#to#-#the unigram###to bigram###to#-#the trigram###to#-#the#-#guest unigram###the bigram###the#-#guest trigram###the#-#guest#-#services unigram###guest bigram###guest#-#services trigram###guest#-#services#-#associates unigram###services bigram###services#-#associates trigram###services#-#associates#-#Oliver unigram###associates bigram###associates#-#Oliver trigram###associates#-#Oliver#-#& unigram###Oliver bigram###Oliver#-#& trigram###Oliver#-#&#-#Marjoleine unigram###& bigram###&#-#Marjoleine trigram###&#-#Marjoleine#-#. unigram###Marjoleine bigram###Marjoleine#-#. unigram###. 
0.012302326748267911754597392359756 4:1 56:1 154:1 157:1 196:1 201:1 253:1 344:1 358:1 651:1 1155:1 1156:1 6007:1 12681:1 16813:1 25559:1 27379:1 33887:1 35580:1 51000:1 51223:1 51621:1 52323:1 58207:1 58208:1 59416:1 59417:1 64979:1 64980:1 64981:1 64982:1 64983:1 64984:1 64985:1 64986:1 64987:1 64988:1 64989:1 64990:1 64991:1 64992:1 64993:1 64994:1 64995:1 64996:1 64997:1 64998:1 64999:1 65000:1 65001:1 65002:1 #unigram###France bigram###France#-#and trigram###France#-#and#-#Britain unigram###and bigram###and#-#Britain trigram###and#-#Britain#-#are unigram###Britain bigram###Britain#-#are trigram###Britain#-#are#-#moving unigram###are bigram###are#-#moving trigram###are#-#moving#-#in unigram###moving bigram###moving#-#in trigram###moving#-#in#-#that unigram###in bigram###in#-#that trigram###in#-#that#-#direction unigram###that bigram###that#-#direction trigram###that#-#direction#-#, unigram###direction bigram###direction#-#, trigram###direction#-#,#-#but unigram###, bigram###,#-#but trigram###,#-#but#-#the unigram###but bigram###but#-#the trigram###but#-#the#-#German unigram###the bigram###the#-#German trigram###the#-#German#-#government unigram###German bigram###German#-#government trigram###German#-#government#-#opposes unigram###government bigram###government#-#opposes trigram###government#-#opposes#-#such unigram###opposes bigram###opposes#-#such trigram###opposes#-#such#-#a unigram###such bigram###such#-#a trigram###such#-#a#-#move unigram###a bigram###a#-#move trigram###a#-#move#-#. unigram###move bigram###move#-#. unigram###. 
0.015481697586819033463090278246455 4:2 56:1 196:1 201:1 253:3 352:2 474:4 607:1 845:1 9941:1 11846:1 17623:1 17629:1 18509:1 23113:1 33846:1 50957:1 51043:1 55239:1 55454:1 56561:1 67047:1 67048:1 67049:1 67050:1 67051:1 67052:1 67053:1 67054:1 67055:1 67056:1 67057:1 67058:1 67059:1 67060:1 67061:1 67062:1 67063:1 67064:1 67065:1 67066:1 67067:1 67068:1 67069:1 67070:1 67071:1 67072:1 67073:1 67074:1 67075:1 67076:1 67077:1 67078:1 67079:1 67080:1 67081:1 67082:1 67083:1 67084:1 67085:1 67086:1 67087:1 67088:1 67089:1 67090:1 67091:1 67092:1 67093:1 67094:1 67095:1 67096:1 67097:1 67098:1 67099:1 67100:1 67101:1 67102:1 67103:1 67104:1 67105:1 #unigram###Merkel bigram###Merkel#-#stressed trigram###Merkel#-#stressed#-#the unigram###stressed bigram###stressed#-#the trigram###stressed#-#the#-#crucial unigram###the bigram###the#-#crucial trigram###the#-#crucial#-#importance unigram###crucial bigram###crucial#-#importance trigram###crucial#-#importance#-#of unigram###importance bigram###importance#-#of trigram###importance#-#of#-#living unigram###of bigram###of#-#living trigram###of#-#living#-#up unigram###living bigram###living#-#up trigram###living#-#up#-#to unigram###up bigram###up#-#to trigram###up#-#to#-#the unigram###to bigram###to#-#the trigram###to#-#the#-#crimes unigram###the bigram###the#-#crimes trigram###the#-#crimes#-#of unigram###crimes bigram###crimes#-#of trigram###crimes#-#of#-#history unigram###of bigram###of#-#history trigram###of#-#history#-#and unigram###history bigram###history#-#and trigram###history#-#and#-#providing unigram###and bigram###and#-#providing trigram###and#-#providing#-#a unigram###providing bigram###providing#-#a trigram###providing#-#a#-#site unigram###a bigram###a#-#site trigram###a#-#site#-#to unigram###site bigram###site#-#to trigram###site#-#to#-#educate unigram###to bigram###to#-#educate trigram###to#-#educate#-#, unigram###educate bigram###educate#-#, trigram###educate#-#,#-#to unigram###, bigram###,#-#to trigram###,#-#to#-#mourn unigram###to bigram###to#-#mourn trigram###to#-#mourn#-#the unigram###mourn bigram###mourn#-#the trigram###mourn#-#the#-#victims unigram###the bigram###the#-#victims trigram###the#-#victims#-#and unigram###victims bigram###victims#-#and trigram###victims#-#and#-#to unigram###and bigram###and#-#to trigram###and#-#to#-#warn unigram###to bigram###to#-#warn trigram###to#-#warn#-#coming unigram###warn bigram###warn#-#coming trigram###warn#-#coming#-#generations unigram###coming bigram###coming#-#generations trigram###coming#-#generations#-#. unigram###generations bigram###generations#-#. unigram###. 
0.07132745616904760665999418733918 19:1 56:1 397:1 14773:1 26184:1 26185:1 #unigram###Top bigram###Top#-#hotel trigram###Top#-#hotel#-#. unigram###hotel bigram###hotel#-#. unigram###. 
0.035645796560849894729638975832131 261:1 1957:1 5281:1 9824:1 46292:1 46293:1 46294:1 46295:1 46296:1 46297:1 46298:1 46299:1 #unigram###Bliss bigram###Bliss#-#.. trigram###Bliss#-#..#-#Really unigram###.. bigram###..#-#Really trigram###..#-#Really#-#enjoyed unigram###Really bigram###Really#-#enjoyed trigram###Really#-#enjoyed#-#! unigram###enjoyed bigram###enjoyed#-#! unigram###! 
0.052203459285678932566554522054503 4:1 13:1 56:1 445:1 1136:1 2512:1 32516:1 35905:1 35906:1 35907:1 35908:1 35909:1 35910:1 35911:1 35912:1 #unigram###Hotel bigram###Hotel#-#really trigram###Hotel#-#really#-#modern unigram###really bigram###really#-#modern trigram###really#-#modern#-#and unigram###modern bigram###modern#-#and trigram###modern#-#and#-#minimal unigram###and bigram###and#-#minimal trigram###and#-#minimal#-#. unigram###minimal bigram###minimal#-#. unigram###. 
0.0052241355725608194793263550081974 56:1 322:1 323:1 678:1 39344:1 39345:1 #unigram###Great bigram###Great#-#choice trigram###Great#-#choice#-#. unigram###choice bigram###choice#-#. unigram###. 
-0.044377282135286341691049472046871 10:1 56:1 87:1 187:1 201:1 253:1 352:1 743:1 912:1 2440:1 2885:1 5603:1 6359:1 8072:1 8555:1 8866:1 30799:1 61733:1 69103:1 69104:1 69105:1 69106:1 69107:1 69108:1 69109:1 69110:1 69111:1 69112:1 69113:1 69114:1 69115:1 69116:1 69117:1 69118:1 69119:1 69120:1 69121:1 69122:1 69123:1 69124:1 69125:1 69126:1 #unigram###The bigram###The#-#cost trigram###The#-#cost#-#of unigram###cost bigram###cost#-#of trigram###cost#-#of#-#a unigram###of bigram###of#-#a trigram###of#-#a#-#one-way unigram###a bigram###a#-#one-way trigram###a#-#one-way#-#train unigram###one-way bigram###one-way#-#train trigram###one-way#-#train#-#ticket unigram###train bigram###train#-#ticket trigram###train#-#ticket#-#for unigram###ticket bigram###ticket#-#for trigram###ticket#-#for#-#the unigram###for bigram###for#-#the trigram###for#-#the#-#journey unigram###the bigram###the#-#journey trigram###the#-#journey#-#is unigram###journey bigram###journey#-#is trigram###journey#-#is#-#about unigram###is bigram###is#-#about trigram###is#-#about#-#$ unigram###about bigram###about#-#$ trigram###about#-#$#-#12 unigram###$ bigram###$#-#12 trigram###$#-#12#-#. unigram###12 bigram###12#-#. unigram###. 
0.0095908866611745993008275590341327 56:1 62:1 87:1 109:1 201:1 253:2 344:1 457:1 474:1 607:1 1037:1 1231:1 1943:1 2568:1 2829:1 3506:1 8012:1 11598:1 15647:1 20953:1 25015:1 30336:1 30337:1 30338:1 30339:1 30340:1 30341:1 30342:1 30343:1 30344:1 30345:1 30346:1 30347:1 30348:1 30349:1 30350:1 30351:1 30352:1 30353:1 30354:1 30355:1 30356:1 30357:1 30358:1 30359:1 30360:1 30361:1 30362:1 30363:1 30364:1 30365:1 30366:1 30367:1 #unigram###The bigram###The#-#drive trigram###The#-#drive#-#to unigram###drive bigram###drive#-#to trigram###drive#-#to#-#the unigram###to bigram###to#-#the trigram###to#-#the#-#ground unigram###the bigram###the#-#ground trigram###the#-#ground#-#was unigram###ground bigram###ground#-#was trigram###ground#-#was#-#a unigram###was bigram###was#-#a trigram###was#-#a#-#lengthy unigram###a bigram###a#-#lengthy trigram###a#-#lengthy#-#2 unigram###lengthy bigram###lengthy#-#2 trigram###lengthy#-#2#-#hours unigram###2 bigram###2#-#hours trigram###2#-#hours#-#each unigram###hours bigram###hours#-#each trigram###hours#-#each#-#morning unigram###each bigram###each#-#morning trigram###each#-#morning#-#as unigram###morning bigram###morning#-#as trigram###morning#-#as#-#the unigram###as bigram###as#-#the trigram###as#-#the#-#roads unigram###the bigram###the#-#roads trigram###the#-#roads#-#are unigram###roads bigram###roads#-#are trigram###roads#-#are#-#very unigram###are bigram###are#-#very trigram###are#-#very#-#gridlocked unigram###very bigram###very#-#gridlocked trigram###very#-#gridlocked#-#. unigram###gridlocked bigram###gridlocked#-#. unigram###. 
0.0024491129487119048593890546783314 4:1 36:1 54:1 56:1 253:1 468:1 6007:1 11769:1 20316:1 20318:1 50305:1 51040:1 51041:1 51043:1 51270:1 51307:1 51395:1 51396:1 51397:1 51398:1 51399:1 51400:1 51401:1 51402:1 51403:1 51404:1 51405:1 51406:1 51407:1 51408:1 51409:1 51410:1 51411:1 51412:1 51413:1 51414:1 51420:1 51421:1 51432:1 51433:1 51434:1 51435:1 51436:1 51437:1 51438:1 51439:1 51441:1 68967:1 68968:1 68969:1 68970:1 68971:1 68972:1 68973:1 68974:1 68975:1 68976:1 68977:1 68978:1 68979:1 68980:1 68981:1 68982:1 68983:1 68984:1 68985:1 #unigram###Brazilian bigram###Brazilian#-#President trigram###Brazilian#-#President#-#Dilma unigram###President bigram###President#-#Dilma trigram###President#-#Dilma#-#Rousseff unigram###Dilma bigram###Dilma#-#Rousseff trigram###Dilma#-#Rousseff#-#and unigram###Rousseff bigram###Rousseff#-#and trigram###Rousseff#-#and#-#German unigram###and bigram###and#-#German trigram###and#-#German#-#Chancellor unigram###German bigram###German#-#Chancellor trigram###German#-#Chancellor#-#Angela unigram###Chancellor bigram###Chancellor#-#Angela trigram###Chancellor#-#Angela#-#Merkel unigram###Angela bigram###Angela#-#Merkel trigram###Angela#-#Merkel#-#have unigram###Merkel bigram###Merkel#-#have trigram###Merkel#-#have#-#condemned unigram###have bigram###have#-#condemned trigram###have#-#condemned#-#the unigram###condemned bigram###condemned#-#the trigram###condemned#-#the#-#US unigram###the bigram###the#-#US trigram###the#-#US#-#National unigram###US bigram###US#-#National trigram###US#-#National#-#Security unigram###National bigram###National#-#Security trigram###National#-#Security#-#Agency unigram###Security bigram###Security#-#Agency trigram###Security#-#Agency#-#’s unigram###Agency bigram###Agency#-#’s trigram###Agency#-#’s#-#( unigram###’s bigram###’s#-#( trigram###’s#-#(#-#NSA unigram###( bigram###(#-#NSA trigram###(#-#NSA#-#) unigram###NSA bigram###NSA#-#) trigram###NSA#-#)#-#surveillance unigram###) bigram###)#-#surveillance trigram###)#-#surveillance#-#programme unigram###surveillance bigram###surveillance#-#programme trigram###surveillance#-#programme#-#. unigram###programme bigram###programme#-#. unigram###. 
0.015477193935136052127532479971705 87:1 196:1 253:1 261:1 449:1 1160:1 2428:1 2703:1 2704:1 2705:1 2706:1 12944:1 44622:1 44623:1 44624:1 44625:1 44626:1 44627:1 44628:1 44629:1 44630:1 44631:1 44632:1 44633:1 #unigram###The bigram###The#-#bed trigram###The#-#bed#-#, unigram###bed bigram###bed#-#, trigram###bed#-#,#-#especially unigram###, bigram###,#-#especially trigram###,#-#especially#-#the unigram###especially bigram###especially#-#the trigram###especially#-#the#-#mattress unigram###the bigram###the#-#mattress trigram###the#-#mattress#-#were unigram###mattress bigram###mattress#-#were trigram###mattress#-#were#-#unconfortable unigram###were bigram###were#-#unconfortable trigram###were#-#unconfortable#-#! unigram###unconfortable bigram###unconfortable#-#! unigram###! 
-0.0269907669265375127487516238034 4:1 56:1 79:1 120:1 135:2 154:1 157:1 187:1 196:1 201:1 224:1 247:1 253:1 301:1 369:1 374:1 468:2 474:1 651:2 743:1 799:1 889:1 999:1 1304:1 2387:1 2490:1 2512:1 2513:1 2694:1 4426:1 4428:1 4668:2 4886:1 5343:1 5594:1 5954:1 6216:1 6294:1 10794:1 11056:1 11180:1 12723:1 13501:1 13502:1 13503:1 13504:1 13505:1 13506:1 13507:1 13508:1 13509:1 13510:1 13511:1 13512:1 13513:1 13514:1 13515:1 13516:1 13517:1 13518:1 13519:1 13520:1 13521:1 13522:1 13523:1 13524:1 13525:1 13526:1 13527:1 13528:1 13529:1 13530:1 13531:1 13532:1 13533:1 13534:1 13535:1 13536:1 13537:1 13538:1 13539:1 13540:1 13541:1 13542:1 13543:1 13544:1 13545:1 13546:1 13547:1 13548:1 13549:1 13550:1 13551:1 13552:1 13553:1 13554:1 13555:1 13556:1 13557:1 13558:1 13559:1 13560:1 13561:1 13562:1 13563:1 13564:1 13565:1 #unigram###I bigram###I#-#have trigram###I#-#have#-#to unigram###have bigram###have#-#to trigram###have#-#to#-#say unigram###to bigram###to#-#say trigram###to#-#say#-#that unigram###say bigram###say#-#that trigram###say#-#that#-#in unigram###that bigram###that#-#in trigram###that#-#in#-#my unigram###in bigram###in#-#my trigram###in#-#my#-#8 unigram###my bigram###my#-#8 trigram###my#-#8#-#days unigram###8 bigram###8#-#days trigram###8#-#days#-#that unigram###days bigram###days#-#that trigram###days#-#that#-#I unigram###that bigram###that#-#I trigram###that#-#I#-#'ve unigram###I bigram###I#-#'ve trigram###I#-#'ve#-#been. unigram###'ve bigram###'ve#-#been. trigram###'ve#-#been.#-#really unigram###been. bigram###been.#-#really trigram###been.#-#really#-#good unigram###really bigram###really#-#good trigram###really#-#good#-#but unigram###good bigram###good#-#but trigram###good#-#but#-#could unigram###but bigram###but#-#could trigram###but#-#could#-#have unigram###could bigram###could#-#have trigram###could#-#have#-#had unigram###have bigram###have#-#had trigram###have#-#had#-#ot unigram###had bigram###had#-#ot trigram###had#-#ot#-#otherwise unigram###ot bigram###ot#-#otherwise trigram###ot#-#otherwise#-#ok unigram###otherwise bigram###otherwise#-#ok trigram###otherwise#-#ok#-#with unigram###ok bigram###ok#-#with trigram###ok#-#with#-#40 unigram###with bigram###with#-#40 trigram###with#-#40#-#degrees unigram###40 bigram###40#-#degrees trigram###40#-#degrees#-#and unigram###degrees bigram###degrees#-#and trigram###degrees#-#and#-#a unigram###and bigram###and#-#a trigram###and#-#a#-#nice unigram###a bigram###a#-#nice trigram###a#-#nice#-#breeze unigram###nice bigram###nice#-#breeze trigram###nice#-#breeze#-#, unigram###breeze bigram###breeze#-#, trigram###breeze#-#,#-#we unigram###, bigram###,#-#we trigram###,#-#we#-#could unigram###we bigram###we#-#could trigram###we#-#could#-#well unigram###could bigram###could#-#well trigram###could#-#well#-#account unigram###well bigram###well#-#account trigram###well#-#account#-#for unigram###account bigram###account#-#for trigram###account#-#for#-#the unigram###for bigram###for#-#the trigram###for#-#the#-#pool unigram###the bigram###the#-#pool trigram###the#-#pool#-#. unigram###pool bigram###pool#-#. unigram###. 
0.034522455236086053986799271342534 261:3 552:1 2450:1 2951:2 3011:1 5799:1 5800:1 5801:1 5802:1 5803:1 5804:1 5805:1 #unigram###Good bigram###Good#-#size trigram###Good#-#size#-#tv unigram###size bigram###size#-#tv trigram###size#-#tv#-#! unigram###tv bigram###tv#-#! trigram###tv#-#!#-#! unigram###! bigram###!#-#! trigram###!#-#!#-#! unigram###! bigram###!#-#! unigram###! 
0.099819786339244626072186861165392 4:1 56:1 11717:1 20858:1 30022:1 43732:1 43733:1 43734:1 43735:1 #unigram###Polite bigram###Polite#-#and trigram###Polite#-#and#-#professional unigram###and bigram###and#-#professional trigram###and#-#professional#-#. unigram###professional bigram###professional#-#. unigram###. 
0.0016792516415265676399393157680606 19:1 106:1 120:2 184:1 187:1 199:1 201:1 250:1 251:1 253:1 352:1 1416:2 1556:1 1664:2 2080:1 2082:1 2205:1 2294:1 2534:1 2750:1 2892:1 2893:1 4201:1 4347:1 4348:1 6651:1 8574:1 9824:1 21711:1 23306:1 31020:1 34905:1 34907:2 35984:1 35985:1 35986:1 35987:1 35988:1 35989:1 35990:1 35991:1 35992:1 35993:1 35994:1 35995:1 35996:1 35997:1 35998:1 35999:2 36000:1 36001:1 36002:1 36003:1 36004:1 36005:1 36006:1 36007:1 36008:1 36009:1 36010:1 36011:1 36012:1 36013:1 36014:1 36015:1 36016:1 36017:1 36018:1 36019:1 36020:1 36021:1 36022:1 36023:1 36024:1 36025:1 36026:1 #unigram###Lack bigram###Lack#-#of trigram###Lack#-#of#-#private unigram###of bigram###of#-#private trigram###of#-#private#-#space unigram###private bigram###private#-#space trigram###private#-#space#-#with unigram###space bigram###space#-#with trigram###space#-#with#-#sun unigram###with bigram###with#-#sun trigram###with#-#sun#-#beds unigram###sun bigram###sun#-#beds trigram###sun#-#beds#-#on unigram###beds bigram###beds#-#on trigram###beds#-#on#-#the unigram###on bigram###on#-#the trigram###on#-#the#-#front unigram###the bigram###the#-#front trigram###the#-#front#-#beach unigram###front bigram###front#-#beach trigram###front#-#beach#-#.. unigram###beach bigram###beach#-#.. trigram###beach#-#..#-#it unigram###.. bigram###..#-#it trigram###..#-#it#-#'s unigram###it bigram###it#-#'s trigram###it#-#'s#-#necessary unigram###'s bigram###'s#-#necessary trigram###'s#-#necessary#-#for unigram###necessary bigram###necessary#-#for trigram###necessary#-#for#-#a unigram###for bigram###for#-#a trigram###for#-#a#-#4 unigram###a bigram###a#-#4 trigram###a#-#4#-#* unigram###4 bigram###4#-#* trigram###4#-#*#-#or unigram###* bigram###*#-#or trigram###*#-#or#-#5 unigram###or bigram###or#-#5 trigram###or#-#5#-#* unigram###5 bigram###5#-#* trigram###5#-#*#-#star unigram###* bigram###*#-#star trigram###*#-#star#-#hotel unigram###star bigram###star#-#hotel trigram###star#-#hotel#-#with unigram###hotel bigram###hotel#-#with trigram###hotel#-#with#-#front unigram###with bigram###with#-#front trigram###with#-#front#-#beach unigram###front bigram###front#-#beach trigram###front#-#beach#-#!!! unigram###beach bigram###beach#-#!!! unigram###!!! 
0.0090662398067104226634382868610373 4:1 56:1 120:1 157:1 187:1 253:3 283:1 292:1 352:1 427:1 576:1 578:1 986:1 1105:1 1107:1 1322:1 4406:1 4598:1 4795:1 5119:1 8853:1 9106:1 9686:1 9755:1 12064:1 12065:1 14192:1 14194:1 15064:1 29229:1 29230:1 36798:1 39135:1 39136:1 39137:1 39138:1 39139:1 39140:1 39141:1 39142:1 39143:1 39144:1 39145:1 39146:1 39147:1 39148:1 39149:1 39150:1 39151:1 #unigram###Worked bigram###Worked#-#out trigram###Worked#-#out#-#in unigram###out bigram###out#-#in trigram###out#-#in#-#the unigram###in bigram###in#-#the trigram###in#-#the#-#gym unigram###the bigram###the#-#gym trigram###the#-#gym#-#for unigram###gym bigram###gym#-#for trigram###gym#-#for#-#an unigram###for bigram###for#-#an trigram###for#-#an#-#hour unigram###an bigram###an#-#hour trigram###an#-#hour#-#with unigram###hour bigram###hour#-#with trigram###hour#-#with#-#great unigram###with bigram###with#-#great trigram###with#-#great#-#views unigram###great bigram###great#-#views trigram###great#-#views#-#of unigram###views bigram###views#-#of trigram###views#-#of#-#the unigram###of bigram###of#-#the trigram###of#-#the#-#area unigram###the bigram###the#-#area trigram###the#-#area#-#and unigram###area bigram###area#-#and trigram###area#-#and#-#the unigram###and bigram###and#-#the trigram###and#-#the#-#airport unigram###the bigram###the#-#airport trigram###the#-#airport#-#. unigram###airport bigram###airport#-#. unigram###. 
-0.24388574638969276464628421763337 3150:1 13566:1 13567:1 13568:1 13569:1 13570:1 #unigram###marvin bigram###marvin#-#from trigram###marvin#-#from#-#holland unigram###from bigram###from#-#holland unigram###holland 
-0.032781837265921140445179560174438 19:1 36:1 54:1 135:1 157:1 253:1 344:1 412:1 986:1 987:1 1883:1 2223:1 2822:1 2939:1 2940:1 2941:1 3110:1 3112:1 3668:1 5631:1 6007:1 8374:1 14736:1 14906:1 16044:1 16045:1 16046:1 16047:1 16048:1 16049:1 16050:1 16051:1 16052:1 16053:1 16054:1 16055:1 16056:1 16057:1 16058:1 16059:1 16060:1 16061:1 16062:1 16063:1 16064:1 #unigram###There bigram###There#-#are trigram###There#-#are#-#mainly unigram###are bigram###are#-#mainly trigram###are#-#mainly#-#German unigram###mainly bigram###mainly#-#German trigram###mainly#-#German#-#people unigram###German bigram###German#-#people trigram###German#-#people#-#in unigram###people bigram###people#-#in trigram###people#-#in#-#the unigram###in bigram###in#-#the trigram###in#-#the#-#hotel unigram###the bigram###the#-#hotel trigram###the#-#hotel#-#( unigram###hotel bigram###hotel#-#( trigram###hotel#-#(#-#I unigram###( bigram###(#-#I trigram###(#-#I#-#think unigram###I bigram###I#-#think trigram###I#-#think#-#70 unigram###think bigram###think#-#70 trigram###think#-#70#-#/ unigram###70 bigram###70#-#/ trigram###70#-#/#-#80 unigram###/ bigram###/#-#80 trigram###/#-#80#-#percent unigram###80 bigram###80#-#percent trigram###80#-#percent#-#) unigram###percent bigram###percent#-#) unigram###) 
-0.010905979433696644242957063397625 7:1 56:1 391:1 457:1 468:1 799:1 1066:1 1499:1 4673:1 4675:1 5519:1 5669:1 5670:1 5671:1 5686:1 12977:1 12978:1 18588:1 18589:1 18590:1 18591:1 18592:1 18593:1 18594:1 18595:1 18596:1 18597:1 18598:1 18599:1 18600:1 #unigram###This bigram###This#-#year trigram###This#-#year#-#we unigram###year bigram###year#-#we trigram###year#-#we#-#have unigram###we bigram###we#-#have trigram###we#-#have#-#been unigram###have bigram###have#-#been trigram###have#-#been#-#staying unigram###been bigram###been#-#staying trigram###been#-#staying#-#at unigram###staying bigram###staying#-#at trigram###staying#-#at#-#Dana unigram###at bigram###at#-#Dana trigram###at#-#Dana#-#2 unigram###Dana bigram###Dana#-#2 trigram###Dana#-#2#-#times unigram###2 bigram###2#-#times trigram###2#-#times#-#. unigram###times bigram###times#-#. unigram###. 
0.023370821862310941358087390540277 56:1 157:1 187:2 253:1 474:1 1556:1 16221:1 21084:1 28714:1 38518:1 52384:1 52385:1 52387:1 54193:1 54194:1 54195:1 54196:1 54197:1 54198:1 54199:1 54200:1 54201:1 54202:1 54203:1 54204:1 54205:1 54206:1 54207:1 54208:1 54209:1 54210:1 54211:1 54212:1 54213:1 54214:1 54215:1 54216:1 54217:1 54218:1 54219:1 54220:1 54221:1 54222:1 54223:1 54224:1 54225:1 54226:1 54227:1 54228:1 54229:1 54230:1 54231:1 54232:1 54233:1 54234:1 54235:1 #unigram###Australia bigram###Australia#-#'s trigram###Australia#-#'s#-#Prime unigram###'s bigram###'s#-#Prime trigram###'s#-#Prime#-#Minister unigram###Prime bigram###Prime#-#Minister trigram###Prime#-#Minister#-#Julia unigram###Minister bigram###Minister#-#Julia trigram###Minister#-#Julia#-#Gillard unigram###Julia bigram###Julia#-#Gillard trigram###Julia#-#Gillard#-#hailed unigram###Gillard bigram###Gillard#-#hailed trigram###Gillard#-#hailed#-#her unigram###hailed bigram###hailed#-#her trigram###hailed#-#her#-#for unigram###her bigram###her#-#for trigram###her#-#for#-#helping unigram###for bigram###for#-#helping trigram###for#-#helping#-#to unigram###helping bigram###helping#-#to trigram###helping#-#to#-#shatter unigram###to bigram###to#-#shatter trigram###to#-#shatter#-#the unigram###shatter bigram###shatter#-#the trigram###shatter#-#the#-#glass unigram###the bigram###the#-#glass trigram###the#-#glass#-#ceiling unigram###glass bigram###glass#-#ceiling trigram###glass#-#ceiling#-#for unigram###ceiling bigram###ceiling#-#for trigram###ceiling#-#for#-#women unigram###for bigram###for#-#women trigram###for#-#women#-#in unigram###women bigram###women#-#in trigram###women#-#in#-#politics unigram###in bigram###in#-#politics trigram###in#-#politics#-#. unigram###politics bigram###politics#-#. unigram###. 
0.027061179871591713175238425037605 82:1 201:1 253:1 494:1 1196:1 5858:1 6709:1 6710:1 6711:1 6712:1 6713:1 6714:1 6715:1 6716:1 6717:1 6718:1 6719:1 6720:1 #unigram###For bigram###For#-#the trigram###For#-#the#-#2nd unigram###the bigram###the#-#2nd trigram###the#-#2nd#-#time unigram###2nd bigram###2nd#-#time trigram###2nd#-#time#-#a unigram###time bigram###time#-#a trigram###time#-#a#-#fantastically unigram###a bigram###a#-#fantastically trigram###a#-#fantastically#-#stay unigram###fantastically bigram###fantastically#-#stay unigram###stay 
0.023739762732088595664770025450707 261:1 391:1 653:1 654:1 655:1 656:1 657:1 658:1 659:1 660:1 661:1 662:1 #unigram###Not bigram###Not#-#recommended trigram###Not#-#recommended#-#at unigram###recommended bigram###recommended#-#at trigram###recommended#-#at#-#all unigram###at bigram###at#-#all trigram###at#-#all#-#! unigram###all bigram###all#-#! unigram###! 
-0.037607012616237729674129042223285 10:1 56:1 135:1 154:1 157:1 196:1 240:2 241:1 253:2 319:1 358:1 506:1 542:2 661:1 751:1 799:1 986:1 1074:1 1181:2 1196:1 1231:1 1383:1 1867:1 3238:1 3239:1 3724:1 5711:1 5712:1 5713:1 5714:1 7422:1 7947:1 7948:1 7949:1 9806:1 10100:1 10101:1 10852:1 10865:1 10866:1 11013:1 11471:1 12529:1 13939:1 13940:1 13941:1 13942:1 13943:1 13944:1 13945:1 13946:1 13947:1 13948:1 13949:1 13950:1 13951:1 13952:1 13953:1 13954:1 13955:1 13956:1 13957:1 13958:1 13959:1 13960:1 13961:1 13962:1 13963:1 13964:1 13965:1 13966:1 13967:1 13968:1 13969:1 13970:1 13971:1 13972:1 13973:1 13974:1 13975:1 #unigram###I bigram###I#-#can trigram###I#-#can#-#not unigram###can bigram###can#-#not trigram###can#-#not#-#rate unigram###not bigram###not#-#rate trigram###not#-#rate#-#breakfast unigram###rate bigram###rate#-#breakfast trigram###rate#-#breakfast#-#as unigram###breakfast bigram###breakfast#-#as trigram###breakfast#-#as#-#we unigram###as bigram###as#-#we trigram###as#-#we#-#did unigram###we bigram###we#-#did trigram###we#-#did#-#not unigram###did bigram###did#-#not trigram###did#-#not#-#eat unigram###not bigram###not#-#eat trigram###not#-#eat#-#there unigram###eat bigram###eat#-#there trigram###eat#-#there#-#, unigram###there bigram###there#-#, trigram###there#-#,#-#but unigram###, bigram###,#-#but trigram###,#-#but#-#there unigram###but bigram###but#-#there trigram###but#-#there#-#is unigram###there bigram###there#-#is trigram###there#-#is#-#little unigram###is bigram###is#-#little trigram###is#-#little#-#shop unigram###little bigram###little#-#shop trigram###little#-#shop#-#in unigram###shop bigram###shop#-#in trigram###shop#-#in#-#the unigram###in bigram###in#-#the trigram###in#-#the#-#lobby unigram###the bigram###the#-#lobby trigram###the#-#lobby#-#where unigram###lobby bigram###lobby#-#where trigram###lobby#-#where#-#you unigram###where bigram###where#-#you trigram###where#-#you#-#can unigram###you bigram###you#-#can trigram###you#-#can#-#buy unigram###can bigram###can#-#buy trigram###can#-#buy#-#food unigram###buy bigram###buy#-#food trigram###buy#-#food#-#all unigram###food bigram###food#-#all trigram###food#-#all#-#the unigram###all bigram###all#-#the trigram###all#-#the#-#time unigram###the bigram###the#-#time trigram###the#-#time#-#. unigram###time bigram###time#-#. unigram###. 
0.010261913170445257845186937117887 56:1 187:1 196:2 253:2 352:2 743:1 1656:1 2977:1 4048:1 5828:1 11166:1 15998:1 17341:1 25732:1 26662:1 44591:1 50867:1 51996:1 52233:1 52478:1 54298:1 54299:1 54300:1 54301:1 54302:1 54303:1 54304:1 54305:1 54306:1 54307:1 54308:1 54309:1 54310:1 54311:1 54312:1 54313:1 54314:1 54315:1 54316:1 54317:1 54318:1 54319:1 54320:1 54321:1 54322:1 54323:1 54324:1 54325:1 54326:1 54327:1 54328:1 54329:1 54330:1 54331:1 54332:1 54333:1 54334:1 54335:1 54336:1 54337:1 54338:1 54339:1 54340:1 54341:1 54342:1 54343:1 54344:1 54345:1 54346:1 54347:1 54348:1 54349:1 54350:1 54351:1 54352:1 54353:1 54354:1 54355:1 54356:1 54357:1 54358:1 54359:1 54360:1 54361:1 #unigram###Cameron bigram###Cameron#-#appeared trigram###Cameron#-#appeared#-#alongside unigram###appeared bigram###appeared#-#alongside trigram###appeared#-#alongside#-#his unigram###alongside bigram###alongside#-#his trigram###alongside#-#his#-#Malaysian unigram###his bigram###his#-#Malaysian trigram###his#-#Malaysian#-#counterpart unigram###Malaysian bigram###Malaysian#-#counterpart trigram###Malaysian#-#counterpart#-#, unigram###counterpart bigram###counterpart#-#, trigram###counterpart#-#,#-#Najib unigram###, bigram###,#-#Najib trigram###,#-#Najib#-#Razak unigram###Najib bigram###Najib#-#Razak trigram###Najib#-#Razak#-#, unigram###Razak bigram###Razak#-#, trigram###Razak#-#,#-#who unigram###, bigram###,#-#who trigram###,#-#who#-#pressed unigram###who bigram###who#-#pressed trigram###who#-#pressed#-#for unigram###pressed bigram###pressed#-#for trigram###pressed#-#for#-#the unigram###for bigram###for#-#the trigram###for#-#the#-#lifting unigram###the bigram###the#-#lifting trigram###the#-#lifting#-#of unigram###lifting bigram###lifting#-#of trigram###lifting#-#of#-#sanctions unigram###of bigram###of#-#sanctions trigram###of#-#sanctions#-#imposed unigram###sanctions bigram###sanctions#-#imposed trigram###sanctions#-#imposed#-#by unigram###imposed bigram###imposed#-#by trigram###imposed#-#by#-#the unigram###by bigram###by#-#the trigram###by#-#the#-#Association unigram###the bigram###the#-#Association trigram###the#-#Association#-#of unigram###Association bigram###Association#-#of trigram###Association#-#of#-#South unigram###of bigram###of#-#South trigram###of#-#South#-#East unigram###South bigram###South#-#East trigram###South#-#East#-#Asian unigram###East bigram###East#-#Asian trigram###East#-#Asian#-#Nations unigram###Asian bigram###Asian#-#Nations trigram###Asian#-#Nations#-#after unigram###Nations bigram###Nations#-#after trigram###Nations#-#after#-#visiting unigram###after bigram###after#-#visiting trigram###after#-#visiting#-#Burma unigram###visiting bigram###visiting#-#Burma trigram###visiting#-#Burma#-#. unigram###Burma bigram###Burma#-#. unigram###. 
0.059712766426732136193500366516673 4:1 56:1 47937:1 47938:1 47939:1 47940:1 47941:1 47942:1 47943:1 47944:1 47945:1 47946:1 #unigram###Somewhat bigram###Somewhat#-#confusing trigram###Somewhat#-#confusing#-#and unigram###confusing bigram###confusing#-#and trigram###confusing#-#and#-#unclear unigram###and bigram###and#-#unclear trigram###and#-#unclear#-#. unigram###unclear bigram###unclear#-#. unigram###. 
-0.055166168371601313757945916904646 56:1 79:1 90:1 106:1 135:1 157:1 173:1 174:1 175:1 176:1 178:1 355:1 474:1 1286:1 1287:1 1288:1 1289:1 1290:1 1291:1 1292:1 1293:1 1294:1 1295:1 1296:1 1297:1 1298:1 1299:1 1300:1 1301:1 1302:1 1303:1 1304:1 1305:1 1306:1 1307:1 1308:1 #unigram###I bigram###I#-#thought trigram###I#-#thought#-#it unigram###thought bigram###thought#-#it trigram###thought#-#it#-#would unigram###it bigram###it#-#would trigram###it#-#would#-#be unigram###would bigram###would#-#be trigram###would#-#be#-#safe unigram###be bigram###be#-#safe trigram###be#-#safe#-#to unigram###safe bigram###safe#-#to trigram###safe#-#to#-#keep unigram###to bigram###to#-#keep trigram###to#-#keep#-#them unigram###keep bigram###keep#-#them trigram###keep#-#them#-#in unigram###them bigram###them#-#in trigram###them#-#in#-#my unigram###in bigram###in#-#my trigram###in#-#my#-#room unigram###my bigram###my#-#room trigram###my#-#room#-#. unigram###room bigram###room#-#. unigram###. 
0.023090683025199676414729310636176 474:1 1556:1 2197:2 3087:1 46205:1 52230:1 53471:1 55546:1 57475:1 63184:1 63185:1 63186:1 63187:1 63188:1 63189:1 63190:1 63191:1 63192:1 63193:1 63194:1 63195:1 63196:1 63197:1 63198:1 63199:1 63200:1 63201:1 63202:1 63203:1 #unigram###EU bigram###EU#-#leaders trigram###EU#-#leaders#-#pay unigram###leaders bigram###leaders#-#pay trigram###leaders#-#pay#-#tribute unigram###pay bigram###pay#-#tribute trigram###pay#-#tribute#-#to unigram###tribute bigram###tribute#-#to trigram###tribute#-#to#-#Thatcher unigram###to bigram###to#-#Thatcher trigram###to#-#Thatcher#-#'s unigram###Thatcher bigram###Thatcher#-#'s trigram###Thatcher#-#'s#-#' unigram###'s bigram###'s#-#' trigram###'s#-#'#-#extraordinary unigram###' bigram###'#-#extraordinary trigram###'#-#extraordinary#-#legacy unigram###extraordinary bigram###extraordinary#-#legacy trigram###extraordinary#-#legacy#-#' unigram###legacy bigram###legacy#-#' unigram###' 
0.0033148093840014740060762044038256 4:1 10:1 56:1 87:1 120:1 253:1 344:1 352:2 391:1 765:1 781:1 782:1 783:1 784:1 785:1 958:1 2272:1 3419:1 3745:1 5433:1 5506:1 5828:1 5881:1 5882:1 6903:1 6904:1 8255:1 9510:1 9511:1 9512:1 9513:1 14137:1 17397:1 17398:1 21888:1 22015:1 22016:1 22017:1 22018:1 22019:1 22020:1 22021:1 22022:1 22023:1 22024:1 22025:1 22026:1 22027:1 22028:1 22029:1 22030:1 22031:1 22032:1 22033:1 22034:1 22035:1 22036:1 22037:1 22038:1 22039:1 22040:1 22041:1 #unigram###The bigram###The#-#location trigram###The#-#location#-#is unigram###location bigram###location#-#is trigram###location#-#is#-#excellent unigram###is bigram###is#-#excellent trigram###is#-#excellent#-#situated unigram###excellent bigram###excellent#-#situated trigram###excellent#-#situated#-#at unigram###situated bigram###situated#-#at trigram###situated#-#at#-#the unigram###at bigram###at#-#the trigram###at#-#the#-#end unigram###the bigram###the#-#end trigram###the#-#end#-#of unigram###end bigram###end#-#of trigram###end#-#of#-#Avenue unigram###of bigram###of#-#Avenue trigram###of#-#Avenue#-#Louise unigram###Avenue bigram###Avenue#-#Louise trigram###Avenue#-#Louise#-#with unigram###Louise bigram###Louise#-#with trigram###Louise#-#with#-#lots unigram###with bigram###with#-#lots trigram###with#-#lots#-#of unigram###lots bigram###lots#-#of trigram###lots#-#of#-#fancy unigram###of bigram###of#-#fancy trigram###of#-#fancy#-#shops unigram###fancy bigram###fancy#-#shops trigram###fancy#-#shops#-#and unigram###shops bigram###shops#-#and trigram###shops#-#and#-#restaurants unigram###and bigram###and#-#restaurants trigram###and#-#restaurants#-#are unigram###restaurants bigram###restaurants#-#are trigram###restaurants#-#are#-#close unigram###are bigram###are#-#close trigram###are#-#close#-#by unigram###close bigram###close#-#by trigram###close#-#by#-#. unigram###by bigram###by#-#. unigram###. 
-0.031335413591779021080796496789844 56:1 135:1 187:1 253:1 474:1 743:1 889:1 2911:1 2912:1 2913:1 4164:1 4464:1 5967:1 8471:1 8472:1 8473:1 8474:1 8475:1 13655:1 18879:1 28744:1 35923:1 39008:1 39009:1 47126:1 47127:1 47128:1 47129:1 47130:1 47131:1 47132:1 47133:1 47134:1 #unigram###But bigram###But#-#still trigram###But#-#still#-#I unigram###still bigram###still#-#I trigram###still#-#I#-#had unigram###I bigram###I#-#had trigram###I#-#had#-#to unigram###had bigram###had#-#to trigram###had#-#to#-#ask unigram###to bigram###to#-#ask trigram###to#-#ask#-#for unigram###ask bigram###ask#-#for trigram###ask#-#for#-#the unigram###for bigram###for#-#the trigram###for#-#the#-#welcome unigram###the bigram###the#-#welcome trigram###the#-#welcome#-#drink unigram###welcome bigram###welcome#-#drink trigram###welcome#-#drink#-#voucher unigram###drink bigram###drink#-#voucher trigram###drink#-#voucher#-#. unigram###voucher bigram###voucher#-#. unigram###. 
0.0079385633468347007596355169312119 7:1 8:1 10:1 56:1 196:1 250:1 474:3 1059:1 2814:1 4089:1 4433:1 5256:1 10150:2 12562:1 14120:1 20158:1 50855:1 51879:1 52340:1 53934:1 54688:1 54689:1 54690:1 54691:1 54692:1 54693:1 54694:1 54695:1 54696:1 54697:1 54698:1 54699:1 54700:1 54701:1 54702:1 54703:1 54704:1 54705:1 54706:1 54707:1 54708:1 54709:1 54710:1 54711:1 54712:1 54713:1 54714:1 54715:1 54716:1 54717:1 54718:1 54719:1 54720:1 54721:1 54722:1 54723:1 54724:1 54725:1 54726:1 54727:1 54728:1 54729:1 54730:1 #unigram###" bigram###"#-#This trigram###"#-#This#-#is unigram###This bigram###This#-#is trigram###This#-#is#-#simply unigram###is bigram###is#-#simply trigram###is#-#simply#-#going unigram###simply bigram###simply#-#going trigram###simply#-#going#-#to unigram###going bigram###going#-#to trigram###going#-#to#-#add unigram###to bigram###to#-#add trigram###to#-#add#-#to unigram###add bigram###add#-#to trigram###add#-#to#-#pressure unigram###to bigram###to#-#pressure trigram###to#-#pressure#-#on unigram###pressure bigram###pressure#-#on trigram###pressure#-#on#-#banks unigram###on bigram###on#-#banks trigram###on#-#banks#-#to unigram###banks bigram###banks#-#to trigram###banks#-#to#-#scrutinize unigram###to bigram###to#-#scrutinize trigram###to#-#scrutinize#-#ever unigram###scrutinize bigram###scrutinize#-#ever trigram###scrutinize#-#ever#-#more unigram###ever bigram###ever#-#more trigram###ever#-#more#-#carefully unigram###more bigram###more#-#carefully trigram###more#-#carefully#-#their unigram###carefully bigram###carefully#-#their trigram###carefully#-#their#-#lending unigram###their bigram###their#-#lending trigram###their#-#lending#-#, unigram###lending bigram###lending#-#, trigram###lending#-#,#-#" unigram###, bigram###,#-#" trigram###,#-#"#-#Williamson unigram###" bigram###"#-#Williamson trigram###"#-#Williamson#-#said unigram###Williamson bigram###Williamson#-#said trigram###Williamson#-#said#-#. unigram###said bigram###said#-#. unigram###. 
-0.11553025307312768388268153785248 253:1 261:1 1927:1 17173:1 22551:1 22552:1 22553:1 22554:1 22555:1 22556:1 22557:1 22558:1 22559:1 22560:1 22561:1 #unigram###Dive bigram###Dive#-#instructor trigram###Dive#-#instructor#-#just unigram###instructor bigram###instructor#-#just trigram###instructor#-#just#-#the unigram###just bigram###just#-#the trigram###just#-#the#-#BEST unigram###the bigram###the#-#BEST trigram###the#-#BEST#-#! unigram###BEST bigram###BEST#-#! unigram###! 
