SVM-light Version V6.02
0 # kernel type
3 # kernel parameter -d 
1 # kernel parameter -g 
1 # kernel parameter -s 
1 # kernel parameter -r 
empty# kernel parameter -u 
76192 # highest feature index 
3477 # number of training documents 
2504 # number of support vectors plus 1 
-0.37500522 # threshold b, each following line is a SV (starting with alpha*y)
-0.02464012220228001606714407500931 33:1 63:2 72:1 119:1 120:1 122:1 166:2 519:1 547:1 796:1 841:1 957:1 1384:1 1541:1 2913:1 3949:1 4389:1 7333:1 8890:1 9322:1 12451:1 15228:1 17781:1 17847:1 17893:1 17919:1 17920:1 17921:1 17922:1 17923:1 17924:1 17925:1 17926:1 17927:1 17928:1 17929:1 17930:1 17931:1 17932:1 17933:1 17934:1 17935:1 17936:1 17937:1 17938:1 17939:1 17940:1 17941:1 17942:1 17943:1 17944:1 17945:1 17946:1 17947:1 17948:1 17949:1 17950:1 17951:1 17952:1 17953:1 17954:1 17955:1 17956:1 17957:1 17958:1 17959:1 17960:1 17961:1 17962:1 17963:1 #unigram###Ich bigram###Ich#-#war trigram###Ich#-#war#-#im unigram###war bigram###war#-#im trigram###war#-#im#-#Bereich unigram###im bigram###im#-#Bereich trigram###im#-#Bereich#-#" unigram###Bereich bigram###Bereich#-#" trigram###Bereich#-#"#-#Manor unigram###" bigram###"#-#Manor trigram###"#-#Manor#-#Motor unigram###Manor bigram###Manor#-#Motor trigram###Manor#-#Motor#-#Lodge unigram###Motor bigram###Motor#-#Lodge trigram###Motor#-#Lodge#-#" unigram###Lodge bigram###Lodge#-#" trigram###Lodge#-#"#-#einquartiert unigram###" bigram###"#-#einquartiert trigram###"#-#einquartiert#-#, unigram###einquartiert bigram###einquartiert#-#, trigram###einquartiert#-#,#-#es unigram###, bigram###,#-#es trigram###,#-#es#-#gibt unigram###es bigram###es#-#gibt trigram###es#-#gibt#-#verschiedene unigram###gibt bigram###gibt#-#verschiedene trigram###gibt#-#verschiedene#-#Gebäude unigram###verschiedene bigram###verschiedene#-#Gebäude trigram###verschiedene#-#Gebäude#-#auf unigram###Gebäude bigram###Gebäude#-#auf trigram###Gebäude#-#auf#-#dem unigram###auf bigram###auf#-#dem trigram###auf#-#dem#-#weitläufigen unigram###dem bigram###dem#-#weitläufigen trigram###dem#-#weitläufigen#-#Gelände unigram###weitläufigen bigram###weitläufigen#-#Gelände trigram###weitläufigen#-#Gelände#-#, unigram###Gelände bigram###Gelände#-#, trigram###Gelände#-#,#-#dieses unigram###, bigram###,#-#dieses trigram###,#-#dieses#-#ist unigram###dieses bigram###dieses#-#ist trigram###dieses#-#ist#-#am unigram###ist bigram###ist#-#am trigram###ist#-#am#-#Ende unigram###am bigram###am#-#Ende trigram###am#-#Ende#-#. unigram###Ende bigram###Ende#-#. unigram###. 
0.0061257576202971217305126572227891 33:1 39:1 63:2 66:2 92:1 119:1 201:1 300:1 378:1 519:1 911:1 1769:1 2543:1 3190:1 3729:1 4284:1 5749:1 6037:1 6038:1 11233:1 16400:1 16483:1 31951:1 31953:1 33699:1 42261:1 53170:1 53171:1 53971:1 53972:1 53973:1 53974:1 53975:1 53976:1 53977:1 53978:1 53979:1 53980:1 53981:1 53982:1 53983:1 53984:1 53985:1 53986:1 53987:1 53988:1 53989:1 53990:1 53991:1 53992:1 53993:1 53994:1 53995:1 53996:1 53997:1 53998:1 53999:1 54000:1 54001:1 54002:1 54003:1 #unigram###Mit bigram###Mit#-#Ausnahme trigram###Mit#-#Ausnahme#-#der unigram###Ausnahme bigram###Ausnahme#-#der trigram###Ausnahme#-#der#-#Empfangshalle unigram###der bigram###der#-#Empfangshalle trigram###der#-#Empfangshalle#-#und unigram###Empfangshalle bigram###Empfangshalle#-#und trigram###Empfangshalle#-#und#-#der unigram###und bigram###und#-#der trigram###und#-#der#-#Gastronomie unigram###der bigram###der#-#Gastronomie trigram###der#-#Gastronomie#-#, unigram###Gastronomie bigram###Gastronomie#-#, trigram###Gastronomie#-#,#-#hierzu unigram###, bigram###,#-#hierzu trigram###,#-#hierzu#-#später unigram###hierzu bigram###hierzu#-#später trigram###hierzu#-#später#-#, unigram###später bigram###später#-#, trigram###später#-#,#-#war unigram###, bigram###,#-#war trigram###,#-#war#-#es unigram###war bigram###war#-#es trigram###war#-#es#-#das unigram###es bigram###es#-#das trigram###es#-#das#-#aber unigram###das bigram###das#-#aber trigram###das#-#aber#-#auch unigram###aber bigram###aber#-#auch trigram###aber#-#auch#-#schon unigram###auch bigram###auch#-#schon trigram###auch#-#schon#-#mit unigram###schon bigram###schon#-#mit trigram###schon#-#mit#-#den unigram###mit bigram###mit#-#den trigram###mit#-#den#-#positiven unigram###den bigram###den#-#positiven trigram###den#-#positiven#-#Eindrücken unigram###positiven bigram###positiven#-#Eindrücken trigram###positiven#-#Eindrücken#-#. unigram###Eindrücken bigram###Eindrücken#-#. unigram###. 
0.015394324932537496036788482456359 22:2 33:1 63:2 72:1 122:1 309:1 404:1 1250:2 1251:1 1252:1 1253:1 1254:1 1255:1 1256:1 1257:1 1258:1 1259:1 1260:1 1261:1 1262:1 1263:1 1264:1 1265:1 1266:1 1267:1 1268:1 1269:1 1270:1 1271:1 1272:1 1273:1 1274:1 1275:1 1276:1 1277:1 1278:1 1279:1 1280:1 1281:1 1282:1 1283:1 1284:1 1285:1 1286:1 1287:1 1288:1 1289:1 1290:1 #unigram###Es bigram###Es#-#ist trigram###Es#-#ist#-#geeignet unigram###ist bigram###ist#-#geeignet trigram###ist#-#geeignet#-#für unigram###geeignet bigram###geeignet#-#für trigram###geeignet#-#für#-#Familien unigram###für bigram###für#-#Familien trigram###für#-#Familien#-#, unigram###Familien bigram###Familien#-#, trigram###Familien#-#,#-#Paare unigram###, bigram###,#-#Paare trigram###,#-#Paare#-#, unigram###Paare bigram###Paare#-#, trigram###Paare#-#,#-#etc. unigram###, bigram###,#-#etc. trigram###,#-#etc.#-#Es unigram###etc. bigram###etc.#-#Es trigram###etc.#-#Es#-#gibt unigram###Es bigram###Es#-#gibt trigram###Es#-#gibt#-#für unigram###gibt bigram###gibt#-#für trigram###gibt#-#für#-#jedes unigram###für bigram###für#-#jedes trigram###für#-#jedes#-#Zimmer unigram###jedes bigram###jedes#-#Zimmer trigram###jedes#-#Zimmer#-#einen unigram###Zimmer bigram###Zimmer#-#einen trigram###Zimmer#-#einen#-#überdachten unigram###einen bigram###einen#-#überdachten trigram###einen#-#überdachten#-#Parkplatz unigram###überdachten bigram###überdachten#-#Parkplatz trigram###überdachten#-#Parkplatz#-#. unigram###Parkplatz bigram###Parkplatz#-#. unigram###. 
0.026278309932762464184996531457728 33:1 63:1 92:1 661:1 1467:1 38140:1 50268:1 55104:1 55105:1 55106:1 55107:1 55108:1 55109:1 55110:1 55111:1 55112:1 55113:1 55114:1 55115:1 55116:1 55117:1 55118:1 55119:1 55120:1 #unigram###Wenig bigram###Wenig#-#arabische trigram###Wenig#-#arabische#-#Hotelbesucher unigram###arabische bigram###arabische#-#Hotelbesucher trigram###arabische#-#Hotelbesucher#-#, unigram###Hotelbesucher bigram###Hotelbesucher#-#, trigram###Hotelbesucher#-#,#-#empfand unigram###, bigram###,#-#empfand trigram###,#-#empfand#-#das unigram###empfand bigram###empfand#-#das trigram###empfand#-#das#-#als unigram###das bigram###das#-#als trigram###das#-#als#-#positiv unigram###als bigram###als#-#positiv trigram###als#-#positiv#-#. unigram###positiv bigram###positiv#-#. unigram###. 
0.021311807914629110616289153767866 4:1 33:1 63:1 78:1 357:1 358:1 404:1 484:1 485:1 486:1 487:1 488:1 490:1 2573:1 4348:1 5487:1 5488:1 5489:1 5490:1 5491:1 5492:1 5493:1 5494:1 5495:1 5496:1 5497:1 5498:1 5499:1 5500:1 5501:1 5502:1 5503:1 5504:1 5505:1 5506:1 5507:1 5508:1 5509:1 5510:1 #unigram###Wir bigram###Wir#-#hatten trigram###Wir#-#hatten#-#ein unigram###hatten bigram###hatten#-#ein trigram###hatten#-#ein#-#Economy unigram###ein bigram###ein#-#Economy trigram###ein#-#Economy#-#· unigram###Economy bigram###Economy#-#· trigram###Economy#-#·#-#Zimmer unigram###· bigram###·#-#Zimmer trigram###·#-#Zimmer#-#bebucht unigram###Zimmer bigram###Zimmer#-#bebucht trigram###Zimmer#-#bebucht#-#, unigram###bebucht bigram###bebucht#-#, trigram###bebucht#-#,#-#würde unigram###, bigram###,#-#würde trigram###,#-#würde#-#ich unigram###würde bigram###würde#-#ich trigram###würde#-#ich#-#nicht unigram###ich bigram###ich#-#nicht trigram###ich#-#nicht#-#mehr unigram###nicht bigram###nicht#-#mehr trigram###nicht#-#mehr#-#tun unigram###mehr bigram###mehr#-#tun trigram###mehr#-#tun#-#. unigram###tun bigram###tun#-#. unigram###. 
0.057032055380574347980271454616741 33:1 161:1 708:1 10857:1 49206:1 49207:1 49208:1 49209:1 49210:1 49211:1 49212:1 49213:1 49214:1 49215:1 49216:1 #unigram###Entsprechend bigram###Entsprechend#-#die trigram###Entsprechend#-#die#-#Freundlichekit unigram###die bigram###die#-#Freundlichekit trigram###die#-#Freundlichekit#-#des unigram###Freundlichekit bigram###Freundlichekit#-#des trigram###Freundlichekit#-#des#-#Servicepersonals unigram###des bigram###des#-#Servicepersonals trigram###des#-#Servicepersonals#-#. unigram###Servicepersonals bigram###Servicepersonals#-#. unigram###. 
-0.036194885478775522258398922303968 33:1 161:1 722:1 841:1 1191:1 6172:1 6677:1 16670:1 20777:1 20778:1 26453:1 31406:1 52858:1 61134:1 63159:1 63160:1 63161:1 63162:1 63163:1 63164:1 63165:1 63166:1 63167:1 63168:1 63169:1 63170:1 63171:1 63172:1 63173:1 63174:1 63175:1 63176:1 63177:1 63178:1 63179:1 63180:1 #unigram###Insgesamt bigram###Insgesamt#-#hätten trigram###Insgesamt#-#hätten#-#seit unigram###hätten bigram###hätten#-#seit trigram###hätten#-#seit#-#dem unigram###seit bigram###seit#-#dem trigram###seit#-#dem#-#vergangenen unigram###dem bigram###dem#-#vergangenen trigram###dem#-#vergangenen#-#Freitag unigram###vergangenen bigram###vergangenen#-#Freitag trigram###vergangenen#-#Freitag#-#gut unigram###Freitag bigram###Freitag#-#gut trigram###Freitag#-#gut#-#1.400 unigram###gut bigram###gut#-#1.400 trigram###gut#-#1.400#-#Menschen unigram###1.400 bigram###1.400#-#Menschen trigram###1.400#-#Menschen#-#die unigram###Menschen bigram###Menschen#-#die trigram###Menschen#-#die#-#Stadt unigram###die bigram###die#-#Stadt trigram###die#-#Stadt#-#verlassen unigram###Stadt bigram###Stadt#-#verlassen trigram###Stadt#-#verlassen#-#. unigram###verlassen bigram###verlassen#-#. unigram###. 
0.00097874415885691192461270926372663 4:1 22:1 33:1 39:1 63:2 64:1 66:1 78:1 112:1 161:1 295:1 300:1 404:1 430:1 450:1 519:1 552:1 729:1 761:1 1194:1 1250:1 1496:1 1498:1 2517:1 2751:1 2935:1 3869:1 4696:2 4765:1 5537:1 6873:1 6874:1 6875:1 6876:1 6877:1 6878:1 6879:1 6880:1 6881:1 6882:1 6883:1 6884:1 6885:1 6886:1 6887:1 6888:1 6889:1 6890:1 6891:1 6892:1 6893:1 6894:1 6895:1 6896:1 6897:1 6898:1 6899:1 6900:1 6901:1 6902:1 6903:1 6904:1 6905:1 6906:1 6907:1 6908:1 6909:1 6910:1 6911:1 6912:1 6913:1 6914:1 6915:1 6916:1 6917:1 6918:1 6919:1 6920:1 6921:1 6922:1 6923:1 6924:1 6925:1 6926:1 6927:1 6928:1 6929:1 6930:1 6931:1 6932:1 6933:1 6934:1 6935:1 6936:1 6937:1 6938:1 6939:1 6940:1 6941:1 6942:1 6943:1 6944:1 6945:1 6946:1 6947:1 6948:1 6949:1 6950:1 6951:1 6952:1 6953:1 6954:1 6955:1 6956:1 6957:1 6958:1 6959:1 6960:1 6961:1 6962:1 6963:1 6964:1 6965:1 6966:1 #unigram###Es bigram###Es#-#brauchte trigram###Es#-#brauchte#-#ca. unigram###brauchte bigram###brauchte#-#ca. trigram###brauchte#-#ca.#-#vier unigram###ca. bigram###ca.#-#vier trigram###ca.#-#vier#-#Telephonate unigram###vier bigram###vier#-#Telephonate trigram###vier#-#Telephonate#-#, unigram###Telephonate bigram###Telephonate#-#, trigram###Telephonate#-#,#-#bis unigram###, bigram###,#-#bis trigram###,#-#bis#-#die unigram###bis bigram###bis#-#die trigram###bis#-#die#-#Pässe unigram###die bigram###die#-#Pässe trigram###die#-#Pässe#-#ausfindig unigram###Pässe bigram###Pässe#-#ausfindig trigram###Pässe#-#ausfindig#-#gemacht unigram###ausfindig bigram###ausfindig#-#gemacht trigram###ausfindig#-#gemacht#-#waren unigram###gemacht bigram###gemacht#-#waren trigram###gemacht#-#waren#-#bzw. unigram###waren bigram###waren#-#bzw. trigram###waren#-#bzw.#-#bis unigram###bzw. bigram###bzw.#-#bis trigram###bzw.#-#bis#-#sich unigram###bis bigram###bis#-#sich trigram###bis#-#sich#-#jemand unigram###sich bigram###sich#-#jemand trigram###sich#-#jemand#-#vom unigram###jemand bigram###jemand#-#vom trigram###jemand#-#vom#-#Hotelpersonal unigram###vom bigram###vom#-#Hotelpersonal trigram###vom#-#Hotelpersonal#-#ins unigram###Hotelpersonal bigram###Hotelpersonal#-#ins trigram###Hotelpersonal#-#ins#-#Zimmer unigram###ins bigram###ins#-#Zimmer trigram###ins#-#Zimmer#-#bemühen unigram###Zimmer bigram###Zimmer#-#bemühen trigram###Zimmer#-#bemühen#-#konnte unigram###bemühen bigram###bemühen#-#konnte trigram###bemühen#-#konnte#-#, unigram###konnte bigram###konnte#-#, trigram###konnte#-#,#-#der unigram###, bigram###,#-#der trigram###,#-#der#-#Ablauf unigram###der bigram###der#-#Ablauf trigram###der#-#Ablauf#-#war unigram###Ablauf bigram###Ablauf#-#war trigram###Ablauf#-#war#-#sehr unigram###war bigram###war#-#sehr trigram###war#-#sehr#-#chaotisch unigram###sehr bigram###sehr#-#chaotisch trigram###sehr#-#chaotisch#-#und unigram###chaotisch bigram###chaotisch#-#und trigram###chaotisch#-#und#-#für unigram###und bigram###und#-#für trigram###und#-#für#-#uns unigram###für bigram###für#-#uns trigram###für#-#uns#-#nicht unigram###uns bigram###uns#-#nicht trigram###uns#-#nicht#-#nachvollziehbar unigram###nicht bigram###nicht#-#nachvollziehbar trigram###nicht#-#nachvollziehbar#-#· unigram###nachvollziehbar bigram###nachvollziehbar#-#· trigram###nachvollziehbar#-#·#-#wir unigram###· bigram###·#-#wir trigram###·#-#wir#-#erreichten unigram###wir bigram###wir#-#erreichten trigram###wir#-#erreichten#-#den unigram###erreichten bigram###erreichten#-#den trigram###erreichten#-#den#-#Flug unigram###den bigram###den#-#Flug trigram###den#-#Flug#-#gerade unigram###Flug bigram###Flug#-#gerade trigram###Flug#-#gerade#-#noch unigram###gerade bigram###gerade#-#noch trigram###gerade#-#noch#-#last unigram###noch bigram###noch#-#last trigram###noch#-#last#-#minute unigram###last bigram###last#-#minute trigram###last#-#minute#-#. unigram###minute bigram###minute#-#. unigram###. 
0.0098922768232661724419063631330573 33:1 39:1 78:2 761:1 841:1 911:1 4504:1 8016:1 17293:1 19340:1 28929:1 29266:1 34284:1 50362:1 60064:1 61074:1 61076:1 61078:1 65375:1 67204:1 67205:1 67206:1 67207:1 67208:1 67209:1 67210:1 67211:1 67212:1 67213:1 67214:1 67215:1 67216:1 67217:1 67218:1 67219:1 67220:1 67221:1 67222:1 67223:1 67224:1 67225:1 67226:1 67227:1 67228:1 67229:1 67230:1 67231:1 67232:1 67233:1 67234:1 67235:1 67236:1 67237:1 #unigram###Dazu bigram###Dazu#-#wolle trigram###Dazu#-#wolle#-#er unigram###wolle bigram###wolle#-#er trigram###wolle#-#er#-#sich unigram###er bigram###er#-#sich trigram###er#-#sich#-#morgen unigram###sich bigram###sich#-#morgen trigram###sich#-#morgen#-#mit unigram###morgen bigram###morgen#-#mit trigram###morgen#-#mit#-#dem unigram###mit bigram###mit#-#dem trigram###mit#-#dem#-#russischen unigram###dem bigram###dem#-#russischen trigram###dem#-#russischen#-#Vize unigram###russischen bigram###russischen#-#Vize trigram###russischen#-#Vize#-#· unigram###Vize bigram###Vize#-#· trigram###Vize#-#·#-#Außenminister unigram###· bigram###·#-#Außenminister trigram###·#-#Außenminister#-#Gatilow unigram###Außenminister bigram###Außenminister#-#Gatilow trigram###Außenminister#-#Gatilow#-#und unigram###Gatilow bigram###Gatilow#-#und trigram###Gatilow#-#und#-#US unigram###und bigram###und#-#US trigram###und#-#US#-#· unigram###US bigram###US#-#· trigram###US#-#·#-#Staatssekretärin unigram###· bigram###·#-#Staatssekretärin trigram###·#-#Staatssekretärin#-#Sherman unigram###Staatssekretärin bigram###Staatssekretärin#-#Sherman trigram###Staatssekretärin#-#Sherman#-#treffen unigram###Sherman bigram###Sherman#-#treffen trigram###Sherman#-#treffen#-#. unigram###treffen bigram###treffen#-#. unigram###. 
-0.020849549491777683019044786760787 4:1 33:1 66:1 78:1 81:1 92:1 144:1 295:1 300:1 342:1 375:1 378:1 519:1 602:1 871:1 1101:1 1200:1 1428:1 1536:1 1537:1 1538:1 1539:1 1540:1 1541:1 1542:1 1543:1 1544:1 1545:1 1546:1 1547:1 1548:1 1549:1 1550:1 1551:1 1552:1 1553:1 1554:1 1555:1 1556:1 1557:1 1558:1 1559:1 1560:1 1561:1 1562:1 1563:1 1564:1 1565:1 1566:1 1567:1 1568:1 1569:1 1570:1 1571:1 1572:1 1573:1 1574:1 1575:1 1576:1 1577:1 1578:1 1579:1 1580:1 1581:1 1582:1 1583:1 1584:1 1585:1 1586:1 1587:1 1588:1 1589:1 1590:1 1591:1 1592:1 1593:1 1594:1 1595:1 1596:1 1597:1 1598:1 #unigram###Wetter bigram###Wetter#-#war trigram###Wetter#-#war#-#Ende unigram###war bigram###war#-#Ende trigram###war#-#Ende#-#Mai unigram###Ende bigram###Ende#-#Mai trigram###Ende#-#Mai#-#2013 unigram###Mai bigram###Mai#-#2013 trigram###Mai#-#2013#-#noch unigram###2013 bigram###2013#-#noch trigram###2013#-#noch#-#etwas unigram###noch bigram###noch#-#etwas trigram###noch#-#etwas#-#bedeckt unigram###etwas bigram###etwas#-#bedeckt trigram###etwas#-#bedeckt#-#; unigram###bedeckt bigram###bedeckt#-#; trigram###bedeckt#-#;#-#wurde unigram###; bigram###;#-#wurde trigram###;#-#wurde#-#erst unigram###wurde bigram###wurde#-#erst trigram###wurde#-#erst#-#in unigram###erst bigram###erst#-#in trigram###erst#-#in#-#den unigram###in bigram###in#-#den trigram###in#-#den#-#letzten unigram###den bigram###den#-#letzten trigram###den#-#letzten#-#Taqen unigram###letzten bigram###letzten#-#Taqen trigram###letzten#-#Taqen#-#wie unigram###Taqen bigram###Taqen#-#wie trigram###Taqen#-#wie#-#erhofft unigram###wie bigram###wie#-#erhofft trigram###wie#-#erhofft#-#· unigram###erhofft bigram###erhofft#-#· trigram###erhofft#-#·#-#aber unigram###· bigram###·#-#aber trigram###·#-#aber#-#das unigram###aber bigram###aber#-#das trigram###aber#-#das#-#kann unigram###das bigram###das#-#kann trigram###das#-#kann#-#man unigram###kann bigram###kann#-#man trigram###kann#-#man#-#der unigram###man bigram###man#-#der trigram###man#-#der#-#Unterkunft unigram###der bigram###der#-#Unterkunft trigram###der#-#Unterkunft#-#ja unigram###Unterkunft bigram###Unterkunft#-#ja trigram###Unterkunft#-#ja#-#nicht unigram###ja bigram###ja#-#nicht trigram###ja#-#nicht#-#anlasten unigram###nicht bigram###nicht#-#anlasten trigram###nicht#-#anlasten#-#. unigram###anlasten bigram###anlasten#-#. unigram###. 
-0.089117421068874852485564019843878 12:1 22:2 404:1 490:1 496:1 498:1 1463:1 1717:1 4223:1 10198:1 11522:1 12525:1 30958:1 35134:1 35135:1 35136:1 35137:1 35138:1 35139:1 35140:1 35141:1 35142:1 35143:1 35144:1 35145:1 35146:1 35147:1 35148:1 35149:1 35150:1 35151:1 35152:1 #unigram###30 bigram###30#-#Dollar trigram###30#-#Dollar#-#zugezahlt unigram###Dollar bigram###Dollar#-#zugezahlt trigram###Dollar#-#zugezahlt#-#für unigram###zugezahlt bigram###zugezahlt#-#für trigram###zugezahlt#-#für#-#ein unigram###für bigram###für#-#ein trigram###für#-#ein#-#Zimmer unigram###ein bigram###ein#-#Zimmer trigram###ein#-#Zimmer#-#zum unigram###Zimmer bigram###Zimmer#-#zum trigram###Zimmer#-#zum#-#Wohlfühlen unigram###zum bigram###zum#-#Wohlfühlen trigram###zum#-#Wohlfühlen#-#für unigram###Wohlfühlen bigram###Wohlfühlen#-#für trigram###Wohlfühlen#-#für#-#2 unigram###für bigram###für#-#2 trigram###für#-#2#-#Wochen unigram###2 bigram###2#-#Wochen trigram###2#-#Wochen#-#! unigram###Wochen bigram###Wochen#-#! unigram###! 
0.025689984958553183785889828527615 33:1 63:1 210:1 524:1 841:1 923:1 2982:1 4504:1 6277:1 14053:1 30557:1 32426:1 68059:1 68060:1 68061:1 68062:1 68063:1 68064:1 68065:1 68066:1 68067:1 68068:1 68069:1 68070:1 68071:1 68072:1 68073:1 68074:1 68075:1 68076:1 68077:1 68078:1 68079:1 68080:1 68081:1 68082:1 68083:1 68084:1 68085:1 68086:1 68087:1 68088:1 68089:1 68090:1 68091:1 #unigram###Seinem bigram###Seinem#-#Nachfolger trigram###Seinem#-#Nachfolger#-#wünsche unigram###Nachfolger bigram###Nachfolger#-#wünsche trigram###Nachfolger#-#wünsche#-#er unigram###wünsche bigram###wünsche#-#er trigram###wünsche#-#er#-#Erfolg unigram###er bigram###er#-#Erfolg trigram###er#-#Erfolg#-#, unigram###Erfolg bigram###Erfolg#-#, trigram###Erfolg#-#,#-#ohne unigram###, bigram###,#-#ohne trigram###,#-#ohne#-#allerdings unigram###ohne bigram###ohne#-#allerdings trigram###ohne#-#allerdings#-#dem unigram###allerdings bigram###allerdings#-#dem trigram###allerdings#-#dem#-#Namen unigram###dem bigram###dem#-#Namen trigram###dem#-#Namen#-#von unigram###Namen bigram###Namen#-#von trigram###Namen#-#von#-#Joe unigram###von bigram###von#-#Joe trigram###von#-#Joe#-#Kaeser unigram###Joe bigram###Joe#-#Kaeser trigram###Joe#-#Kaeser#-#zu unigram###Kaeser bigram###Kaeser#-#zu trigram###Kaeser#-#zu#-#nennen unigram###zu bigram###zu#-#nennen trigram###zu#-#nennen#-#. unigram###nennen bigram###nennen#-#. unigram###. 
0.014163966906255702482564373667628 4:1 33:1 63:2 314:1 430:1 487:1 1463:1 1784:1 1804:1 1849:1 4463:1 5594:1 5766:1 5767:1 7009:1 7682:1 10221:1 13338:1 16820:1 23658:1 23660:1 31112:1 40643:1 40644:1 40645:1 40646:1 40647:1 40648:1 40649:1 40650:1 40651:1 40652:1 40653:1 40654:1 40655:1 40656:1 40657:1 40658:1 40659:1 40660:1 40661:1 40662:1 40663:1 40664:1 40665:1 40666:1 40667:1 40668:1 40669:1 40670:1 40671:1 40672:1 40673:1 #unigram###Bin bigram###Bin#-#froh trigram###Bin#-#froh#-#, unigram###froh bigram###froh#-#, trigram###froh#-#,#-#daß unigram###, bigram###,#-#daß trigram###,#-#daß#-#wir unigram###daß bigram###daß#-#wir trigram###daß#-#wir#-#nur unigram###wir bigram###wir#-#nur trigram###wir#-#nur#-#2 unigram###nur bigram###nur#-#2 trigram###nur#-#2#-#Tage unigram###2 bigram###2#-#Tage trigram###2#-#Tage#-#gebucht unigram###Tage bigram###Tage#-#gebucht trigram###Tage#-#gebucht#-#hatten unigram###gebucht bigram###gebucht#-#hatten trigram###gebucht#-#hatten#-#, unigram###hatten bigram###hatten#-#, trigram###hatten#-#,#-#länger unigram###, bigram###,#-#länger trigram###,#-#länger#-#wäre unigram###länger bigram###länger#-#wäre trigram###länger#-#wäre#-#meinem unigram###wäre bigram###wäre#-#meinem trigram###wäre#-#meinem#-#Körper unigram###meinem bigram###meinem#-#Körper trigram###meinem#-#Körper#-#nicht unigram###Körper bigram###Körper#-#nicht trigram###Körper#-#nicht#-#zuzumuten unigram###nicht bigram###nicht#-#zuzumuten trigram###nicht#-#zuzumuten#-#gewesen unigram###zuzumuten bigram###zuzumuten#-#gewesen trigram###zuzumuten#-#gewesen#-#. unigram###gewesen bigram###gewesen#-#. unigram###. 
0.014043665677735692534633393790955 33:1 39:1 63:2 72:1 78:2 166:2 275:1 300:1 331:1 332:1 490:1 708:1 4541:1 5320:1 11016:1 14307:1 26008:1 49467:1 55412:1 59963:1 60171:1 64117:1 64372:1 65287:1 65288:1 68574:1 69331:1 70281:1 70282:1 70283:1 70284:1 70285:1 70286:1 70287:1 70288:1 70289:1 70290:1 70291:1 70292:1 70293:1 70294:1 70295:1 70296:1 70297:1 70298:1 70299:1 70300:1 70301:1 70302:1 70303:1 70304:1 70305:1 70306:1 70307:1 70308:1 70309:1 70310:1 70311:1 70312:1 70313:1 70314:1 70315:1 70316:1 70317:1 70318:1 70319:1 70320:1 70321:1 70322:1 70323:1 70324:1 70325:1 70326:1 70327:1 70328:1 70329:1 70330:1 70331:1 #unigram###" bigram###"#-#Bei trigram###"#-#Bei#-#den unigram###Bei bigram###Bei#-#den trigram###Bei#-#den#-#Unternehmen unigram###den bigram###den#-#Unternehmen trigram###den#-#Unternehmen#-#ist unigram###Unternehmen bigram###Unternehmen#-#ist trigram###Unternehmen#-#ist#-#Indonesien unigram###ist bigram###ist#-#Indonesien trigram###ist#-#Indonesien#-#derzeit unigram###Indonesien bigram###Indonesien#-#derzeit trigram###Indonesien#-#derzeit#-#ein unigram###derzeit bigram###derzeit#-#ein trigram###derzeit#-#ein#-#Renner unigram###ein bigram###ein#-#Renner trigram###ein#-#Renner#-#" unigram###Renner bigram###Renner#-#" trigram###Renner#-#"#-#, unigram###" bigram###"#-#, trigram###"#-#,#-#sagt unigram###, bigram###,#-#sagt trigram###,#-#sagt#-#Benjamin unigram###sagt bigram###sagt#-#Benjamin trigram###sagt#-#Benjamin#-#Leipold unigram###Benjamin bigram###Benjamin#-#Leipold trigram###Benjamin#-#Leipold#-#, unigram###Leipold bigram###Leipold#-#, trigram###Leipold#-#,#-#Asien unigram###, bigram###,#-#Asien trigram###,#-#Asien#-#· unigram###Asien bigram###Asien#-#· trigram###Asien#-#·#-#Experte unigram###· bigram###·#-#Experte trigram###·#-#Experte#-#des unigram###Experte bigram###Experte#-#des trigram###Experte#-#des#-#Deutschen unigram###des bigram###des#-#Deutschen trigram###des#-#Deutschen#-#Industrie unigram###Deutschen bigram###Deutschen#-#Industrie trigram###Deutschen#-#Industrie#-#· unigram###Industrie bigram###Industrie#-#· trigram###Industrie#-#·#-#und unigram###· bigram###·#-#und trigram###·#-#und#-#Handelskammertages unigram###und bigram###und#-#Handelskammertages trigram###und#-#Handelskammertages#-#( unigram###Handelskammertages bigram###Handelskammertages#-#( trigram###Handelskammertages#-#(#-#DIHK unigram###( bigram###(#-#DIHK trigram###(#-#DIHK#-#) unigram###DIHK bigram###DIHK#-#) trigram###DIHK#-#)#-#. unigram###) bigram###)#-#. unigram###. 
0.0029654342174288157024664158711857 33:1 39:1 72:1 248:1 641:1 1054:1 20011:1 26108:1 30560:1 30561:1 43176:1 52981:1 52982:1 52983:1 52984:1 52985:1 52986:1 52987:1 #unigram###Das bigram###Das#-#Bad trigram###Das#-#Bad#-#ist unigram###Bad bigram###Bad#-#ist trigram###Bad#-#ist#-#angemessen unigram###ist bigram###ist#-#angemessen trigram###ist#-#angemessen#-#und unigram###angemessen bigram###angemessen#-#und trigram###angemessen#-#und#-#modern unigram###und bigram###und#-#modern trigram###und#-#modern#-#. unigram###modern bigram###modern#-#. unigram###. 
0.014619242438863949695715405141527 682:1 63545:1 66056:1 67325:1 67425:1 67426:1 67427:1 67428:1 67429:1 67430:1 67431:1 67432:1 67433:1 67434:1 67435:1 67436:1 67437:1 67438:1 #unigram###FDP bigram###FDP#-#will trigram###FDP#-#will#-#künftig unigram###will bigram###will#-#künftig trigram###will#-#künftig#-#stärker unigram###künftig bigram###künftig#-#stärker trigram###künftig#-#stärker#-#soziale unigram###stärker bigram###stärker#-#soziale trigram###stärker#-#soziale#-#Themen unigram###soziale bigram###soziale#-#Themen trigram###soziale#-#Themen#-#besetzen unigram###Themen bigram###Themen#-#besetzen unigram###besetzen 
0.04922173550028853539206608047607 33:1 158:1 761:1 15962:1 40862:1 62859:1 63005:1 63006:1 63007:1 63008:1 63009:1 63010:1 63011:1 63012:1 63013:1 63014:1 63015:1 63016:1 #unigram###Trotzdem bigram###Trotzdem#-#beklagt trigram###Trotzdem#-#beklagt#-#Hollande unigram###beklagt bigram###beklagt#-#Hollande trigram###beklagt#-#Hollande#-#sich unigram###Hollande bigram###Hollande#-#sich trigram###Hollande#-#sich#-#über unigram###sich bigram###sich#-#über trigram###sich#-#über#-#Spardiktate unigram###über bigram###über#-#Spardiktate trigram###über#-#Spardiktate#-#. unigram###Spardiktate bigram###Spardiktate#-#. unigram###. 
-0.039741663608051792933029133791933 33:1 39:1 63:1 95:1 201:1 378:1 474:1 547:1 552:1 1133:1 1138:1 1146:1 1147:1 1148:1 1250:1 1470:1 1471:1 2625:1 3451:1 3452:1 3729:1 8612:1 9381:1 14143:1 21782:1 27425:1 27426:1 27427:1 27428:1 27429:1 27430:1 27431:1 27432:1 27433:1 27434:1 27435:1 27436:1 27437:1 27438:1 #unigram###Es bigram###Es#-#waren trigram###Es#-#waren#-#vorwiegend unigram###waren bigram###waren#-#vorwiegend trigram###waren#-#vorwiegend#-#Deutsche unigram###vorwiegend bigram###vorwiegend#-#Deutsche trigram###vorwiegend#-#Deutsche#-#Gäste unigram###Deutsche bigram###Deutsche#-#Gäste trigram###Deutsche#-#Gäste#-#im unigram###Gäste bigram###Gäste#-#im trigram###Gäste#-#im#-#Hotel unigram###im bigram###im#-#Hotel trigram###im#-#Hotel#-#, unigram###Hotel bigram###Hotel#-#, trigram###Hotel#-#,#-#aber unigram###, bigram###,#-#aber trigram###,#-#aber#-#auch unigram###aber bigram###aber#-#auch trigram###aber#-#auch#-#Schweizer unigram###auch bigram###auch#-#Schweizer trigram###auch#-#Schweizer#-#und unigram###Schweizer bigram###Schweizer#-#und trigram###Schweizer#-#und#-#Österreicher unigram###und bigram###und#-#Österreicher trigram###und#-#Österreicher#-#. unigram###Österreicher bigram###Österreicher#-#. unigram###. 
0.043321745442819858951111200440209 33:1 72:1 95:2 248:1 378:1 490:1 491:1 493:1 801:1 1902:1 2096:1 2097:1 3491:1 4828:1 4829:1 4830:1 4831:1 4832:1 4833:1 4834:1 4835:1 4836:1 4837:1 #unigram###Das bigram###Das#-#Hotel trigram###Das#-#Hotel#-#ist unigram###Hotel bigram###Hotel#-#ist trigram###Hotel#-#ist#-#ein unigram###ist bigram###ist#-#ein trigram###ist#-#ein#-#kleines unigram###ein bigram###ein#-#kleines trigram###ein#-#kleines#-#aber unigram###kleines bigram###kleines#-#aber trigram###kleines#-#aber#-#feines unigram###aber bigram###aber#-#feines trigram###aber#-#feines#-#Hotel unigram###feines bigram###feines#-#Hotel trigram###feines#-#Hotel#-#. unigram###Hotel bigram###Hotel#-#. unigram###. 
0.051070911483568771915830808438841 33:1 119:1 237:1 300:1 611:1 9083:1 9084:1 27521:1 27523:1 30245:1 38725:1 38726:1 38727:1 38728:1 38729:1 38730:1 38731:1 38732:1 38733:1 38734:1 38735:1 38736:1 38737:1 38738:1 #unigram###Auf bigram###Auf#-#den trigram###Auf#-#den#-#Gängen unigram###den bigram###den#-#Gängen trigram###den#-#Gängen#-#roch unigram###Gängen bigram###Gängen#-#roch trigram###Gängen#-#roch#-#es unigram###roch bigram###roch#-#es trigram###roch#-#es#-#nach unigram###es bigram###es#-#nach trigram###es#-#nach#-#verschiedenen unigram###nach bigram###nach#-#verschiedenen trigram###nach#-#verschiedenen#-#Mahlzeiten unigram###verschiedenen bigram###verschiedenen#-#Mahlzeiten trigram###verschiedenen#-#Mahlzeiten#-#. unigram###Mahlzeiten bigram###Mahlzeiten#-#. unigram###. 
-0.021998026634457767958252816242748 4:1 33:1 63:1 64:1 66:1 92:1 144:1 375:1 412:1 547:1 969:1 1224:1 5594:1 7610:1 10393:1 15619:1 16863:1 20451:1 25202:1 26300:1 26311:1 26312:1 26313:1 26314:1 26315:1 26316:1 26317:1 26318:1 26319:1 26320:1 26321:1 26322:1 26323:1 26324:1 26325:1 26326:1 26327:1 26328:1 26329:1 26330:1 26331:1 26332:1 26333:1 26334:1 26335:1 26336:1 26337:1 26338:1 26339:1 26340:1 26341:1 26342:1 26343:1 26344:1 26345:1 26346:1 26347:1 26348:1 26349:1 26350:1 26351:1 26352:1 26353:1 26354:1 26355:1 26356:1 #unigram###Die bigram###Die#-#Tür trigram###Die#-#Tür#-#wird unigram###Tür bigram###Tür#-#wird trigram###Tür#-#wird#-#aufgestoßen unigram###wird bigram###wird#-#aufgestoßen trigram###wird#-#aufgestoßen#-#, unigram###aufgestoßen bigram###aufgestoßen#-#, trigram###aufgestoßen#-#,#-#der unigram###, bigram###,#-#der trigram###,#-#der#-#Türdrücker unigram###der bigram###der#-#Türdrücker trigram###der#-#Türdrücker#-#dient unigram###Türdrücker bigram###Türdrücker#-#dient trigram###Türdrücker#-#dient#-#nicht unigram###dient bigram###dient#-#nicht trigram###dient#-#nicht#-#im unigram###nicht bigram###nicht#-#im trigram###nicht#-#im#-#eigentlichen unigram###im bigram###im#-#eigentlichen trigram###im#-#eigentlichen#-#Sinne.Zu unigram###eigentlichen bigram###eigentlichen#-#Sinne.Zu trigram###eigentlichen#-#Sinne.Zu#-#beachten unigram###Sinne.Zu bigram###Sinne.Zu#-#beachten trigram###Sinne.Zu#-#beachten#-#wäre unigram###beachten bigram###beachten#-#wäre trigram###beachten#-#wäre#-#das unigram###wäre bigram###wäre#-#das trigram###wäre#-#das#-#man unigram###das bigram###das#-#man trigram###das#-#man#-#in unigram###man bigram###man#-#in trigram###man#-#in#-#Florenz unigram###in bigram###in#-#Florenz trigram###in#-#Florenz#-#eine unigram###Florenz bigram###Florenz#-#eine trigram###Florenz#-#eine#-#sogenannte unigram###eine bigram###eine#-#sogenannte trigram###eine#-#sogenannte#-#Touristensteuer unigram###sogenannte bigram###sogenannte#-#Touristensteuer trigram###sogenannte#-#Touristensteuer#-#berechnet unigram###Touristensteuer bigram###Touristensteuer#-#berechnet trigram###Touristensteuer#-#berechnet#-#. unigram###berechnet bigram###berechnet#-#. unigram###. 
-0.5 32073:1 #unigram###Hallo 
0.0044220339555339641460229849201369 33:1 63:2 66:2 161:1 226:1 227:1 251:1 292:1 295:1 357:1 386:1 653:1 746:1 747:1 748:1 749:1 750:1 751:1 752:1 873:1 1224:1 3389:1 3722:1 3724:1 6513:1 11144:1 14557:1 14558:1 15013:1 15087:1 15088:1 15089:1 15090:1 15091:1 15092:1 15093:1 15094:1 15095:1 15096:1 15097:1 15098:1 15099:1 15100:1 15101:1 15102:1 15103:1 15104:1 15105:1 15106:1 15107:1 15108:1 15109:1 15110:1 15111:1 15112:1 15113:1 15114:1 15115:1 15116:1 15117:1 15118:1 15119:1 15120:1 15121:1 15122:1 15123:1 15124:1 15125:1 15126:1 15127:1 #unigram###Besonders bigram###Besonders#-#der trigram###Besonders#-#der#-#netten unigram###der bigram###der#-#netten trigram###der#-#netten#-#Dame unigram###netten bigram###netten#-#Dame trigram###netten#-#Dame#-#an unigram###Dame bigram###Dame#-#an trigram###Dame#-#an#-#der unigram###an bigram###an#-#der trigram###an#-#der#-#Rezeption unigram###der bigram###der#-#Rezeption trigram###der#-#Rezeption#-#, unigram###Rezeption bigram###Rezeption#-#, trigram###Rezeption#-#,#-#die unigram###, bigram###,#-#die trigram###,#-#die#-#mir unigram###die bigram###die#-#mir trigram###die#-#mir#-#eine unigram###mir bigram###mir#-#eine trigram###mir#-#eine#-#Jacke unigram###eine bigram###eine#-#Jacke trigram###eine#-#Jacke#-#besorgt unigram###Jacke bigram###Jacke#-#besorgt trigram###Jacke#-#besorgt#-#hat unigram###besorgt bigram###besorgt#-#hat trigram###besorgt#-#hat#-#noch unigram###hat bigram###hat#-#noch trigram###hat#-#noch#-#mal unigram###noch bigram###noch#-#mal trigram###noch#-#mal#-#herzlichen unigram###mal bigram###mal#-#herzlichen trigram###mal#-#herzlichen#-#Dank unigram###herzlichen bigram###herzlichen#-#Dank trigram###herzlichen#-#Dank#-#, unigram###Dank bigram###Dank#-#, trigram###Dank#-#,#-#da unigram###, bigram###,#-#da trigram###,#-#da#-#ich unigram###da bigram###da#-#ich trigram###da#-#ich#-#meine unigram###ich bigram###ich#-#meine trigram###ich#-#meine#-#vergessen unigram###meine bigram###meine#-#vergessen trigram###meine#-#vergessen#-#hatte unigram###vergessen bigram###vergessen#-#hatte trigram###vergessen#-#hatte#-#. unigram###hatte bigram###hatte#-#. unigram###. 
0.026249812944592540442378947318502 33:1 63:1 72:1 81:1 95:1 144:1 248:1 801:1 911:1 1083:1 1224:1 2096:1 2097:1 3761:1 3763:1 3952:1 6049:1 6067:1 12969:1 15050:1 17975:1 17976:1 17977:1 17978:1 17979:1 17980:1 17981:1 17982:1 17983:1 17984:1 17985:1 17986:1 17987:1 17988:1 17989:1 17990:1 17991:1 17992:1 17993:1 17994:1 17995:1 17996:1 17997:1 17998:1 17999:1 #unigram###Das bigram###Das#-#Hotel trigram###Das#-#Hotel#-#ist unigram###Hotel bigram###Hotel#-#ist trigram###Hotel#-#ist#-#wie unigram###ist bigram###ist#-#wie trigram###ist#-#wie#-#eine unigram###wie bigram###wie#-#eine trigram###wie#-#eine#-#überteuerte unigram###eine bigram###eine#-#überteuerte trigram###eine#-#überteuerte#-#Jugendherberge unigram###überteuerte bigram###überteuerte#-#Jugendherberge trigram###überteuerte#-#Jugendherberge#-#mit unigram###Jugendherberge bigram###Jugendherberge#-#mit trigram###Jugendherberge#-#mit#-#internationalem unigram###mit bigram###mit#-#internationalem trigram###mit#-#internationalem#-#, unigram###internationalem bigram###internationalem#-#, trigram###internationalem#-#,#-#jungen unigram###, bigram###,#-#jungen trigram###,#-#jungen#-#Publikum unigram###jungen bigram###jungen#-#Publikum trigram###jungen#-#Publikum#-#in unigram###Publikum bigram###Publikum#-#in trigram###Publikum#-#in#-#einem unigram###in bigram###in#-#einem trigram###in#-#einem#-#Problembezirk unigram###einem bigram###einem#-#Problembezirk trigram###einem#-#Problembezirk#-#. unigram###Problembezirk bigram###Problembezirk#-#. unigram###. 
-0.017166618424580983026661584744943 33:1 63:3 78:1 92:1 93:1 95:1 275:1 331:1 1064:1 1544:1 1717:1 1718:1 4837:1 6232:1 9202:1 13006:1 21776:1 21777:1 21778:1 21779:1 21780:1 21781:1 21782:1 21783:1 21784:1 21785:1 21786:1 21787:1 21788:1 21789:1 21790:1 21791:1 21792:1 21793:1 21794:1 21795:1 21796:1 21797:1 21798:1 21799:1 21800:1 21801:1 21802:1 21803:1 21804:1 21805:1 21806:1 21807:1 21808:1 21809:1 21810:1 21811:1 21812:1 21813:1 21814:1 21815:1 21816:1 21817:1 21818:1 21819:1 21820:1 #unigram###Im bigram###Im#-#Mai trigram###Im#-#Mai#-#besuchen unigram###Mai bigram###Mai#-#besuchen trigram###Mai#-#besuchen#-#vorwiegend unigram###besuchen bigram###besuchen#-#vorwiegend trigram###besuchen#-#vorwiegend#-#Stammgaeste unigram###vorwiegend bigram###vorwiegend#-#Stammgaeste trigram###vorwiegend#-#Stammgaeste#-#( unigram###Stammgaeste bigram###Stammgaeste#-#( trigram###Stammgaeste#-#(#-#DE unigram###( bigram###(#-#DE trigram###(#-#DE#-#, unigram###DE bigram###DE#-#, trigram###DE#-#,#-#AT unigram###, bigram###,#-#AT trigram###,#-#AT#-#, unigram###AT bigram###AT#-#, trigram###AT#-#,#-#CH unigram###, bigram###,#-#CH trigram###,#-#CH#-#, unigram###CH bigram###CH#-#, trigram###CH#-#,#-#GB unigram###, bigram###,#-#GB trigram###,#-#GB#-#) unigram###GB bigram###GB#-#) trigram###GB#-#)#-#ziwschen unigram###) bigram###)#-#ziwschen trigram###)#-#ziwschen#-#30 unigram###ziwschen bigram###ziwschen#-#30 trigram###ziwschen#-#30#-#· unigram###30 bigram###30#-#· trigram###30#-#·#-#60 unigram###· bigram###·#-#60 trigram###·#-#60#-#Jahren unigram###60 bigram###60#-#Jahren trigram###60#-#Jahren#-#das unigram###Jahren bigram###Jahren#-#das trigram###Jahren#-#das#-#Hotel unigram###das bigram###das#-#Hotel trigram###das#-#Hotel#-#. unigram###Hotel bigram###Hotel#-#. unigram###. 
-0.028835351857896943106318587979331 4:1 33:1 63:2 66:1 161:2 911:1 923:1 1224:1 1801:1 3435:1 5744:1 10256:1 10258:1 10396:1 10398:1 14590:1 26900:2 63247:1 63248:1 63249:1 63250:1 63251:1 63252:1 63253:1 63254:1 63255:1 63256:1 63257:1 63258:1 63259:1 63260:1 63261:1 63262:1 63263:1 63264:1 63265:1 63266:1 63267:1 63268:1 63269:1 63270:1 63271:1 63272:1 63273:1 63274:1 63275:1 63276:2 63277:2 63278:1 63279:1 63280:1 63281:1 63282:1 63283:1 63284:1 63285:1 63286:1 63287:1 63288:1 63289:1 63290:1 #unigram###Erfasst bigram###Erfasst#-#würden trigram###Erfasst#-#würden#-#nicht unigram###würden bigram###würden#-#nicht trigram###würden#-#nicht#-#die unigram###nicht bigram###nicht#-#die trigram###nicht#-#die#-#Inhalte unigram###die bigram###die#-#Inhalte trigram###die#-#Inhalte#-#der unigram###Inhalte bigram###Inhalte#-#der trigram###Inhalte#-#der#-#Gespräche unigram###der bigram###der#-#Gespräche trigram###der#-#Gespräche#-#, unigram###Gespräche bigram###Gespräche#-#, trigram###Gespräche#-#,#-#sondern unigram###, bigram###,#-#sondern trigram###,#-#sondern#-#die unigram###sondern bigram###sondern#-#die trigram###sondern#-#die#-#Metadaten unigram###die bigram###die#-#Metadaten trigram###die#-#Metadaten#-#, unigram###Metadaten bigram###Metadaten#-#, trigram###Metadaten#-#,#-#also unigram###, bigram###,#-#also trigram###,#-#also#-#von unigram###also bigram###also#-#von trigram###also#-#von#-#welchem unigram###von bigram###von#-#welchem trigram###von#-#welchem#-#Anschluss unigram###welchem bigram###welchem#-#Anschluss trigram###welchem#-#Anschluss#-#mit unigram###Anschluss bigram###Anschluss#-#mit trigram###Anschluss#-#mit#-#welchem unigram###mit bigram###mit#-#welchem trigram###mit#-#welchem#-#Anschluss unigram###welchem bigram###welchem#-#Anschluss trigram###welchem#-#Anschluss#-#eine unigram###Anschluss bigram###Anschluss#-#eine trigram###Anschluss#-#eine#-#Verbindung unigram###eine bigram###eine#-#Verbindung trigram###eine#-#Verbindung#-#bestand unigram###Verbindung bigram###Verbindung#-#bestand trigram###Verbindung#-#bestand#-#. unigram###bestand bigram###bestand#-#. unigram###. 
0.02215316921849665859900468944943 22:1 33:1 78:1 92:1 93:1 95:1 144:1 430:1 484:1 490:1 550:1 552:1 584:1 586:1 1874:1 7723:1 9834:1 10213:1 12525:1 16540:1 16541:1 16542:1 16543:1 16544:1 16545:1 16546:1 16547:1 16548:1 16549:1 16550:1 16551:1 16552:1 16553:1 16554:1 16555:1 16556:1 16557:1 16558:1 16559:1 16560:1 16561:1 16562:1 16563:1 16564:1 16565:1 #unigram###Wir bigram###Wir#-#waren trigram###Wir#-#waren#-#für unigram###waren bigram###waren#-#für trigram###waren#-#für#-#ein unigram###für bigram###für#-#ein trigram###für#-#ein#-#verlängertes unigram###ein bigram###ein#-#verlängertes trigram###ein#-#verlängertes#-#Wochendende unigram###verlängertes bigram###verlängertes#-#Wochendende trigram###verlängertes#-#Wochendende#-#in unigram###Wochendende bigram###Wochendende#-#in trigram###Wochendende#-#in#-#Wien unigram###in bigram###in#-#Wien trigram###in#-#Wien#-#· unigram###Wien bigram###Wien#-#· trigram###Wien#-#·#-#dafür unigram###· bigram###·#-#dafür trigram###·#-#dafür#-#fanden unigram###dafür bigram###dafür#-#fanden trigram###dafür#-#fanden#-#wir unigram###fanden bigram###fanden#-#wir trigram###fanden#-#wir#-#das unigram###wir bigram###wir#-#das trigram###wir#-#das#-#Hotel unigram###das bigram###das#-#Hotel trigram###das#-#Hotel#-#ideal unigram###Hotel bigram###Hotel#-#ideal trigram###Hotel#-#ideal#-#. unigram###ideal bigram###ideal#-#. unigram###. 
0.20837492100136895123441149735299 40993:1 40994:1 40995:1 #unigram###Veraltetes bigram###Veraltetes#-#Raucherhotel unigram###Raucherhotel 
0.5 32106:1 #unigram###Verbesserungswürdig 
0.012413917271199505568124443755096 33:1 78:1 911:1 1512:1 3781:1 24950:1 26214:1 29930:1 32053:1 51299:1 55183:1 55184:1 55185:1 55186:1 55187:1 55188:1 55189:1 55190:1 #unigram###Großer bigram###Großer#-#Pool trigram###Großer#-#Pool#-#mit unigram###Pool bigram###Pool#-#mit trigram###Pool#-#mit#-#Klasse unigram###mit bigram###mit#-#Klasse trigram###mit#-#Klasse#-#· unigram###Klasse bigram###Klasse#-#· trigram###Klasse#-#·#-#Service unigram###· bigram###·#-#Service trigram###·#-#Service#-#. unigram###Service bigram###Service#-#. unigram###. 
0.025907440402128497497491466106112 33:1 72:1 92:1 144:1 378:1 1250:1 1251:1 1927:1 2052:1 3920:1 4463:1 7009:1 7423:1 8551:1 8552:1 8553:1 8554:1 8555:1 8556:1 8557:1 8558:1 8559:1 8560:1 8561:1 8562:1 8563:1 8564:1 8565:1 8566:1 8567:1 #unigram###Es bigram###Es#-#ist trigram###Es#-#ist#-#aber unigram###ist bigram###ist#-#aber trigram###ist#-#aber#-#in unigram###aber bigram###aber#-#in trigram###aber#-#in#-#unserem unigram###in bigram###in#-#unserem trigram###in#-#unserem#-#Fall unigram###unserem bigram###unserem#-#Fall trigram###unserem#-#Fall#-#das unigram###Fall bigram###Fall#-#das trigram###Fall#-#das#-#Verhältnis unigram###das bigram###das#-#Verhältnis trigram###das#-#Verhältnis#-#OK unigram###Verhältnis bigram###Verhältnis#-#OK trigram###Verhältnis#-#OK#-#gewesen unigram###OK bigram###OK#-#gewesen trigram###OK#-#gewesen#-#. unigram###gewesen bigram###gewesen#-#. unigram###. 
-0.042309527169047768391241248764345 4:1 28:1 33:1 92:1 144:1 519:1 2540:1 4389:1 5537:1 8689:1 15228:1 31841:1 31891:1 31892:1 31893:1 31894:1 31895:1 31896:1 31897:1 31898:1 31899:1 31900:1 31901:1 31902:1 31903:1 31904:1 31905:1 31906:1 31907:1 31908:1 31909:1 31910:1 31911:1 31912:1 31913:1 31914:1 31915:1 31916:1 31917:1 #unigram###Ich bigram###Ich#-#war trigram###Ich#-#war#-#dienstlich unigram###war bigram###war#-#dienstlich trigram###war#-#dienstlich#-#in unigram###dienstlich bigram###dienstlich#-#in trigram###dienstlich#-#in#-#KOBLENZ unigram###in bigram###in#-#KOBLENZ trigram###in#-#KOBLENZ#-#u. unigram###KOBLENZ bigram###KOBLENZ#-#u. trigram###KOBLENZ#-#u.#-#konnte unigram###u. bigram###u.#-#konnte trigram###u.#-#konnte#-#daher unigram###konnte bigram###konnte#-#daher trigram###konnte#-#daher#-#aus unigram###daher bigram###daher#-#aus trigram###daher#-#aus#-#Zeitgründen unigram###aus bigram###aus#-#Zeitgründen trigram###aus#-#Zeitgründen#-#nicht unigram###Zeitgründen bigram###Zeitgründen#-#nicht trigram###Zeitgründen#-#nicht#-#das unigram###nicht bigram###nicht#-#das trigram###nicht#-#das#-#ges unigram###das bigram###das#-#ges trigram###das#-#ges#-#. unigram###ges bigram###ges#-#. unigram###. 
0.0032821059695049750043471803451212 33:1 39:1 72:1 119:1 144:1 210:1 234:1 450:1 602:1 969:1 980:1 982:1 1045:1 1921:1 4017:1 4954:1 4955:1 5568:1 7320:1 7321:1 7322:1 8133:1 8583:1 9284:1 10611:1 18230:1 23173:1 26156:1 31571:1 31572:1 31573:1 31574:1 31575:1 31576:1 31577:1 31578:1 31579:1 31580:1 31581:1 31582:1 31583:1 31584:1 31585:1 31586:1 31587:1 #unigram###Die bigram###Die#-#Hotelanlage trigram###Die#-#Hotelanlage#-#ist unigram###Hotelanlage bigram###Hotelanlage#-#ist trigram###Hotelanlage#-#ist#-#sehr unigram###ist bigram###ist#-#sehr trigram###ist#-#sehr#-#groß unigram###sehr bigram###sehr#-#groß trigram###sehr#-#groß#-#und unigram###groß bigram###groß#-#und trigram###groß#-#und#-#es unigram###und bigram###und#-#es trigram###und#-#es#-#sind unigram###es bigram###es#-#sind trigram###es#-#sind#-#etwas unigram###sind bigram###sind#-#etwas trigram###sind#-#etwas#-#längere unigram###etwas bigram###etwas#-#längere trigram###etwas#-#längere#-#Wege unigram###längere bigram###längere#-#Wege trigram###längere#-#Wege#-#in unigram###Wege bigram###Wege#-#in trigram###Wege#-#in#-#Kauf unigram###in bigram###in#-#Kauf trigram###in#-#Kauf#-#zu unigram###Kauf bigram###Kauf#-#zu trigram###Kauf#-#zu#-#nehmen unigram###zu bigram###zu#-#nehmen trigram###zu#-#nehmen#-#. unigram###nehmen bigram###nehmen#-#. unigram###. 
-0.03832295876403543632982007238752 33:1 63:1 92:1 201:1 420:1 599:1 635:1 923:1 2060:1 3275:1 4389:1 8903:1 16660:1 54861:1 58108:1 58109:1 58110:1 58111:1 58112:1 58113:1 58114:1 58115:1 58116:1 58117:1 58118:1 58119:1 58120:1 58121:1 58122:1 58123:1 #unigram###Ich bigram###Ich#-#kenne trigram###Ich#-#kenne#-#das unigram###kenne bigram###kenne#-#das trigram###kenne#-#das#-#wirklich unigram###das bigram###das#-#wirklich trigram###das#-#wirklich#-#anders unigram###wirklich bigram###wirklich#-#anders trigram###wirklich#-#anders#-#, unigram###anders bigram###anders#-#, trigram###anders#-#,#-#auch unigram###, bigram###,#-#auch trigram###,#-#auch#-#von unigram###auch bigram###auch#-#von trigram###auch#-#von#-#Dorint unigram###von bigram###von#-#Dorint trigram###von#-#Dorint#-#Hotels unigram###Dorint bigram###Dorint#-#Hotels trigram###Dorint#-#Hotels#-#. unigram###Hotels bigram###Hotels#-#. unigram###. 
0.024645320670021647613268100940331 13:1 33:1 66:1 237:1 653:1 841:1 1541:1 3181:1 10458:1 12485:1 13853:1 19453:1 48896:1 60209:1 60210:1 60211:1 60212:1 60213:1 60214:1 60215:1 60216:1 60217:1 60218:1 60219:1 60220:1 60221:1 60222:1 60223:1 60224:1 60225:1 60226:1 60227:1 60228:1 60229:1 60230:1 60231:1 60232:1 60233:1 60234:1 60235:1 60236:1 60237:1 #unigram###Der bigram###Der#-#deutschen trigram###Der#-#deutschen#-#Wiedervereinigung unigram###deutschen bigram###deutschen#-#Wiedervereinigung trigram###deutschen#-#Wiedervereinigung#-#hatte unigram###Wiedervereinigung bigram###Wiedervereinigung#-#hatte trigram###Wiedervereinigung#-#hatte#-#Thatcher unigram###hatte bigram###hatte#-#Thatcher trigram###hatte#-#Thatcher#-#nach unigram###Thatcher bigram###Thatcher#-#nach trigram###Thatcher#-#nach#-#dem unigram###nach bigram###nach#-#dem trigram###nach#-#dem#-#Ende unigram###dem bigram###dem#-#Ende trigram###dem#-#Ende#-#der unigram###Ende bigram###Ende#-#der trigram###Ende#-#der#-#DDR unigram###der bigram###der#-#DDR trigram###der#-#DDR#-#zunächst unigram###DDR bigram###DDR#-#zunächst trigram###DDR#-#zunächst#-#ablehnend unigram###zunächst bigram###zunächst#-#ablehnend trigram###zunächst#-#ablehnend#-#gegenüber unigram###ablehnend bigram###ablehnend#-#gegenüber trigram###ablehnend#-#gegenüber#-#gestanden unigram###gegenüber bigram###gegenüber#-#gestanden trigram###gegenüber#-#gestanden#-#. unigram###gestanden bigram###gestanden#-#. unigram###. 
-0.054173181387354149562973759657325 33:1 72:1 144:1 248:1 490:1 1902:1 2647:1 2898:1 12936:1 25897:1 25925:1 25926:1 25927:1 25928:1 25929:1 25930:1 25931:1 25932:1 25933:1 25934:1 25935:1 25936:1 25937:1 25938:1 25939:1 25940:1 25941:1 #unigram###Das bigram###Das#-#Sercotel trigram###Das#-#Sercotel#-#Sorolla unigram###Sercotel bigram###Sercotel#-#Sorolla trigram###Sercotel#-#Sorolla#-#Palace unigram###Sorolla bigram###Sorolla#-#Palace trigram###Sorolla#-#Palace#-#ist unigram###Palace bigram###Palace#-#ist trigram###Palace#-#ist#-#ein unigram###ist bigram###ist#-#ein trigram###ist#-#ein#-#Businesshotel unigram###ein bigram###ein#-#Businesshotel trigram###ein#-#Businesshotel#-#in unigram###Businesshotel bigram###Businesshotel#-#in trigram###Businesshotel#-#in#-#Valencia unigram###in bigram###in#-#Valencia trigram###in#-#Valencia#-#. unigram###Valencia bigram###Valencia#-#. unigram###. 
0.016955686910411778278717775947371 33:1 63:1 275:1 331:1 404:1 519:1 547:1 548:1 1224:1 1308:1 1309:1 1696:1 2588:1 2589:1 2591:1 4617:1 4800:1 7823:1 17920:1 28492:1 32131:1 43721:1 49389:1 53006:1 55061:1 55062:1 55063:1 55064:1 55065:1 55066:1 55067:1 55068:1 55069:1 55070:1 55071:1 55072:1 55073:1 55074:1 55075:1 55076:1 55077:1 55078:1 55079:1 55080:1 55081:1 55082:1 55083:1 55084:1 55085:1 55086:1 55087:1 55088:1 55089:1 55090:1 55091:1 55092:1 55093:1 #unigram###Außerdem bigram###Außerdem#-#war trigram###Außerdem#-#war#-#im unigram###war bigram###war#-#im trigram###war#-#im#-#Zimmer unigram###im bigram###im#-#Zimmer trigram###im#-#Zimmer#-#eine unigram###Zimmer bigram###Zimmer#-#eine trigram###Zimmer#-#eine#-#( unigram###eine bigram###eine#-#( trigram###eine#-#(#-#kostenpflichtige unigram###( bigram###(#-#kostenpflichtige trigram###(#-#kostenpflichtige#-#) unigram###kostenpflichtige bigram###kostenpflichtige#-#) trigram###kostenpflichtige#-#)#-#Minibar unigram###) bigram###)#-#Minibar trigram###)#-#Minibar#-#, unigram###Minibar bigram###Minibar#-#, trigram###Minibar#-#,#-#ebenso unigram###, bigram###,#-#ebenso trigram###,#-#ebenso#-#wurden unigram###ebenso bigram###ebenso#-#wurden trigram###ebenso#-#wurden#-#jeden unigram###wurden bigram###wurden#-#jeden trigram###wurden#-#jeden#-#Tag unigram###jeden bigram###jeden#-#Tag trigram###jeden#-#Tag#-#zwei unigram###Tag bigram###Tag#-#zwei trigram###Tag#-#zwei#-#Flaschen unigram###zwei bigram###zwei#-#Flaschen trigram###zwei#-#Flaschen#-#Wasser unigram###Flaschen bigram###Flaschen#-#Wasser trigram###Flaschen#-#Wasser#-#kostenfrei unigram###Wasser bigram###Wasser#-#kostenfrei trigram###Wasser#-#kostenfrei#-#bereitgestellt unigram###kostenfrei bigram###kostenfrei#-#bereitgestellt trigram###kostenfrei#-#bereitgestellt#-#. unigram###bereitgestellt bigram###bereitgestellt#-#. unigram###. 
-0.036564952199800472565360820453861 4:1 33:1 39:1 63:1 125:1 166:2 204:1 519:1 687:1 1133:1 2895:1 3451:1 3520:1 5882:1 6435:1 7454:1 11233:1 15444:1 15962:1 15963:1 15964:1 15965:1 15966:1 15967:1 15968:1 15969:1 15970:1 15971:1 15972:1 15973:1 15974:1 15975:1 15976:1 15977:1 15978:1 15979:1 15980:1 15981:1 15982:1 15983:1 15984:1 15985:1 15986:1 15987:1 15988:1 15989:1 15990:1 15991:1 15992:1 15993:1 15994:1 15995:1 15996:1 #unigram###Trotzdem bigram###Trotzdem#-#natürlich trigram###Trotzdem#-#natürlich#-#einige unigram###natürlich bigram###natürlich#-#einige trigram###natürlich#-#einige#-#Deutsche unigram###einige bigram###einige#-#Deutsche trigram###einige#-#Deutsche#-#und unigram###Deutsche bigram###Deutsche#-#und trigram###Deutsche#-#und#-#Schweizer unigram###und bigram###und#-#Schweizer trigram###und#-#Schweizer#-#" unigram###Schweizer bigram###Schweizer#-#" trigram###Schweizer#-#"#-#IHRE unigram###" bigram###"#-#IHRE trigram###"#-#IHRE#-#" unigram###IHRE bigram###IHRE#-#" trigram###IHRE#-#"#-#Liegen unigram###" bigram###"#-#Liegen trigram###"#-#Liegen#-#besetzten unigram###Liegen bigram###Liegen#-#besetzten trigram###Liegen#-#besetzten#-#, unigram###besetzten bigram###besetzten#-#, trigram###besetzten#-#,#-#war unigram###, bigram###,#-#war trigram###,#-#war#-#dies unigram###war bigram###war#-#dies trigram###war#-#dies#-#eigentlich unigram###dies bigram###dies#-#eigentlich trigram###dies#-#eigentlich#-#gar unigram###eigentlich bigram###eigentlich#-#gar trigram###eigentlich#-#gar#-#nicht unigram###gar bigram###gar#-#nicht trigram###gar#-#nicht#-#nötig unigram###nicht bigram###nicht#-#nötig trigram###nicht#-#nötig#-#. unigram###nötig bigram###nötig#-#. unigram###. 
0.014494331759334004583461563697711 33:1 39:1 63:1 295:1 484:1 485:1 487:1 657:1 764:1 1165:3 15411:1 15412:1 33069:3 33071:3 44253:1 44254:1 44255:1 44256:1 44257:1 44258:1 44259:1 44260:1 44261:1 44262:1 44263:1 44264:1 44265:1 44266:1 44267:1 44268:1 44269:1 44270:1 44271:1 #unigram###Wir bigram###Wir#-#hatten trigram###Wir#-#hatten#-#All unigram###hatten bigram###hatten#-#All trigram###hatten#-#All#-#Inclusive unigram###All bigram###All#-#Inclusive trigram###All#-#Inclusive#-#, unigram###Inclusive bigram###Inclusive#-#, trigram###Inclusive#-#,#-#und unigram###, bigram###,#-#und trigram###,#-#und#-#dort unigram###und bigram###und#-#dort trigram###und#-#dort#-#heißt unigram###dort bigram###dort#-#heißt trigram###dort#-#heißt#-#All unigram###heißt bigram###heißt#-#All trigram###heißt#-#All#-#Inclusive unigram###All bigram###All#-#Inclusive trigram###All#-#Inclusive#-#noch unigram###Inclusive bigram###Inclusive#-#noch trigram###Inclusive#-#noch#-#All unigram###noch bigram###noch#-#All trigram###noch#-#All#-#Inclusive unigram###All bigram###All#-#Inclusive trigram###All#-#Inclusive#-#. unigram###Inclusive bigram###Inclusive#-#. unigram###. 
-0.018836603153181918912650871789083 33:1 39:1 63:3 66:2 78:1 161:1 201:1 386:1 552:1 657:1 708:1 3482:1 29266:1 41489:1 46323:1 46358:1 54307:1 60856:1 61074:1 61660:1 62052:1 62396:1 62397:1 62922:1 62923:1 64526:1 64527:1 66359:1 72210:1 72211:1 72212:1 72213:1 72214:1 72215:1 72216:1 72217:1 72218:1 72219:1 72220:1 72221:1 72222:1 72223:1 72224:1 72225:1 72226:1 72227:1 72228:1 72229:1 72230:1 72231:1 72232:1 72233:1 72234:1 72235:1 72236:1 72237:1 72238:1 72239:1 72240:1 72241:1 72242:1 72243:1 72244:1 #unigram###Dabei bigram###Dabei#-#waren trigram###Dabei#-#waren#-#auch unigram###waren bigram###waren#-#auch trigram###waren#-#auch#-#der unigram###auch bigram###auch#-#der trigram###auch#-#der#-#Ehemann unigram###der bigram###der#-#Ehemann trigram###der#-#Ehemann#-#der unigram###Ehemann bigram###Ehemann#-#der trigram###Ehemann#-#der#-#Kanzlerin unigram###der bigram###der#-#Kanzlerin trigram###der#-#Kanzlerin#-#, unigram###Kanzlerin bigram###Kanzlerin#-#, trigram###Kanzlerin#-#,#-#Joachim unigram###, bigram###,#-#Joachim trigram###,#-#Joachim#-#Sauer unigram###Joachim bigram###Joachim#-#Sauer trigram###Joachim#-#Sauer#-#, unigram###Sauer bigram###Sauer#-#, trigram###Sauer#-#,#-#und unigram###, bigram###,#-#und trigram###,#-#und#-#Auma unigram###und bigram###und#-#Auma trigram###und#-#Auma#-#Obama unigram###Auma bigram###Auma#-#Obama trigram###Auma#-#Obama#-#, unigram###Obama bigram###Obama#-#, trigram###Obama#-#,#-#die unigram###, bigram###,#-#die trigram###,#-#die#-#ältere unigram###die bigram###die#-#ältere trigram###die#-#ältere#-#Halbschwester unigram###ältere bigram###ältere#-#Halbschwester trigram###ältere#-#Halbschwester#-#des unigram###Halbschwester bigram###Halbschwester#-#des trigram###Halbschwester#-#des#-#US unigram###des bigram###des#-#US trigram###des#-#US#-#· unigram###US bigram###US#-#· trigram###US#-#·#-#Präsidenten unigram###· bigram###·#-#Präsidenten trigram###·#-#Präsidenten#-#. unigram###Präsidenten bigram###Präsidenten#-#. unigram###. 
0.0031622642321402875953406663711576 22:3 33:1 63:2 66:1 72:1 78:2 161:1 248:1 817:1 1222:1 1224:3 2769:1 9563:1 9837:2 11108:1 11109:1 16180:3 16182:3 24557:1 40504:1 44759:1 60153:1 60154:1 60155:1 60156:1 60157:1 60158:1 60159:1 60160:1 60161:1 60162:1 60163:1 60164:1 60165:1 60166:1 60167:1 60168:1 60169:1 60170:1 60171:1 60172:1 60173:1 60174:1 60175:1 60176:1 60177:1 60178:1 60179:1 60180:1 60181:1 60182:1 60183:1 60184:1 60185:1 60186:1 60187:1 60188:1 60189:3 60190:3 60191:1 60192:1 60193:1 60194:1 60195:2 60196:1 60197:1 60198:1 60199:1 60200:1 60201:1 60202:1 60203:1 60204:1 60205:1 60206:1 60207:1 60208:1 #unigram###Grünen bigram###Grünen#-#· trigram###Grünen#-#·#-#Fraktionschef unigram###· bigram###·#-#Fraktionschef trigram###·#-#Fraktionschef#-#Jürgen unigram###Fraktionschef bigram###Fraktionschef#-#Jürgen trigram###Fraktionschef#-#Jürgen#-#Trittin unigram###Jürgen bigram###Jürgen#-#Trittin trigram###Jürgen#-#Trittin#-#sagte unigram###Trittin bigram###Trittin#-#sagte trigram###Trittin#-#sagte#-#der unigram###sagte bigram###sagte#-#der trigram###sagte#-#der#-#Deutschen unigram###der bigram###der#-#Deutschen trigram###der#-#Deutschen#-#Presse unigram###Deutschen bigram###Deutschen#-#Presse trigram###Deutschen#-#Presse#-#· unigram###Presse bigram###Presse#-#· trigram###Presse#-#·#-#Agentur unigram###· bigram###·#-#Agentur trigram###·#-#Agentur#-#: unigram###Agentur bigram###Agentur#-#: trigram###Agentur#-#:#-#„ unigram###: bigram###:#-#„ trigram###:#-#„#-#Das unigram###„ bigram###„#-#Das trigram###„#-#Das#-#ist unigram###Das bigram###Das#-#ist trigram###Das#-#ist#-#eine unigram###ist bigram###ist#-#eine trigram###ist#-#eine#-#Schande unigram###eine bigram###eine#-#Schande trigram###eine#-#Schande#-#für unigram###Schande bigram###Schande#-#für trigram###Schande#-#für#-#Deutschland unigram###für bigram###für#-#Deutschland trigram###für#-#Deutschland#-#, unigram###Deutschland bigram###Deutschland#-#, trigram###Deutschland#-#,#-#eine unigram###, bigram###,#-#eine trigram###,#-#eine#-#Schande unigram###eine bigram###eine#-#Schande trigram###eine#-#Schande#-#für unigram###Schande bigram###Schande#-#für trigram###Schande#-#für#-#Europa unigram###für bigram###für#-#Europa trigram###für#-#Europa#-#, unigram###Europa bigram###Europa#-#, trigram###Europa#-#,#-#eine unigram###, bigram###,#-#eine trigram###,#-#eine#-#Schande unigram###eine bigram###eine#-#Schande trigram###eine#-#Schande#-#für unigram###Schande bigram###Schande#-#für trigram###Schande#-#für#-#die unigram###für bigram###für#-#die trigram###für#-#die#-#Demokratie unigram###die bigram###die#-#Demokratie trigram###die#-#Demokratie#-#. unigram###Demokratie bigram###Demokratie#-#. trigram###Demokratie#-#.#-#“ unigram###. bigram###.#-#“ unigram###“ 
0.027588802043679184344826538222151 22:1 33:1 210:1 309:1 1294:1 3368:1 3370:1 25277:1 41803:1 51670:1 51745:1 51746:1 51747:1 51748:1 51749:1 51750:1 51751:1 51752:1 #unigram###Ideal bigram###Ideal#-#für trigram###Ideal#-#für#-#einen unigram###für bigram###für#-#einen trigram###für#-#einen#-#Kurztrip unigram###einen bigram###einen#-#Kurztrip trigram###einen#-#Kurztrip#-#zu unigram###Kurztrip bigram###Kurztrip#-#zu trigram###Kurztrip#-#zu#-#zweit unigram###zu bigram###zu#-#zweit trigram###zu#-#zweit#-#. unigram###zweit bigram###zweit#-#. unigram###. 
-0.058300807805264198702133171536843 33:1 78:1 3484:1 4696:1 6541:1 11149:1 28794:1 53133:1 67549:1 73724:1 73725:1 73726:1 73727:1 73728:1 73729:1 73730:1 73731:1 73732:1 73733:1 73734:1 73735:1 73736:1 73737:1 73738:1 #unigram###Tiefstwerte bigram###Tiefstwerte#-#plus trigram###Tiefstwerte#-#plus#-#5 unigram###plus bigram###plus#-#5 trigram###plus#-#5#-#bis unigram###5 bigram###5#-#bis trigram###5#-#bis#-#minus unigram###bis bigram###bis#-#minus trigram###bis#-#minus#-#· unigram###minus bigram###minus#-#· trigram###minus#-#·#-#6 unigram###· bigram###·#-#6 trigram###·#-#6#-#Grad unigram###6 bigram###6#-#Grad trigram###6#-#Grad#-#. unigram###Grad bigram###Grad#-#. unigram###. 
-0.031313897776361218627805271808029 33:1 144:1 158:1 3828:1 5877:1 6414:1 9361:1 29046:1 43792:1 61670:1 66613:1 66614:1 66615:1 66616:1 66617:1 66618:1 66619:1 66620:1 66621:1 66622:1 66623:1 66624:1 66625:1 66626:1 66627:1 66628:1 66629:1 66630:1 66631:1 66632:1 #unigram###Ab bigram###Ab#-#Donnerstag trigram###Ab#-#Donnerstag#-#soll unigram###Donnerstag bigram###Donnerstag#-#soll trigram###Donnerstag#-#soll#-#über unigram###soll bigram###soll#-#über trigram###soll#-#über#-#Sachfragen unigram###über bigram###über#-#Sachfragen trigram###über#-#Sachfragen#-#dann unigram###Sachfragen bigram###Sachfragen#-#dann trigram###Sachfragen#-#dann#-#in unigram###dann bigram###dann#-#in trigram###dann#-#in#-#Arbeitsgruppen unigram###in bigram###in#-#Arbeitsgruppen trigram###in#-#Arbeitsgruppen#-#verhandelt unigram###Arbeitsgruppen bigram###Arbeitsgruppen#-#verhandelt trigram###Arbeitsgruppen#-#verhandelt#-#werden unigram###verhandelt bigram###verhandelt#-#werden trigram###verhandelt#-#werden#-#. unigram###werden bigram###werden#-#. unigram###. 
0.030882474958949093779558836558863 7:1 33:1 92:1 93:1 95:1 484:1 1483:1 1485:1 1801:1 6582:1 9986:1 9987:1 31015:1 31016:1 44302:1 44303:1 44304:1 44305:1 #unigram###Wir bigram###Wir#-#würden trigram###Wir#-#würden#-#das unigram###würden bigram###würden#-#das trigram###würden#-#das#-#Hotel unigram###das bigram###das#-#Hotel trigram###das#-#Hotel#-#wieder unigram###Hotel bigram###Hotel#-#wieder trigram###Hotel#-#wieder#-#buchen unigram###wieder bigram###wieder#-#buchen trigram###wieder#-#buchen#-#. unigram###buchen bigram###buchen#-#. unigram###. 
0.033848311566818278794954721888644 12:1 22:1 161:1 1298:1 1525:1 2635:1 8011:1 14190:1 14191:1 14192:1 14193:1 14194:1 14195:1 14196:1 14197:1 14198:1 14199:1 14200:1 14201:1 14202:1 14203:1 #unigram###Nur bigram###Nur#-#für trigram###Nur#-#für#-#Leute unigram###für bigram###für#-#Leute trigram###für#-#Leute#-#die unigram###Leute bigram###Leute#-#die trigram###Leute#-#die#-#alles unigram###die bigram###die#-#alles trigram###die#-#alles#-#akzeptieren unigram###alles bigram###alles#-#akzeptieren trigram###alles#-#akzeptieren#-#können unigram###akzeptieren bigram###akzeptieren#-#können trigram###akzeptieren#-#können#-#! unigram###können bigram###können#-#! unigram###! 
-0.11449780846377674570213400784269 4:1 33:1 894:1 4389:1 13704:1 13705:1 13706:1 13707:1 13708:1 13709:1 13710:1 13711:1 13712:1 13713:1 13714:1 #unigram###Ich bigram###Ich#-#könne trigram###Ich#-#könne#-#sie unigram###könne bigram###könne#-#sie trigram###könne#-#sie#-#nicht unigram###sie bigram###sie#-#nicht trigram###sie#-#nicht#-#verfehlen unigram###nicht bigram###nicht#-#verfehlen trigram###nicht#-#verfehlen#-#. unigram###verfehlen bigram###verfehlen#-#. unigram###. 
0.063851219146104781776429604178702 33:1 166:2 3520:1 4421:1 60914:1 66285:1 66286:1 66287:1 66288:1 66289:1 66290:1 66291:1 66292:1 66293:1 66294:1 66295:1 66296:1 66297:1 66298:1 66299:1 #unigram###Juncker bigram###Juncker#-#nannte trigram###Juncker#-#nannte#-#einige unigram###nannte bigram###nannte#-#einige trigram###nannte#-#einige#-#Ausdrucksformen unigram###einige bigram###einige#-#Ausdrucksformen trigram###einige#-#Ausdrucksformen#-#" unigram###Ausdrucksformen bigram###Ausdrucksformen#-#" trigram###Ausdrucksformen#-#"#-#ungeschickt unigram###" bigram###"#-#ungeschickt trigram###"#-#ungeschickt#-#" unigram###ungeschickt bigram###ungeschickt#-#" trigram###ungeschickt#-#"#-#. unigram###" bigram###"#-#. unigram###. 
0.052343305033943396398221636900416 19:1 33:1 72:1 144:1 275:1 331:1 332:1 547:1 1914:1 2229:1 6294:1 15349:1 15350:1 15351:1 15352:1 15353:1 15354:1 15355:1 15356:1 15357:1 15358:1 15359:1 15360:1 15361:1 15362:1 15363:1 15364:1 15365:1 15366:1 15367:1 15368:1 15369:1 15370:1 15371:1 15372:1 15373:1 #unigram###Einkaufsmöglichkeiten bigram###Einkaufsmöglichkeiten#-#in trigram###Einkaufsmöglichkeiten#-#in#-#kleinen unigram###in bigram###in#-#kleinen trigram###in#-#kleinen#-#Shops unigram###kleinen bigram###kleinen#-#Shops trigram###kleinen#-#Shops#-#im unigram###Shops bigram###Shops#-#im trigram###Shops#-#im#-#Ort unigram###im bigram###im#-#Ort trigram###im#-#Ort#-#( unigram###Ort bigram###Ort#-#( trigram###Ort#-#(#-#kleiner unigram###( bigram###(#-#kleiner trigram###(#-#kleiner#-#Hotelshop unigram###kleiner bigram###kleiner#-#Hotelshop trigram###kleiner#-#Hotelshop#-#ist unigram###Hotelshop bigram###Hotelshop#-#ist trigram###Hotelshop#-#ist#-#vorhanden unigram###ist bigram###ist#-#vorhanden trigram###ist#-#vorhanden#-#) unigram###vorhanden bigram###vorhanden#-#) trigram###vorhanden#-#)#-#. unigram###) bigram###)#-#. unigram###. 
0.008415106289130797750930312872697 33:1 450:1 484:1 550:1 552:1 1613:1 5031:1 5032:1 5033:1 5034:1 5035:1 19575:1 19576:1 19577:1 19578:1 #unigram###Wir bigram###Wir#-#waren trigram###Wir#-#waren#-#sehr unigram###waren bigram###waren#-#sehr trigram###waren#-#sehr#-#angenehm unigram###sehr bigram###sehr#-#angenehm trigram###sehr#-#angenehm#-#überrascht unigram###angenehm bigram###angenehm#-#überrascht trigram###angenehm#-#überrascht#-#. unigram###überrascht bigram###überrascht#-#. unigram###. 
0.047655682064163366884468331363678 95:1 210:1 1485:1 2913:1 2914:1 8639:1 8797:1 11740:1 16446:1 16447:1 16448:1 16449:1 16450:1 16451:1 16452:1 #unigram###Spitzen bigram###Spitzen#-#Idee trigram###Spitzen#-#Idee#-#dieses unigram###Idee bigram###Idee#-#dieses trigram###Idee#-#dieses#-#Hotel unigram###dieses bigram###dieses#-#Hotel trigram###dieses#-#Hotel#-#zu unigram###Hotel bigram###Hotel#-#zu trigram###Hotel#-#zu#-#buchen unigram###zu bigram###zu#-#buchen unigram###buchen 
0.026949508152900911173155407141167 33:1 39:1 63:1 404:1 1194:1 1213:1 1454:1 2183:1 2451:1 28620:1 37004:1 37089:1 37090:1 37091:1 37092:1 37093:1 37094:1 37095:1 37096:1 37097:1 37098:1 37099:1 37100:1 37101:1 37102:1 37103:1 37104:1 #unigram###Appartment bigram###Appartment#-#Zimmer trigram###Appartment#-#Zimmer#-#riesig unigram###Zimmer bigram###Zimmer#-#riesig trigram###Zimmer#-#riesig#-#, unigram###riesig bigram###riesig#-#, trigram###riesig#-#,#-#ca. unigram###, bigram###,#-#ca. trigram###,#-#ca.#-#40 unigram###ca. bigram###ca.#-#40 trigram###ca.#-#40#-#qm unigram###40 bigram###40#-#qm trigram###40#-#qm#-#und unigram###qm bigram###qm#-#und trigram###qm#-#und#-#renoviert unigram###und bigram###und#-#renoviert trigram###und#-#renoviert#-#. unigram###renoviert bigram###renoviert#-#. unigram###. 
-0.074587160067914756722551317125181 33:1 112:1 328:1 761:1 5687:1 5763:1 36688:1 36689:1 36690:1 36691:1 36692:1 36693:1 36694:1 36695:1 36696:1 36697:1 36698:1 36699:1 36700:1 36701:1 36702:1 #unigram###Verabschieden bigram###Verabschieden#-#Sie trigram###Verabschieden#-#Sie#-#sich unigram###Sie bigram###Sie#-#sich trigram###Sie#-#sich#-#vom unigram###sich bigram###sich#-#vom trigram###sich#-#vom#-#Eindruck unigram###vom bigram###vom#-#Eindruck trigram###vom#-#Eindruck#-#eines unigram###Eindruck bigram###Eindruck#-#eines trigram###Eindruck#-#eines#-#Standardhotelzimmers unigram###eines bigram###eines#-#Standardhotelzimmers trigram###eines#-#Standardhotelzimmers#-#. unigram###Standardhotelzimmers bigram###Standardhotelzimmers#-#. unigram###. 
0.0034498865930703889043362764255107 33:1 39:1 63:2 66:1 75:1 144:1 161:1 272:1 478:1 484:1 485:1 486:1 487:1 488:1 490:1 504:1 506:1 923:1 1393:1 6248:1 6856:1 9719:1 11129:1 11130:1 11131:1 17370:1 17371:1 19450:1 20362:1 28898:1 30010:1 32016:1 37004:1 40832:1 40833:1 40834:1 40835:1 40836:1 40837:1 40838:1 40839:1 40840:1 40841:1 40842:1 40843:1 40844:1 40845:1 40846:1 40847:1 40848:1 40849:1 40850:1 40851:1 40852:1 40853:1 40854:1 40855:1 40856:1 40857:1 #unigram###Wir bigram###Wir#-#hatten trigram###Wir#-#hatten#-#ein unigram###hatten bigram###hatten#-#ein trigram###hatten#-#ein#-#Appartment unigram###ein bigram###ein#-#Appartment trigram###ein#-#Appartment#-#gemietet unigram###Appartment bigram###Appartment#-#gemietet trigram###Appartment#-#gemietet#-#, unigram###gemietet bigram###gemietet#-#, trigram###gemietet#-#,#-#welches unigram###, bigram###,#-#welches trigram###,#-#welches#-#abgesehen unigram###welches bigram###welches#-#abgesehen trigram###welches#-#abgesehen#-#von unigram###abgesehen bigram###abgesehen#-#von trigram###abgesehen#-#von#-#der unigram###von bigram###von#-#der trigram###von#-#der#-#in unigram###der bigram###der#-#in trigram###der#-#in#-#die unigram###in bigram###in#-#die trigram###in#-#die#-#Jahre unigram###die bigram###die#-#Jahre trigram###die#-#Jahre#-#gekommene unigram###Jahre bigram###Jahre#-#gekommene trigram###Jahre#-#gekommene#-#Einrichtung unigram###gekommene bigram###gekommene#-#Einrichtung trigram###gekommene#-#Einrichtung#-#, unigram###Einrichtung bigram###Einrichtung#-#, trigram###Einrichtung#-#,#-#sauber unigram###, bigram###,#-#sauber trigram###,#-#sauber#-#und unigram###sauber bigram###sauber#-#und trigram###sauber#-#und#-#nett unigram###und bigram###und#-#nett trigram###und#-#nett#-#erschien unigram###nett bigram###nett#-#erschien trigram###nett#-#erschien#-#. unigram###erschien bigram###erschien#-#. unigram###. 
-0.019334464775578433931579880322715 33:1 66:1 275:1 331:1 332:1 484:1 796:1 841:1 911:1 930:1 1224:1 1229:1 1867:1 1869:1 7138:1 7399:1 8016:1 18441:1 18442:1 18443:1 18444:1 18445:1 18446:1 18447:1 18448:1 18449:1 18450:1 18451:1 18452:1 18453:1 18454:1 18455:1 18456:1 18457:1 18458:1 18459:1 18460:1 18461:1 18462:1 18463:1 18464:1 18465:1 18466:1 18467:1 18468:1 18469:1 18470:1 18471:1 18472:1 18473:1 18474:1 18475:1 18476:1 18477:1 #unigram###Wir bigram###Wir#-#fuhren trigram###Wir#-#fuhren#-#eine unigram###fuhren bigram###fuhren#-#eine trigram###fuhren#-#eine#-#Woche unigram###eine bigram###eine#-#Woche trigram###eine#-#Woche#-#mit unigram###Woche bigram###Woche#-#mit trigram###Woche#-#mit#-#dem unigram###mit bigram###mit#-#dem trigram###mit#-#dem#-#Fahrrad unigram###dem bigram###dem#-#Fahrrad trigram###dem#-#Fahrrad#-#schöne unigram###Fahrrad bigram###Fahrrad#-#schöne trigram###Fahrrad#-#schöne#-#Routen unigram###schöne bigram###schöne#-#Routen trigram###schöne#-#Routen#-#auf unigram###Routen bigram###Routen#-#auf trigram###Routen#-#auf#-#der unigram###auf bigram###auf#-#der trigram###auf#-#der#-#Insel unigram###der bigram###der#-#Insel trigram###der#-#Insel#-#( unigram###Insel bigram###Insel#-#( trigram###Insel#-#(#-#Max unigram###( bigram###(#-#Max trigram###(#-#Max#-#Hürzeler unigram###Max bigram###Max#-#Hürzeler trigram###Max#-#Hürzeler#-#Bike unigram###Hürzeler bigram###Hürzeler#-#Bike trigram###Hürzeler#-#Bike#-#Holidays unigram###Bike bigram###Bike#-#Holidays trigram###Bike#-#Holidays#-#) unigram###Holidays bigram###Holidays#-#) trigram###Holidays#-#)#-#. unigram###) bigram###)#-#. unigram###. 
0.00673156780546560213479567735817 33:1 119:1 141:1 150:1 161:2 210:1 375:1 498:1 871:1 1101:1 2193:1 2197:1 2199:1 6513:1 10105:1 10106:1 13158:1 13159:1 13160:1 31653:1 35705:1 35706:1 36750:1 36751:1 36752:1 36753:1 36754:1 36755:1 36756:1 36757:1 36758:1 36759:1 36760:1 36761:1 36762:1 36763:1 36764:1 36765:1 #unigram###Durch bigram###Durch#-#die trigram###Durch#-#die#-#Nähe unigram###die bigram###die#-#Nähe trigram###die#-#Nähe#-#zum unigram###Nähe bigram###Nähe#-#zum trigram###Nähe#-#zum#-#Bahnhof unigram###zum bigram###zum#-#Bahnhof trigram###zum#-#Bahnhof#-#kann unigram###Bahnhof bigram###Bahnhof#-#kann trigram###Bahnhof#-#kann#-#man unigram###kann bigram###kann#-#man trigram###kann#-#man#-#es unigram###man bigram###man#-#es trigram###man#-#es#-#vergessen unigram###es bigram###es#-#vergessen trigram###es#-#vergessen#-#die unigram###vergessen bigram###vergessen#-#die trigram###vergessen#-#die#-#Fenster unigram###die bigram###die#-#Fenster trigram###die#-#Fenster#-#zu unigram###Fenster bigram###Fenster#-#zu trigram###Fenster#-#zu#-#öffnen unigram###zu bigram###zu#-#öffnen trigram###zu#-#öffnen#-#. unigram###öffnen bigram###öffnen#-#. unigram###. 
0.018520247380493175259896787565594 33:1 161:1 234:1 450:1 5211:1 20353:1 33964:1 46274:1 46275:1 46276:1 46277:1 46278:1 46279:1 46280:1 46281:1 46282:1 46283:1 46284:1 46285:1 46286:1 46287:1 #unigram###Lediglich bigram###Lediglich#-#die trigram###Lediglich#-#die#-#Bodenbeläge unigram###die bigram###die#-#Bodenbeläge trigram###die#-#Bodenbeläge#-#sind unigram###Bodenbeläge bigram###Bodenbeläge#-#sind trigram###Bodenbeläge#-#sind#-#teilweise unigram###sind bigram###sind#-#teilweise trigram###sind#-#teilweise#-#sehr unigram###teilweise bigram###teilweise#-#sehr trigram###teilweise#-#sehr#-#glatt unigram###sehr bigram###sehr#-#glatt trigram###sehr#-#glatt#-#. unigram###glatt bigram###glatt#-#. unigram###. 
-0.5 39:1 800:1 915:1 34464:1 34465:1 34467:1 #unigram###Rhein bigram###Rhein#-#und trigram###Rhein#-#und#-#Mosel unigram###und bigram###und#-#Mosel unigram###Mosel 
0.0084756073661186592804739348139265 4:1 33:1 92:1 144:1 251:1 498:1 761:1 771:1 3742:1 3878:1 3955:1 5979:1 19554:1 20991:1 28316:1 32392:1 32393:1 32394:1 32395:1 32396:1 32397:1 32398:1 32399:1 32400:1 32401:1 32402:1 32403:1 32404:1 32405:1 32406:1 32407:1 32408:1 32409:1 32410:1 32411:1 32412:1 #unigram###Leider bigram###Leider#-#hat trigram###Leider#-#hat#-#sich unigram###hat bigram###hat#-#sich trigram###hat#-#sich#-#das unigram###sich bigram###sich#-#das trigram###sich#-#das#-#Niveau unigram###das bigram###das#-#Niveau trigram###das#-#Niveau#-#nicht unigram###Niveau bigram###Niveau#-#nicht trigram###Niveau#-#nicht#-#in unigram###nicht bigram###nicht#-#in trigram###nicht#-#in#-#allen unigram###in bigram###in#-#allen trigram###in#-#allen#-#Punkten unigram###allen bigram###allen#-#Punkten trigram###allen#-#Punkten#-#zum unigram###Punkten bigram###Punkten#-#zum trigram###Punkten#-#zum#-#besseren unigram###zum bigram###zum#-#besseren trigram###zum#-#besseren#-#entwickelt unigram###besseren bigram###besseren#-#entwickelt trigram###besseren#-#entwickelt#-#. unigram###entwickelt bigram###entwickelt#-#. unigram###. 
-0.031599853663426810679304423956637 33:1 78:1 201:1 841:1 13071:1 28978:1 44717:1 60280:1 60811:1 62062:1 62063:1 62064:1 62065:1 62066:1 62067:1 62068:1 62069:1 62070:1 62071:1 62072:1 62073:1 62074:1 62075:1 62076:1 62077:1 62078:1 62079:1 62080:1 62081:1 62082:1 62083:1 62084:1 62085:1 62086:1 62087:1 62088:1 #unigram###An bigram###An#-#dem trigram###An#-#dem#-#EU unigram###dem bigram###dem#-#EU trigram###dem#-#EU#-#· unigram###EU bigram###EU#-#· trigram###EU#-#·#-#Sommergipfel unigram###· bigram###·#-#Sommergipfel trigram###·#-#Sommergipfel#-#nahm unigram###Sommergipfel bigram###Sommergipfel#-#nahm trigram###Sommergipfel#-#nahm#-#auch unigram###nahm bigram###nahm#-#auch trigram###nahm#-#auch#-#Kroatiens unigram###auch bigram###auch#-#Kroatiens trigram###auch#-#Kroatiens#-#Regierungschef unigram###Kroatiens bigram###Kroatiens#-#Regierungschef trigram###Kroatiens#-#Regierungschef#-#Zoran unigram###Regierungschef bigram###Regierungschef#-#Zoran trigram###Regierungschef#-#Zoran#-#Milanovic unigram###Zoran bigram###Zoran#-#Milanovic trigram###Zoran#-#Milanovic#-#teil unigram###Milanovic bigram###Milanovic#-#teil trigram###Milanovic#-#teil#-#. unigram###teil bigram###teil#-#. unigram###. 
-0.015552229905111127419847782960005 33:1 39:2 78:1 92:1 93:1 95:1 567:1 749:1 796:1 911:2 4696:2 4800:1 5698:1 11016:1 13147:1 13164:1 41330:2 41335:1 41336:1 41337:1 41338:1 41339:1 41340:1 41341:1 41342:1 41343:1 41344:1 41345:1 41346:1 41347:1 41348:1 41349:1 41350:1 41351:1 41352:1 41353:1 41354:1 41355:1 41356:1 41357:1 41358:1 41359:1 41360:1 41361:1 41362:1 41363:1 41364:1 41365:1 41366:1 41367:1 41368:1 41369:1 41370:1 41371:1 41372:1 41373:1 41374:1 41375:1 41376:1 41377:1 41378:1 41379:1 41380:1 41381:1 41382:1 41383:1 41384:1 41385:1 41386:1 41387:1 41388:1 41389:1 41390:1 41391:1 #unigram###Außerdem bigram###Außerdem#-#bietet trigram###Außerdem#-#bietet#-#das unigram###bietet bigram###bietet#-#das trigram###bietet#-#das#-#Hotel unigram###das bigram###das#-#Hotel trigram###das#-#Hotel#-#4 unigram###Hotel bigram###Hotel#-#4 trigram###Hotel#-#4#-#Juniorsuiten unigram###4 bigram###4#-#Juniorsuiten trigram###4#-#Juniorsuiten#-#mit unigram###Juniorsuiten bigram###Juniorsuiten#-#mit trigram###Juniorsuiten#-#mit#-#42 unigram###mit bigram###mit#-#42 trigram###mit#-#42#-#bis unigram###42 bigram###42#-#bis trigram###42#-#bis#-#46 unigram###bis bigram###bis#-#46 trigram###bis#-#46#-#m2 unigram###46 bigram###46#-#m2 trigram###46#-#m2#-#und unigram###m2 bigram###m2#-#und trigram###m2#-#und#-#9 unigram###und bigram###und#-#9 trigram###und#-#9#-#Suiten unigram###9 bigram###9#-#Suiten trigram###9#-#Suiten#-#mit unigram###Suiten bigram###Suiten#-#mit trigram###Suiten#-#mit#-#getrenntem unigram###mit bigram###mit#-#getrenntem trigram###mit#-#getrenntem#-#Wohn unigram###getrenntem bigram###getrenntem#-#Wohn trigram###getrenntem#-#Wohn#-#· unigram###Wohn bigram###Wohn#-#· trigram###Wohn#-#·#-#und unigram###· bigram###·#-#und trigram###·#-#und#-#Schlafbereich unigram###und bigram###und#-#Schlafbereich trigram###und#-#Schlafbereich#-#auf unigram###Schlafbereich bigram###Schlafbereich#-#auf trigram###Schlafbereich#-#auf#-#51 unigram###auf bigram###auf#-#51 trigram###auf#-#51#-#bis unigram###51 bigram###51#-#bis trigram###51#-#bis#-#64 unigram###bis bigram###bis#-#64 trigram###bis#-#64#-#m2 unigram###64 bigram###64#-#m2 trigram###64#-#m2#-#an unigram###m2 bigram###m2#-#an trigram###m2#-#an#-#. unigram###an bigram###an#-#. unigram###. 
0.0090239095424402629430638000940235 33:1 54:1 63:2 78:2 92:2 450:1 484:1 485:1 487:1 490:1 519:2 714:2 729:1 911:1 1784:1 2494:1 2495:1 2676:1 2678:1 3469:1 3470:1 3472:1 4064:1 5441:1 5442:1 5447:1 5870:1 5871:1 5872:1 5873:1 6880:1 9952:1 10126:1 23295:1 30832:1 30833:1 30834:1 30835:1 30836:1 30837:1 30838:1 30839:1 30840:1 30841:1 30842:1 30843:1 30844:1 30845:1 30846:1 30847:1 30848:1 30849:1 30850:1 30851:1 30852:1 30853:1 30854:1 30855:1 30856:1 30857:1 30858:1 #unigram###Wir bigram###Wir#-#hatten trigram###Wir#-#hatten#-#Halbpension unigram###hatten bigram###hatten#-#Halbpension trigram###hatten#-#Halbpension#-#gebucht unigram###Halbpension bigram###Halbpension#-#gebucht trigram###Halbpension#-#gebucht#-#, unigram###gebucht bigram###gebucht#-#, trigram###gebucht#-#,#-#das unigram###, bigram###,#-#das trigram###,#-#das#-#Frühstück unigram###das bigram###das#-#Frühstück trigram###das#-#Frühstück#-#war unigram###Frühstück bigram###Frühstück#-#war trigram###Frühstück#-#war#-#sehr unigram###war bigram###war#-#sehr trigram###war#-#sehr#-#reichhaltig unigram###sehr bigram###sehr#-#reichhaltig trigram###sehr#-#reichhaltig#-#, unigram###reichhaltig bigram###reichhaltig#-#, trigram###reichhaltig#-#,#-#das unigram###, bigram###,#-#das trigram###,#-#das#-#Abendessen unigram###das bigram###das#-#Abendessen trigram###das#-#Abendessen#-#war unigram###Abendessen bigram###Abendessen#-#war trigram###Abendessen#-#war#-#ein unigram###war bigram###war#-#ein trigram###war#-#ein#-#vier unigram###ein bigram###ein#-#vier trigram###ein#-#vier#-#· unigram###vier bigram###vier#-#· trigram###vier#-#·#-#Gänge unigram###· bigram###·#-#Gänge trigram###·#-#Gänge#-#· unigram###Gänge bigram###Gänge#-#· trigram###Gänge#-#·#-#Menü unigram###· bigram###·#-#Menü trigram###·#-#Menü#-#mit unigram###Menü bigram###Menü#-#mit trigram###Menü#-#mit#-#Vorspeisenbuffet unigram###mit bigram###mit#-#Vorspeisenbuffet trigram###mit#-#Vorspeisenbuffet#-#. unigram###Vorspeisenbuffet bigram###Vorspeisenbuffet#-#. unigram###. 
0.02958230237608797108528335684241 33:1 39:1 158:1 289:1 957:1 6631:1 12907:1 20195:1 60411:1 61371:1 62312:1 62887:1 62888:1 62889:1 65101:1 66567:1 66568:1 66596:1 69543:1 69544:1 69545:1 69546:1 69547:1 69548:1 69549:1 69550:1 69551:1 69552:1 69553:1 69554:1 69555:1 69556:1 69557:1 69558:1 69559:1 69560:1 69561:1 69562:1 69563:1 69564:1 69565:1 69566:1 69567:1 69568:1 69569:1 69570:1 69571:1 69572:1 #unigram###Union bigram###Union#-#und trigram###Union#-#und#-#SPD unigram###und bigram###und#-#SPD trigram###und#-#SPD#-#wollen unigram###SPD bigram###SPD#-#wollen trigram###SPD#-#wollen#-#bei unigram###wollen bigram###wollen#-#bei trigram###wollen#-#bei#-#ihrem unigram###bei bigram###bei#-#ihrem trigram###bei#-#ihrem#-#zweiten unigram###ihrem bigram###ihrem#-#zweiten trigram###ihrem#-#zweiten#-#Sondierungsgespräch unigram###zweiten bigram###zweiten#-#Sondierungsgespräch trigram###zweiten#-#Sondierungsgespräch#-#am unigram###Sondierungsgespräch bigram###Sondierungsgespräch#-#am trigram###Sondierungsgespräch#-#am#-#kommenden unigram###am bigram###am#-#kommenden trigram###am#-#kommenden#-#Montag unigram###kommenden bigram###kommenden#-#Montag trigram###kommenden#-#Montag#-#über unigram###Montag bigram###Montag#-#über trigram###Montag#-#über#-#acht unigram###über bigram###über#-#acht trigram###über#-#acht#-#Themenfelder unigram###acht bigram###acht#-#Themenfelder trigram###acht#-#Themenfelder#-#tiefergehend unigram###Themenfelder bigram###Themenfelder#-#tiefergehend trigram###Themenfelder#-#tiefergehend#-#beraten unigram###tiefergehend bigram###tiefergehend#-#beraten trigram###tiefergehend#-#beraten#-#. unigram###beraten bigram###beraten#-#. unigram###. 
0.099809592499058921721832859930146 33:1 280:1 484:1 485:1 487:1 547:1 7710:1 35620:1 48368:1 48369:1 48370:1 48371:1 48372:1 48373:1 48374:1 #unigram###Wir bigram###Wir#-#hatten trigram###Wir#-#hatten#-#Schimmelflecken unigram###hatten bigram###hatten#-#Schimmelflecken trigram###hatten#-#Schimmelflecken#-#im unigram###Schimmelflecken bigram###Schimmelflecken#-#im trigram###Schimmelflecken#-#im#-#Badezimmer unigram###im bigram###im#-#Badezimmer trigram###im#-#Badezimmer#-#. unigram###Badezimmer bigram###Badezimmer#-#. unigram###. 
0.025665038011327408890016599229966 33:1 39:1 796:1 841:1 1384:1 2696:1 10420:1 32181:1 42874:1 42875:1 42876:1 42877:1 42878:1 42879:1 42880:1 42881:1 42882:1 42883:1 42884:1 42885:1 42886:1 42887:1 42888:1 42889:1 #unigram###Treppengeländer bigram###Treppengeländer#-#und trigram###Treppengeländer#-#und#-#Möbel unigram###und bigram###und#-#Möbel trigram###und#-#Möbel#-#auf unigram###Möbel bigram###Möbel#-#auf trigram###Möbel#-#auf#-#dem unigram###auf bigram###auf#-#dem trigram###auf#-#dem#-#Flur unigram###dem bigram###dem#-#Flur trigram###dem#-#Flur#-#total unigram###Flur bigram###Flur#-#total trigram###Flur#-#total#-#verstaubt unigram###total bigram###total#-#verstaubt trigram###total#-#verstaubt#-#. unigram###verstaubt bigram###verstaubt#-#. unigram###. 
0.01483600665037539817481260229215 13:1 33:1 78:1 300:1 957:1 5072:1 21425:1 21426:1 60052:1 60156:1 60158:1 60423:1 60425:1 61371:1 61372:1 61649:1 61650:1 61651:1 61652:1 61653:1 61660:1 61661:1 61663:1 69002:1 69003:1 69004:1 69005:1 69006:1 69007:1 69008:1 69009:1 69010:1 69011:1 69012:1 69013:1 69014:1 69015:1 69016:1 69017:1 69018:1 69019:1 69020:1 #unigram###Der bigram###Der#-#stellvertretende trigram###Der#-#stellvertretende#-#SPD unigram###stellvertretende bigram###stellvertretende#-#SPD trigram###stellvertretende#-#SPD#-#· unigram###SPD bigram###SPD#-#· trigram###SPD#-#·#-#Fraktionschef unigram###· bigram###·#-#Fraktionschef trigram###·#-#Fraktionschef#-#Joachim unigram###Fraktionschef bigram###Fraktionschef#-#Joachim trigram###Fraktionschef#-#Joachim#-#Poß unigram###Joachim bigram###Joachim#-#Poß trigram###Joachim#-#Poß#-#wies unigram###Poß bigram###Poß#-#wies trigram###Poß#-#wies#-#den unigram###wies bigram###wies#-#den trigram###wies#-#den#-#Vorschlag unigram###den bigram###den#-#Vorschlag trigram###den#-#Vorschlag#-#Friedens unigram###Vorschlag bigram###Vorschlag#-#Friedens trigram###Vorschlag#-#Friedens#-#am unigram###Friedens bigram###Friedens#-#am trigram###Friedens#-#am#-#Sonntag unigram###am bigram###am#-#Sonntag trigram###am#-#Sonntag#-#zurück unigram###Sonntag bigram###Sonntag#-#zurück trigram###Sonntag#-#zurück#-#. unigram###zurück bigram###zurück#-#. unigram###. 
-0.09738872293200932783729939501427 33:1 796:1 4389:1 4422:1 4423:1 4424:1 4425:1 4426:1 4427:1 4428:1 4429:1 4430:1 4431:1 4432:1 4433:1 #unigram###Ich bigram###Ich#-#wachte trigram###Ich#-#wachte#-#wunderbar unigram###wachte bigram###wachte#-#wunderbar trigram###wachte#-#wunderbar#-#erholt unigram###wunderbar bigram###wunderbar#-#erholt trigram###wunderbar#-#erholt#-#auf unigram###erholt bigram###erholt#-#auf trigram###erholt#-#auf#-#. unigram###auf bigram###auf#-#. unigram###. 
0.063023707041862123134912110344885 12:1 2540:1 3197:1 4984:1 22941:1 34036:1 34037:1 34038:1 34039:1 #unigram###Von bigram###Von#-#daher trigram###Von#-#daher#-#unschlagbar unigram###daher bigram###daher#-#unschlagbar trigram###daher#-#unschlagbar#-#! unigram###unschlagbar bigram###unschlagbar#-#! unigram###! 
0.014737618832049598563416203944598 33:1 63:1 78:1 314:1 404:1 430:1 484:1 485:1 486:1 487:2 488:1 490:1 547:1 764:1 882:1 889:1 890:1 1804:1 4223:1 5038:1 8033:1 10967:1 21929:1 30811:1 30957:1 56899:1 56900:1 56901:1 56902:1 56903:1 56904:1 56905:1 56906:1 56907:1 56908:1 56909:1 56910:1 56911:1 56912:1 56913:1 56914:1 56915:1 56916:1 56917:1 56918:1 56919:1 56920:1 #unigram###Wir bigram###Wir#-#hatten trigram###Wir#-#hatten#-#ein unigram###hatten bigram###hatten#-#ein trigram###hatten#-#ein#-#Zimmer unigram###ein bigram###ein#-#Zimmer trigram###ein#-#Zimmer#-#im unigram###Zimmer bigram###Zimmer#-#im trigram###Zimmer#-#im#-#6. unigram###im bigram###im#-#6. trigram###im#-#6.#-#Stock unigram###6. bigram###6.#-#Stock trigram###6.#-#Stock#-#, unigram###Stock bigram###Stock#-#, trigram###Stock#-#,#-#dort unigram###, bigram###,#-#dort trigram###,#-#dort#-#hatten unigram###dort bigram###dort#-#hatten trigram###dort#-#hatten#-#wir unigram###hatten bigram###hatten#-#wir trigram###hatten#-#wir#-#nur unigram###wir bigram###wir#-#nur trigram###wir#-#nur#-#mäßigen unigram###nur bigram###nur#-#mäßigen trigram###nur#-#mäßigen#-#WiFi unigram###mäßigen bigram###mäßigen#-#WiFi trigram###mäßigen#-#WiFi#-#· unigram###WiFi bigram###WiFi#-#· trigram###WiFi#-#·#-#Empfang unigram###· bigram###·#-#Empfang trigram###·#-#Empfang#-#. unigram###Empfang bigram###Empfang#-#. unigram###. 
0.026577498198646350852092368199919 33:1 63:2 275:1 331:1 332:1 490:1 519:1 538:1 1250:1 1786:1 4144:1 4796:1 9760:1 14780:1 21595:1 23295:1 31323:1 54225:1 54226:1 54227:1 54228:1 54229:1 54230:1 54231:1 54232:1 54233:1 54234:1 54235:1 54236:1 54237:1 54238:1 54239:1 54240:1 54241:1 54242:1 54243:1 54244:1 54245:1 54246:1 54247:1 54248:1 54249:1 54250:1 54251:1 #unigram###Es bigram###Es#-#war trigram###Es#-#war#-#ein unigram###war bigram###war#-#ein trigram###war#-#ein#-#angenehmes unigram###ein bigram###ein#-#angenehmes trigram###ein#-#angenehmes#-#, unigram###angenehmes bigram###angenehmes#-#, trigram###angenehmes#-#,#-#ruhiges unigram###, bigram###,#-#ruhiges trigram###,#-#ruhiges#-#Ambiente unigram###ruhiges bigram###ruhiges#-#Ambiente trigram###ruhiges#-#Ambiente#-#( unigram###Ambiente bigram###Ambiente#-#( trigram###Ambiente#-#(#-#leise unigram###( bigram###(#-#leise trigram###(#-#leise#-#angenehme unigram###leise bigram###leise#-#angenehme trigram###leise#-#angenehme#-#Hintergrundmusik unigram###angenehme bigram###angenehme#-#Hintergrundmusik trigram###angenehme#-#Hintergrundmusik#-#, unigram###Hintergrundmusik bigram###Hintergrundmusik#-#, trigram###Hintergrundmusik#-#,#-#keine unigram###, bigram###,#-#keine trigram###,#-#keine#-#Hektik unigram###keine bigram###keine#-#Hektik trigram###keine#-#Hektik#-#) unigram###Hektik bigram###Hektik#-#) trigram###Hektik#-#)#-#. unigram###) bigram###)#-#. unigram###. 
0.01655576763612453400353885513141 33:1 63:1 119:1 758:1 996:1 1769:1 2422:1 4407:1 4990:1 10426:1 23658:1 23660:1 28947:1 31728:1 34225:1 40622:1 40623:1 40624:1 40625:1 40626:1 40627:1 40628:1 40629:1 40630:1 40631:1 40632:1 40633:1 40634:1 40635:1 40636:1 40637:1 40638:1 40639:1 40640:1 40641:1 40642:1 #unigram###Betten bigram###Betten#-#so trigram###Betten#-#so#-#hart unigram###so bigram###so#-#hart trigram###so#-#hart#-#, unigram###hart bigram###hart#-#, trigram###hart#-#,#-#daß unigram###, bigram###,#-#daß trigram###,#-#daß#-#es unigram###daß bigram###daß#-#es trigram###daß#-#es#-#schon unigram###es bigram###es#-#schon trigram###es#-#schon#-#fast unigram###schon bigram###schon#-#fast trigram###schon#-#fast#-#einer unigram###fast bigram###fast#-#einer trigram###fast#-#einer#-#Körperverletzung unigram###einer bigram###einer#-#Körperverletzung trigram###einer#-#Körperverletzung#-#nahe unigram###Körperverletzung bigram###Körperverletzung#-#nahe trigram###Körperverletzung#-#nahe#-#kommt unigram###nahe bigram###nahe#-#kommt trigram###nahe#-#kommt#-#. unigram###kommt bigram###kommt#-#. unigram###. 
0.0099443462518591374532661575358361 12:1 63:2 72:1 92:1 93:1 95:1 119:1 969:1 1037:1 1039:1 12801:1 27407:1 33302:1 38229:1 53200:1 53201:1 53202:1 53203:1 53204:1 53205:1 53206:1 53207:1 53208:1 53209:1 53210:1 53211:1 53212:1 53213:1 53214:1 53215:1 53216:1 53217:1 53218:1 53219:1 53220:1 53221:1 53222:1 53223:1 53224:1 53225:1 53226:1 53227:1 53228:1 53229:1 53230:1 53231:1 53232:1 #unigram###Die bigram###Die#-#gesamte trigram###Die#-#gesamte#-#Aussenfassade unigram###gesamte bigram###gesamte#-#Aussenfassade trigram###gesamte#-#Aussenfassade#-#ist unigram###Aussenfassade bigram###Aussenfassade#-#ist trigram###Aussenfassade#-#ist#-#verspiegelt unigram###ist bigram###ist#-#verspiegelt trigram###ist#-#verspiegelt#-#, unigram###verspiegelt bigram###verspiegelt#-#, trigram###verspiegelt#-#,#-#tagsüber unigram###, bigram###,#-#tagsüber trigram###,#-#tagsüber#-#erscheint unigram###tagsüber bigram###tagsüber#-#erscheint trigram###tagsüber#-#erscheint#-#das unigram###erscheint bigram###erscheint#-#das trigram###erscheint#-#das#-#Hotel unigram###das bigram###das#-#Hotel trigram###das#-#Hotel#-#dunkelblau unigram###Hotel bigram###Hotel#-#dunkelblau trigram###Hotel#-#dunkelblau#-#, unigram###dunkelblau bigram###dunkelblau#-#, trigram###dunkelblau#-#,#-#nachts unigram###, bigram###,#-#nachts trigram###,#-#nachts#-#leuchtet unigram###nachts bigram###nachts#-#leuchtet trigram###nachts#-#leuchtet#-#es unigram###leuchtet bigram###leuchtet#-#es trigram###leuchtet#-#es#-#grün unigram###es bigram###es#-#grün trigram###es#-#grün#-#! unigram###grün bigram###grün#-#! unigram###! 
0.023234266456353729057848767070027 33:1 39:1 63:1 66:1 78:1 119:1 275:1 295:1 331:3 332:1 336:2 498:1 796:1 841:1 923:1 1064:1 1384:1 2428:1 2599:1 2763:1 2948:1 2950:1 2974:1 3907:1 4078:1 5687:1 6022:1 11070:1 13022:1 18814:1 24712:1 28316:1 33888:1 44676:1 52638:1 52639:1 52640:2 52641:1 52642:1 52643:1 52644:1 52645:1 52646:1 52647:1 52648:1 52649:1 52650:1 52651:1 52652:1 52653:1 52654:1 52655:1 52656:1 52657:1 52658:1 52659:1 52660:1 52661:1 52662:1 52663:1 52664:1 52665:1 52666:1 52667:1 52668:1 52669:1 52670:1 52671:1 52672:1 52673:1 52674:1 52675:1 52676:1 52677:1 52678:1 52679:1 52680:1 52681:1 52682:1 52683:1 52684:1 52685:1 52686:1 52687:1 52688:1 52689:1 52690:1 52691:1 52692:1 52693:1 52694:1 52695:1 52696:1 52697:1 52698:1 52699:1 52700:1 52701:1 52702:1 52703:1 52704:1 52705:1 52706:1 52707:1 52708:1 52709:1 52710:1 52711:1 52712:1 52713:1 #unigram###Abends bigram###Abends#-#Shows trigram###Abends#-#Shows#-#, unigram###Shows bigram###Shows#-#, trigram###Shows#-#,#-#meist unigram###, bigram###,#-#meist trigram###,#-#meist#-#Tanz unigram###meist bigram###meist#-#Tanz trigram###meist#-#Tanz#-#· unigram###Tanz bigram###Tanz#-#· trigram###Tanz#-#·#-#oder unigram###· bigram###·#-#oder trigram###·#-#oder#-#Musikaufführungen. unigram###oder bigram###oder#-#Musikaufführungen. trigram###oder#-#Musikaufführungen.#-#zum unigram###Musikaufführungen. bigram###Musikaufführungen.#-#zum trigram###Musikaufführungen.#-#zum#-#Teil unigram###zum bigram###zum#-#Teil trigram###zum#-#Teil#-#recht unigram###Teil bigram###Teil#-#recht trigram###Teil#-#recht#-#langweilig unigram###recht bigram###recht#-#langweilig trigram###recht#-#langweilig#-#und unigram###langweilig bigram###langweilig#-#und trigram###langweilig#-#und#-#von unigram###und bigram###und#-#von trigram###und#-#von#-#mäßiger unigram###von bigram###von#-#mäßiger trigram###von#-#mäßiger#-#Qualität unigram###mäßiger bigram###mäßiger#-#Qualität trigram###mäßiger#-#Qualität#-#) unigram###Qualität bigram###Qualität#-#) trigram###Qualität#-#)#-#Im unigram###) bigram###)#-#Im trigram###)#-#Im#-#ersten unigram###Im bigram###Im#-#ersten trigram###Im#-#ersten#-#Jahr unigram###ersten bigram###ersten#-#Jahr trigram###ersten#-#Jahr#-#( unigram###Jahr bigram###Jahr#-#( trigram###Jahr#-#(#-#2008 unigram###( bigram###(#-#2008 trigram###(#-#2008#-#) unigram###2008 bigram###2008#-#) trigram###2008#-#)#-#gab unigram###) bigram###)#-#gab trigram###)#-#gab#-#es unigram###gab bigram###gab#-#es trigram###gab#-#es#-#noch unigram###es bigram###es#-#noch trigram###es#-#noch#-#tolle unigram###noch bigram###noch#-#tolle trigram###noch#-#tolle#-#Shows unigram###tolle bigram###tolle#-#Shows trigram###tolle#-#Shows#-#auf unigram###Shows bigram###Shows#-#auf trigram###Shows#-#auf#-#dem unigram###auf bigram###auf#-#dem trigram###auf#-#dem#-#Niveau unigram###dem bigram###dem#-#Niveau trigram###dem#-#Niveau#-#eines unigram###Niveau bigram###Niveau#-#eines trigram###Niveau#-#eines#-#Robinson unigram###eines bigram###eines#-#Robinson trigram###eines#-#Robinson#-#Clubs unigram###Robinson bigram###Robinson#-#Clubs trigram###Robinson#-#Clubs#-#oder unigram###Clubs bigram###Clubs#-#oder trigram###Clubs#-#oder#-#der unigram###oder bigram###oder#-#der trigram###oder#-#der#-#AIDA unigram###der bigram###der#-#AIDA trigram###der#-#AIDA#-#) unigram###AIDA bigram###AIDA#-#) trigram###AIDA#-#)#-#. unigram###) bigram###)#-#. unigram###. 
-0.16870804405834424755106226712087 66:1 119:1 122:1 226:1 289:1 752:1 1187:1 7898:1 15642:1 34893:1 34894:1 34895:1 34896:1 34897:1 34898:1 #unigram###Bon bigram###Bon#-#gibt trigram###Bon#-#gibt#-#es unigram###gibt bigram###gibt#-#es trigram###gibt#-#es#-#bei unigram###es bigram###es#-#bei trigram###es#-#bei#-#der unigram###bei bigram###bei#-#der trigram###bei#-#der#-#Rezeption unigram###der bigram###der#-#Rezeption unigram###Rezeption 
0.010191194542227506592002583829526 7:1 12:1 4434:1 4435:1 4436:1 4437:1 4438:1 4439:1 4440:1 4441:1 4442:1 4443:1 #unigram###Immer bigram###Immer#-#wieder trigram###Immer#-#wieder#-#Beach unigram###wieder bigram###wieder#-#Beach trigram###wieder#-#Beach#-#Albatros unigram###Beach bigram###Beach#-#Albatros trigram###Beach#-#Albatros#-#! unigram###Albatros bigram###Albatros#-#! unigram###! 
0.46539273183621915341845465263759 33:1 988:1 2746:1 #unigram###schön bigram###schön#-#. unigram###. 
0.042597484023848365686237826821525 39:1 161:1 234:1 400:1 641:1 27765:1 31473:1 40048:1 52058:1 52059:1 52060:1 52061:1 52062:1 52063:1 52064:1 52065:1 52066:1 52067:1 #unigram###Bad bigram###Bad#-#schmutzig trigram###Bad#-#schmutzig#-#und unigram###schmutzig bigram###schmutzig#-#und trigram###schmutzig#-#und#-#die unigram###und bigram###und#-#die trigram###und#-#die#-#Fugen unigram###die bigram###die#-#Fugen trigram###die#-#Fugen#-#sind unigram###Fugen bigram###Fugen#-#sind trigram###Fugen#-#sind#-#verschimmelt unigram###sind bigram###sind#-#verschimmelt unigram###verschimmelt 
0.038799215369988968027392672865972 33:1 166:2 378:1 484:1 817:1 897:1 1224:1 2861:1 4421:1 5756:1 7607:1 13915:1 31538:1 50584:1 61914:1 65486:1 65487:1 65488:1 65489:1 65490:1 65491:1 65492:1 65493:1 65494:1 65495:1 65496:1 65497:1 65498:1 65499:1 65500:1 65501:1 65502:1 65503:1 65504:1 65505:1 #unigram###Er bigram###Er#-#versicherte trigram###Er#-#versicherte#-#aber unigram###versicherte bigram###versicherte#-#aber trigram###versicherte#-#aber#-#: unigram###aber bigram###aber#-#: trigram###aber#-#:#-#" unigram###: bigram###:#-#" trigram###:#-#"#-#Wir unigram###" bigram###"#-#Wir trigram###"#-#Wir#-#haben unigram###Wir bigram###Wir#-#haben trigram###Wir#-#haben#-#eine unigram###haben bigram###haben#-#eine trigram###haben#-#eine#-#politische unigram###eine bigram###eine#-#politische trigram###eine#-#politische#-#Einigung unigram###politische bigram###politische#-#Einigung trigram###politische#-#Einigung#-#erreicht unigram###Einigung bigram###Einigung#-#erreicht trigram###Einigung#-#erreicht#-#" unigram###erreicht bigram###erreicht#-#" trigram###erreicht#-#"#-#. unigram###" bigram###"#-#. unigram###. 
0.0057681318647927679044151716425404 33:1 39:1 66:2 430:1 552:1 708:1 873:1 923:1 1393:1 3093:1 3190:1 4519:1 4521:1 16738:1 17730:1 17732:1 19608:1 19609:1 19610:1 19611:1 19612:1 19613:1 19614:1 19615:1 19616:1 19617:1 19618:1 19619:1 19620:1 19621:1 19622:1 19623:1 19624:1 19625:1 19626:1 #unigram###Besonders bigram###Besonders#-#begeistert trigram###Besonders#-#begeistert#-#waren unigram###begeistert bigram###begeistert#-#waren trigram###begeistert#-#waren#-#wir unigram###waren bigram###waren#-#wir trigram###waren#-#wir#-#von unigram###wir bigram###wir#-#von trigram###wir#-#von#-#der unigram###von bigram###von#-#der trigram###von#-#der#-#Zimmergröße unigram###der bigram###der#-#Zimmergröße trigram###der#-#Zimmergröße#-#und unigram###Zimmergröße bigram###Zimmergröße#-#und trigram###Zimmergröße#-#und#-#der unigram###und bigram###und#-#der trigram###und#-#der#-#Freundlichkeit unigram###der bigram###der#-#Freundlichkeit trigram###der#-#Freundlichkeit#-#des unigram###Freundlichkeit bigram###Freundlichkeit#-#des trigram###Freundlichkeit#-#des#-#Personals unigram###des bigram###des#-#Personals trigram###des#-#Personals#-#. unigram###Personals bigram###Personals#-#. unigram###. 
-0.038210212663331986904236003965707 33:1 63:1 66:1 78:1 89:1 95:1 144:1 150:1 248:1 498:1 602:1 801:1 950:1 951:1 1353:1 2470:1 2471:1 3007:1 3014:1 3019:1 3071:1 3077:1 3078:1 7107:1 7945:1 7946:1 13158:1 16840:1 17457:1 17459:1 20437:1 20439:1 33926:1 33927:1 33928:1 33929:1 33930:1 33931:1 33932:1 33933:1 33934:1 33935:1 33936:1 33937:1 33938:1 33939:1 33940:1 33941:1 33942:1 33943:1 33944:1 33945:1 33946:1 33947:1 #unigram###Das bigram###Das#-#Hotel trigram###Das#-#Hotel#-#liegt unigram###Hotel bigram###Hotel#-#liegt trigram###Hotel#-#liegt#-#etwas unigram###liegt bigram###liegt#-#etwas trigram###liegt#-#etwas#-#außerhalb unigram###etwas bigram###etwas#-#außerhalb trigram###etwas#-#außerhalb#-#in unigram###außerhalb bigram###außerhalb#-#in trigram###außerhalb#-#in#-#der unigram###in bigram###in#-#der trigram###in#-#der#-#Nähe unigram###der bigram###der#-#Nähe trigram###der#-#Nähe#-#zum unigram###Nähe bigram###Nähe#-#zum trigram###Nähe#-#zum#-#Strand unigram###zum bigram###zum#-#Strand trigram###zum#-#Strand#-#, unigram###Strand bigram###Strand#-#, trigram###Strand#-#,#-#zur unigram###, bigram###,#-#zur trigram###,#-#zur#-#Metro unigram###zur bigram###zur#-#Metro trigram###zur#-#Metro#-#10 unigram###Metro bigram###Metro#-#10 trigram###Metro#-#10#-#· unigram###10 bigram###10#-#· trigram###10#-#·#-#15 unigram###· bigram###·#-#15 trigram###·#-#15#-#min unigram###15 bigram###15#-#min trigram###15#-#min#-#Fußweg unigram###min bigram###min#-#Fußweg trigram###min#-#Fußweg#-#. unigram###Fußweg bigram###Fußweg#-#. unigram###. 
0.022786831607433669782958318705823 33:1 144:2 309:1 412:1 1062:1 1063:1 1173:1 1487:1 5060:1 19279:1 28971:1 28987:1 28988:1 28989:1 28990:1 28991:1 28992:1 28993:1 28994:1 28995:1 28996:1 28997:1 28998:1 #unigram###Alles bigram###Alles#-#in trigram###Alles#-#in#-#wird unigram###in bigram###in#-#wird trigram###in#-#wird#-#in unigram###wird bigram###wird#-#in trigram###wird#-#in#-#einen unigram###in bigram###in#-#einen trigram###in#-#einen#-#Super unigram###einen bigram###einen#-#Super trigram###einen#-#Super#-#Zustand unigram###Super bigram###Super#-#Zustand trigram###Super#-#Zustand#-#gehalten unigram###Zustand bigram###Zustand#-#gehalten trigram###Zustand#-#gehalten#-#. unigram###gehalten bigram###gehalten#-#. unigram###. 
-0.5 95:1 54057:1 54058:1 #unigram###ABSTEIGEnberger bigram###ABSTEIGEnberger#-#Hotel unigram###Hotel 
-0.046796983150322130073917037407227 33:1 63:1 375:1 538:1 796:1 3517:1 3763:1 6297:1 9629:1 14546:1 23189:1 25321:1 30130:1 46358:1 46359:1 46360:1 46361:1 46362:1 46363:1 46364:1 46365:1 46366:1 46367:1 46368:1 46369:1 46370:1 46371:1 46372:1 46373:1 46374:1 46375:1 46376:1 46377:1 46378:1 46379:1 46380:1 46381:1 46382:1 46383:1 #unigram###Dabei bigram###Dabei#-#fallen trigram###Dabei#-#fallen#-#einem unigram###fallen bigram###fallen#-#einem trigram###fallen#-#einem#-#Dinge unigram###einem bigram###einem#-#Dinge trigram###einem#-#Dinge#-#auf unigram###Dinge bigram###Dinge#-#auf trigram###Dinge#-#auf#-#, unigram###auf bigram###auf#-#, trigram###auf#-#,#-#denen unigram###, bigram###,#-#denen trigram###,#-#denen#-#man unigram###denen bigram###denen#-#man trigram###denen#-#man#-#normalerweise unigram###man bigram###man#-#normalerweise trigram###man#-#normalerweise#-#keine unigram###normalerweise bigram###normalerweise#-#keine trigram###normalerweise#-#keine#-#Bedeutung unigram###keine bigram###keine#-#Bedeutung trigram###keine#-#Bedeutung#-#beigemessen unigram###Bedeutung bigram###Bedeutung#-#beigemessen trigram###Bedeutung#-#beigemessen#-#hätte unigram###beigemessen bigram###beigemessen#-#hätte trigram###beigemessen#-#hätte#-#. unigram###hätte bigram###hätte#-#. unigram###. 
